digraph Tree {
node [shape=box] ;
0 [label="X[155] <= 0.5\nentropy = 0.468\nsamples = 3656\nvalue = [[3282, 374]\n[3238, 418]\n[3314, 342]\n..., \n[3256, 400]\n[3316, 340]\n[3292, 364]]"] ;
1 [label="X[401] <= 1.0\nentropy = 0.434\nsamples = 1842\nvalue = [[1767, 75]\n[1632, 210]\n[1778, 64]\n..., \n[1449, 393]\n[1768, 74]\n[1498, 344]]"] ;
0 -> 1 [labeldistance=2.5, labelangle=45, headlabel="True"] ;
2 [label="X[405] <= 16.5\nentropy = 0.397\nsamples = 867\nvalue = [[847, 20]\n[658, 209]\n[824, 43]\n..., \n[555, 312]\n[819, 48]\n[784, 83]]"] ;
1 -> 2 ;
3 [label="X[484] <= 2.0\nentropy = 0.267\nsamples = 414\nvalue = [[397, 17]\n[410, 4]\n[395, 19]\n..., \n[123, 291]\n[412, 2]\n[383, 31]]"] ;
2 -> 3 ;
4 [label="X[376] <= 0.5\nentropy = 0.177\nsamples = 335\nvalue = [[331, 4]\n[331, 4]\n[330, 5]\n..., \n[55, 280]\n[333, 2]\n[324, 11]]"] ;
3 -> 4 ;
5 [label="X[465] <= 17.5\nentropy = 0.109\nsamples = 290\nvalue = [[287, 3]\n[286, 4]\n[285, 5]\n..., \n[25, 265]\n[289, 1]\n[286, 4]]"] ;
4 -> 5 ;
6 [label="entropy = 0.271\nsamples = 65\nvalue = [[62, 3]\n[61, 4]\n[62, 3]\n..., \n[20, 45]\n[64, 1]\n[62, 3]]"] ;
5 -> 6 ;
7 [label="entropy = 0.034\nsamples = 225\nvalue = [[225, 0]\n[225, 0]\n[223, 2]\n..., \n[5, 220]\n[225, 0]\n[224, 1]]"] ;
5 -> 7 ;
8 [label="X[298] <= 66.0\nentropy = 0.377\nsamples = 45\nvalue = [[44, 1]\n[45, 0]\n[45, 0]\n..., \n[30, 15]\n[44, 1]\n[38, 7]]"] ;
4 -> 8 ;
9 [label="entropy = 0.321\nsamples = 21\nvalue = [[21, 0]\n[21, 0]\n[21, 0]\n..., \n[19, 2]\n[21, 0]\n[21, 0]]"] ;
8 -> 9 ;
10 [label="entropy = 0.278\nsamples = 24\nvalue = [[23, 1]\n[24, 0]\n[24, 0]\n..., \n[11, 13]\n[23, 1]\n[17, 7]]"] ;
8 -> 10 ;
11 [label="X[569] <= 2.0\nentropy = 0.395\nsamples = 79\nvalue = [[66, 13]\n[79, 0]\n[65, 14]\n..., \n[68, 11]\n[79, 0]\n[59, 20]]"] ;
3 -> 11 ;
12 [label="X[211] <= 28.0\nentropy = 0.318\nsamples = 49\nvalue = [[48, 1]\n[49, 0]\n[48, 1]\n..., \n[38, 11]\n[49, 0]\n[29, 20]]"] ;
11 -> 12 ;
13 [label="entropy = 0.25\nsamples = 20\nvalue = [[19, 1]\n[20, 0]\n[19, 1]\n..., \n[18, 2]\n[20, 0]\n[20, 0]]"] ;
12 -> 13 ;
14 [label="entropy = 0.179\nsamples = 29\nvalue = [[29, 0]\n[29, 0]\n[29, 0]\n..., \n[20, 9]\n[29, 0]\n[9, 20]]"] ;
12 -> 14 ;
15 [label="X[460] <= 20.5\nentropy = 0.285\nsamples = 30\nvalue = [[18, 12]\n[30, 0]\n[17, 13]\n..., \n[30, 0]\n[30, 0]\n[30, 0]]"] ;
11 -> 15 ;
16 [label="entropy = 0.219\nsamples = 17\nvalue = [[5, 12]\n[17, 0]\n[17, 0]\n..., \n[17, 0]\n[17, 0]\n[17, 0]]"] ;
15 -> 16 ;
17 [label="entropy = 0.0\nsamples = 13\nvalue = [[13, 0]\n[13, 0]\n[0, 13]\n..., \n[13, 0]\n[13, 0]\n[13, 0]]"] ;
15 -> 17 ;
18 [label="X[347] <= 0.5\nentropy = 0.382\nsamples = 453\nvalue = [[450, 3]\n[248, 205]\n[429, 24]\n..., \n[432, 21]\n[407, 46]\n[401, 52]]"] ;
2 -> 18 ;
19 [label="X[234] <= 2.0\nentropy = 0.264\nsamples = 291\nvalue = [[291, 0]\n[88, 203]\n[272, 19]\n..., \n[272, 19]\n[283, 8]\n[282, 9]]"] ;
18 -> 19 ;
20 [label="X[465] <= 80.5\nentropy = 0.144\nsamples = 230\nvalue = [[230, 0]\n[29, 201]\n[226, 4]\n..., \n[229, 1]\n[225, 5]\n[229, 1]]"] ;
19 -> 20 ;
21 [label="entropy = 0.095\nsamples = 217\nvalue = [[217, 0]\n[16, 201]\n[215, 2]\n..., \n[216, 1]\n[212, 5]\n[217, 0]]"] ;
20 -> 21 ;
22 [label="entropy = 0.325\nsamples = 13\nvalue = [[13, 0]\n[13, 0]\n[11, 2]\n..., \n[13, 0]\n[13, 0]\n[12, 1]]"] ;
20 -> 22 ;
23 [label="X[517] <= 25.5\nentropy = 0.369\nsamples = 61\nvalue = [[61, 0]\n[59, 2]\n[46, 15]\n..., \n[43, 18]\n[58, 3]\n[53, 8]]"] ;
19 -> 23 ;
24 [label="entropy = 0.307\nsamples = 24\nvalue = [[24, 0]\n[24, 0]\n[24, 0]\n..., \n[23, 1]\n[21, 3]\n[17, 7]]"] ;
23 -> 24 ;
25 [label="entropy = 0.276\nsamples = 37\nvalue = [[37, 0]\n[35, 2]\n[22, 15]\n..., \n[20, 17]\n[37, 0]\n[36, 1]]"] ;
23 -> 25 ;
26 [label="X[486] <= 2.0\nentropy = 0.393\nsamples = 162\nvalue = [[159, 3]\n[160, 2]\n[157, 5]\n..., \n[160, 2]\n[124, 38]\n[119, 43]]"] ;
18 -> 26 ;
27 [label="X[353] <= 79.0\nentropy = 0.34\nsamples = 105\nvalue = [[104, 1]\n[103, 2]\n[104, 1]\n..., \n[103, 2]\n[98, 7]\n[62, 43]]"] ;
26 -> 27 ;
28 [label="entropy = 0.28\nsamples = 52\nvalue = [[51, 1]\n[50, 2]\n[51, 1]\n..., \n[52, 0]\n[49, 3]\n[48, 4]]"] ;
27 -> 28 ;
29 [label="entropy = 0.222\nsamples = 53\nvalue = [[53, 0]\n[53, 0]\n[53, 0]\n..., \n[51, 2]\n[49, 4]\n[14, 39]]"] ;
27 -> 29 ;
30 [label="X[523] <= 10.0\nentropy = 0.294\nsamples = 57\nvalue = [[55, 2]\n[57, 0]\n[53, 4]\n..., \n[57, 0]\n[26, 31]\n[57, 0]]"] ;
26 -> 30 ;
31 [label="entropy = 0.178\nsamples = 40\nvalue = [[40, 0]\n[40, 0]\n[40, 0]\n..., \n[40, 0]\n[9, 31]\n[40, 0]]"] ;
30 -> 31 ;
32 [label="entropy = 0.295\nsamples = 17\nvalue = [[15, 2]\n[17, 0]\n[13, 4]\n..., \n[17, 0]\n[17, 0]\n[17, 0]]"] ;
30 -> 32 ;
33 [label="X[211] <= 21.5\nentropy = 0.392\nsamples = 975\nvalue = [[920, 55]\n[974, 1]\n[954, 21]\n..., \n[894, 81]\n[949, 26]\n[714, 261]]"] ;
1 -> 33 ;
34 [label="X[294] <= 12.5\nentropy = 0.294\nsamples = 444\nvalue = [[438, 6]\n[444, 0]\n[436, 8]\n..., \n[408, 36]\n[438, 6]\n[434, 10]]"] ;
33 -> 34 ;
35 [label="X[96] <= 0.5\nentropy = 0.152\nsamples = 306\nvalue = [[305, 1]\n[306, 0]\n[304, 2]\n..., \n[303, 3]\n[305, 1]\n[304, 2]]"] ;
34 -> 35 ;
36 [label="X[437] <= 2.5\nentropy = 0.086\nsamples = 274\nvalue = [[273, 1]\n[274, 0]\n[273, 1]\n..., \n[271, 3]\n[273, 1]\n[272, 2]]"] ;
35 -> 36 ;
37 [label="entropy = 0.314\nsamples = 20\nvalue = [[19, 1]\n[20, 0]\n[20, 0]\n..., \n[19, 1]\n[19, 1]\n[20, 0]]"] ;
36 -> 37 ;
38 [label="entropy = 0.048\nsamples = 254\nvalue = [[254, 0]\n[254, 0]\n[253, 1]\n..., \n[252, 2]\n[254, 0]\n[252, 2]]"] ;
36 -> 38 ;
39 [label="X[185] <= 3.5\nentropy = 0.04\nsamples = 32\nvalue = [[32, 0]\n[32, 0]\n[31, 1]\n..., \n[32, 0]\n[32, 0]\n[32, 0]]"] ;
35 -> 39 ;
40 [label="entropy = 0.0\nsamples = 31\nvalue = [[31, 0]\n[31, 0]\n[31, 0]\n..., \n[31, 0]\n[31, 0]\n[31, 0]]"] ;
39 -> 40 ;
41 [label="entropy = 0.0\nsamples = 1\nvalue = [[1, 0]\n[1, 0]\n[0, 1]\n..., \n[1, 0]\n[1, 0]\n[1, 0]]"] ;
39 -> 41 ;
42 [label="X[248] <= 2.0\nentropy = 0.368\nsamples = 138\nvalue = [[133, 5]\n[138, 0]\n[132, 6]\n..., \n[105, 33]\n[133, 5]\n[130, 8]]"] ;
34 -> 42 ;
43 [label="X[432] <= 3.0\nentropy = 0.398\nsamples = 88\nvalue = [[84, 4]\n[88, 0]\n[82, 6]\n..., \n[55, 33]\n[83, 5]\n[80, 8]]"] ;
42 -> 43 ;
44 [label="entropy = 0.241\nsamples = 41\nvalue = [[37, 4]\n[41, 0]\n[41, 0]\n..., \n[12, 29]\n[41, 0]\n[40, 1]]"] ;
43 -> 44 ;
45 [label="entropy = 0.418\nsamples = 47\nvalue = [[47, 0]\n[47, 0]\n[41, 6]\n..., \n[43, 4]\n[42, 5]\n[40, 7]]"] ;
43 -> 45 ;
46 [label="X[383] <= 47.0\nentropy = 0.053\nsamples = 50\nvalue = [[49, 1]\n[50, 0]\n[50, 0]\n..., \n[50, 0]\n[50, 0]\n[50, 0]]"] ;
42 -> 46 ;
47 [label="entropy = 0.0\nsamples = 48\nvalue = [[48, 0]\n[48, 0]\n[48, 0]\n..., \n[48, 0]\n[48, 0]\n[48, 0]]"] ;
46 -> 47 ;
48 [label="entropy = 0.2\nsamples = 2\nvalue = [[1, 1]\n[2, 0]\n[2, 0]\n..., \n[2, 0]\n[2, 0]\n[2, 0]]"] ;
46 -> 48 ;
49 [label="X[567] <= 1.0\nentropy = 0.371\nsamples = 531\nvalue = [[482, 49]\n[530, 1]\n[518, 13]\n..., \n[486, 45]\n[511, 20]\n[280, 251]]"] ;
33 -> 49 ;
50 [label="X[326] <= 3.0\nentropy = 0.306\nsamples = 404\nvalue = [[402, 2]\n[403, 1]\n[398, 6]\n..., \n[360, 44]\n[390, 14]\n[156, 248]]"] ;
49 -> 50 ;
51 [label="X[236] <= 45.0\nentropy = 0.393\nsamples = 91\nvalue = [[89, 2]\n[90, 1]\n[89, 2]\n..., \n[88, 3]\n[87, 4]\n[64, 27]]"] ;
50 -> 51 ;
52 [label="entropy = 0.345\nsamples = 23\nvalue = [[22, 1]\n[22, 1]\n[22, 1]\n..., \n[23, 0]\n[22, 1]\n[23, 0]]"] ;
51 -> 52 ;
53 [label="entropy = 0.324\nsamples = 68\nvalue = [[67, 1]\n[68, 0]\n[67, 1]\n..., \n[65, 3]\n[65, 3]\n[41, 27]]"] ;
51 -> 53 ;
54 [label="X[432] <= 2.5\nentropy = 0.24\nsamples = 313\nvalue = [[313, 0]\n[313, 0]\n[309, 4]\n..., \n[272, 41]\n[303, 10]\n[92, 221]]"] ;
50 -> 54 ;
55 [label="entropy = 0.25\nsamples = 74\nvalue = [[74, 0]\n[74, 0]\n[74, 0]\n..., \n[39, 35]\n[74, 0]\n[41, 33]]"] ;
54 -> 55 ;
56 [label="entropy = 0.198\nsamples = 239\nvalue = [[239, 0]\n[239, 0]\n[235, 4]\n..., \n[233, 6]\n[229, 10]\n[51, 188]]"] ;
54 -> 56 ;
57 [label="X[329] <= 6.5\nentropy = 0.354\nsamples = 127\nvalue = [[80, 47]\n[127, 0]\n[120, 7]\n..., \n[126, 1]\n[121, 6]\n[124, 3]]"] ;
49 -> 57 ;
58 [label="X[220] <= 2.5\nentropy = 0.264\nsamples = 64\nvalue = [[61, 3]\n[64, 0]\n[63, 1]\n..., \n[64, 0]\n[64, 0]\n[63, 1]]"] ;
57 -> 58 ;
59 [label="entropy = 0.349\nsamples = 27\nvalue = [[26, 1]\n[27, 0]\n[26, 1]\n..., \n[27, 0]\n[27, 0]\n[26, 1]]"] ;
58 -> 59 ;
60 [label="entropy = 0.061\nsamples = 37\nvalue = [[35, 2]\n[37, 0]\n[37, 0]\n..., \n[37, 0]\n[37, 0]\n[37, 0]]"] ;
58 -> 60 ;
61 [label="X[406] <= 1.5\nentropy = 0.252\nsamples = 63\nvalue = [[19, 44]\n[63, 0]\n[57, 6]\n..., \n[62, 1]\n[57, 6]\n[61, 2]]"] ;
57 -> 61 ;
62 [label="entropy = 0.032\nsamples = 43\nvalue = [[1, 42]\n[43, 0]\n[43, 0]\n..., \n[42, 1]\n[43, 0]\n[43, 0]]"] ;
61 -> 62 ;
63 [label="entropy = 0.364\nsamples = 20\nvalue = [[18, 2]\n[20, 0]\n[14, 6]\n..., \n[20, 0]\n[14, 6]\n[18, 2]]"] ;
61 -> 63 ;
64 [label="X[489] <= 5.5\nentropy = 0.427\nsamples = 1814\nvalue = [[1515, 299]\n[1606, 208]\n[1536, 278]\n..., \n[1807, 7]\n[1548, 266]\n[1794, 20]]"] ;
0 -> 64 [labeldistance=2.5, labelangle=-45, headlabel="False"] ;
65 [label="X[379] <= 1.0\nentropy = 0.361\nsamples = 840\nvalue = [[550, 290]\n[836, 4]\n[803, 37]\n..., \n[839, 1]\n[775, 65]\n[832, 8]]"] ;
64 -> 65 ;
66 [label="X[435] <= 2.5\nentropy = 0.208\nsamples = 363\nvalue = [[81, 282]\n[363, 0]\n[349, 14]\n..., \n[363, 0]\n[361, 2]\n[361, 2]]"] ;
65 -> 66 ;
67 [label="X[324] <= 167.5\nentropy = 0.122\nsamples = 314\nvalue = [[34, 280]\n[314, 0]\n[310, 4]\n..., \n[314, 0]\n[314, 0]\n[312, 2]]"] ;
66 -> 67 ;
68 [label="X[630] <= 54.0\nentropy = 0.048\nsamples = 276\nvalue = [[9, 267]\n[276, 0]\n[272, 4]\n..., \n[276, 0]\n[276, 0]\n[274, 2]]"] ;
67 -> 68 ;
69 [label="entropy = 0.242\nsamples = 23\nvalue = [[7, 16]\n[23, 0]\n[21, 2]\n..., \n[23, 0]\n[23, 0]\n[21, 2]]"] ;
68 -> 69 ;
70 [label="entropy = 0.013\nsamples = 253\nvalue = [[2, 251]\n[253, 0]\n[251, 2]\n..., \n[253, 0]\n[253, 0]\n[253, 0]]"] ;
68 -> 70 ;
71 [label="X[427] <= 137.5\nentropy = 0.299\nsamples = 38\nvalue = [[25, 13]\n[38, 0]\n[38, 0]\n..., \n[38, 0]\n[38, 0]\n[38, 0]]"] ;
67 -> 71 ;
72 [label="entropy = 0.239\nsamples = 25\nvalue = [[25, 0]\n[25, 0]\n[25, 0]\n..., \n[25, 0]\n[25, 0]\n[25, 0]]"] ;
71 -> 72 ;
73 [label="entropy = 0.0\nsamples = 13\nvalue = [[0, 13]\n[13, 0]\n[13, 0]\n..., \n[13, 0]\n[13, 0]\n[13, 0]]"] ;
71 -> 73 ;
74 [label="X[269] <= 5.0\nentropy = 0.373\nsamples = 49\nvalue = [[47, 2]\n[49, 0]\n[39, 10]\n..., \n[49, 0]\n[47, 2]\n[49, 0]]"] ;
66 -> 74 ;
75 [label="X[185] <= 92.5\nentropy = 0.283\nsamples = 29\nvalue = [[29, 0]\n[29, 0]\n[27, 2]\n..., \n[29, 0]\n[28, 1]\n[29, 0]]"] ;
74 -> 75 ;
76 [label="entropy = 0.146\nsamples = 18\nvalue = [[18, 0]\n[18, 0]\n[17, 1]\n..., \n[18, 0]\n[18, 0]\n[18, 0]]"] ;
75 -> 76 ;
77 [label="entropy = 0.156\nsamples = 11\nvalue = [[11, 0]\n[11, 0]\n[10, 1]\n..., \n[11, 0]\n[10, 1]\n[11, 0]]"] ;
75 -> 77 ;
78 [label="X[355] <= 34.5\nentropy = 0.272\nsamples = 20\nvalue = [[18, 2]\n[20, 0]\n[12, 8]\n..., \n[20, 0]\n[19, 1]\n[20, 0]]"] ;
74 -> 78 ;
79 [label="entropy = 0.094\nsamples = 10\nvalue = [[10, 0]\n[10, 0]\n[10, 0]\n..., \n[10, 0]\n[9, 1]\n[10, 0]]"] ;
78 -> 79 ;
80 [label="entropy = 0.144\nsamples = 10\nvalue = [[8, 2]\n[10, 0]\n[2, 8]\n..., \n[10, 0]\n[10, 0]\n[10, 0]]"] ;
78 -> 80 ;
81 [label="X[486] <= 27.5\nentropy = 0.336\nsamples = 477\nvalue = [[469, 8]\n[473, 4]\n[454, 23]\n..., \n[476, 1]\n[414, 63]\n[471, 6]]"] ;
65 -> 81 ;
82 [label="X[297] <= 35.0\nentropy = 0.247\nsamples = 347\nvalue = [[344, 3]\n[343, 4]\n[341, 6]\n..., \n[346, 1]\n[342, 5]\n[341, 6]]"] ;
81 -> 82 ;
83 [label="X[267] <= 97.0\nentropy = 0.29\nsamples = 145\nvalue = [[143, 2]\n[143, 2]\n[141, 4]\n..., \n[145, 0]\n[142, 3]\n[144, 1]]"] ;
82 -> 83 ;
84 [label="entropy = 0.232\nsamples = 103\nvalue = [[103, 0]\n[103, 0]\n[99, 4]\n..., \n[103, 0]\n[100, 3]\n[102, 1]]"] ;
83 -> 84 ;
85 [label="entropy = 0.181\nsamples = 42\nvalue = [[40, 2]\n[40, 2]\n[42, 0]\n..., \n[42, 0]\n[42, 0]\n[42, 0]]"] ;
83 -> 85 ;
86 [label="X[316] <= 44.0\nentropy = 0.101\nsamples = 202\nvalue = [[201, 1]\n[200, 2]\n[200, 2]\n..., \n[201, 1]\n[200, 2]\n[197, 5]]"] ;
82 -> 86 ;
87 [label="entropy = 0.053\nsamples = 189\nvalue = [[189, 0]\n[189, 0]\n[187, 2]\n..., \n[188, 1]\n[188, 1]\n[186, 3]]"] ;
86 -> 87 ;
88 [label="entropy = 0.369\nsamples = 13\nvalue = [[12, 1]\n[11, 2]\n[13, 0]\n..., \n[13, 0]\n[12, 1]\n[11, 2]]"] ;
86 -> 88 ;
89 [label="X[656] <= 62.5\nentropy = 0.331\nsamples = 130\nvalue = [[125, 5]\n[130, 0]\n[113, 17]\n..., \n[130, 0]\n[72, 58]\n[130, 0]]"] ;
81 -> 89 ;
90 [label="X[625] <= 64.5\nentropy = 0.282\nsamples = 51\nvalue = [[50, 1]\n[51, 0]\n[39, 12]\n..., \n[51, 0]\n[49, 2]\n[51, 0]]"] ;
89 -> 90 ;
91 [label="entropy = 0.139\nsamples = 35\nvalue = [[35, 0]\n[35, 0]\n[32, 3]\n..., \n[35, 0]\n[35, 0]\n[35, 0]]"] ;
90 -> 91 ;
92 [label="entropy = 0.29\nsamples = 16\nvalue = [[15, 1]\n[16, 0]\n[7, 9]\n..., \n[16, 0]\n[14, 2]\n[16, 0]]"] ;
90 -> 92 ;
93 [label="X[576] <= 168.5\nentropy = 0.247\nsamples = 79\nvalue = [[75, 4]\n[79, 0]\n[74, 5]\n..., \n[79, 0]\n[23, 56]\n[79, 0]]"] ;
89 -> 93 ;
94 [label="entropy = 0.12\nsamples = 49\nvalue = [[49, 0]\n[49, 0]\n[46, 3]\n..., \n[49, 0]\n[6, 43]\n[49, 0]]"] ;
93 -> 94 ;
95 [label="entropy = 0.341\nsamples = 30\nvalue = [[26, 4]\n[30, 0]\n[28, 2]\n..., \n[30, 0]\n[17, 13]\n[30, 0]]"] ;
93 -> 95 ;
96 [label="X[657] <= 0.5\nentropy = 0.385\nsamples = 974\nvalue = [[965, 9]\n[770, 204]\n[733, 241]\n..., \n[968, 6]\n[773, 201]\n[962, 12]]"] ;
64 -> 96 ;
97 [label="X[319] <= 1.0\nentropy = 0.318\nsamples = 522\nvalue = [[520, 2]\n[473, 49]\n[318, 204]\n..., \n[519, 3]\n[506, 16]\n[516, 6]]"] ;
96 -> 97 ;
98 [label="X[567] <= 4.5\nentropy = 0.267\nsamples = 271\nvalue = [[271, 0]\n[225, 46]\n[94, 177]\n..., \n[269, 2]\n[268, 3]\n[267, 4]]"] ;
97 -> 98 ;
99 [label="X[350] <= 159.5\nentropy = 0.353\nsamples = 111\nvalue = [[111, 0]\n[67, 44]\n[84, 27]\n..., \n[109, 2]\n[110, 1]\n[107, 4]]"] ;
98 -> 99 ;
100 [label="entropy = 0.346\nsamples = 53\nvalue = [[53, 0]\n[53, 0]\n[31, 22]\n..., \n[51, 2]\n[52, 1]\n[50, 3]]"] ;
99 -> 100 ;
101 [label="entropy = 0.208\nsamples = 58\nvalue = [[58, 0]\n[14, 44]\n[53, 5]\n..., \n[58, 0]\n[58, 0]\n[57, 1]]"] ;
99 -> 101 ;
102 [label="X[342] <= 15.0\nentropy = 0.082\nsamples = 160\nvalue = [[160, 0]\n[158, 2]\n[10, 150]\n..., \n[160, 0]\n[158, 2]\n[160, 0]]"] ;
98 -> 102 ;
103 [label="entropy = 0.061\nsamples = 157\nvalue = [[157, 0]\n[155, 2]\n[7, 150]\n..., \n[157, 0]\n[156, 1]\n[157, 0]]"] ;
102 -> 103 ;
104 [label="entropy = 0.275\nsamples = 3\nvalue = [[3, 0]\n[3, 0]\n[3, 0]\n..., \n[3, 0]\n[2, 1]\n[3, 0]]"] ;
102 -> 104 ;
105 [label="X[270] <= 24.0\nentropy = 0.232\nsamples = 251\nvalue = [[249, 2]\n[248, 3]\n[224, 27]\n..., \n[250, 1]\n[238, 13]\n[249, 2]]"] ;
97 -> 105 ;
106 [label="X[623] <= 10.5\nentropy = 0.147\nsamples = 212\nvalue = [[212, 0]\n[209, 3]\n[205, 7]\n..., \n[211, 1]\n[206, 6]\n[211, 1]]"] ;
105 -> 106 ;
107 [label="entropy = 0.095\nsamples = 196\nvalue = [[196, 0]\n[193, 3]\n[195, 1]\n..., \n[195, 1]\n[196, 0]\n[195, 1]]"] ;
106 -> 107 ;
108 [label="entropy = 0.294\nsamples = 16\nvalue = [[16, 0]\n[16, 0]\n[10, 6]\n..., \n[16, 0]\n[10, 6]\n[16, 0]]"] ;
106 -> 108 ;
109 [label="X[484] <= 89.5\nentropy = 0.328\nsamples = 39\nvalue = [[37, 2]\n[39, 0]\n[19, 20]\n..., \n[39, 0]\n[32, 7]\n[38, 1]]"] ;
105 -> 109 ;
110 [label="entropy = 0.302\nsamples = 13\nvalue = [[13, 0]\n[13, 0]\n[11, 2]\n..., \n[13, 0]\n[6, 7]\n[12, 1]]"] ;
109 -> 110 ;
111 [label="entropy = 0.242\nsamples = 26\nvalue = [[24, 2]\n[26, 0]\n[8, 18]\n..., \n[26, 0]\n[26, 0]\n[26, 0]]"] ;
109 -> 111 ;
112 [label="X[267] <= 107.5\nentropy = 0.335\nsamples = 452\nvalue = [[445, 7]\n[297, 155]\n[415, 37]\n..., \n[449, 3]\n[267, 185]\n[446, 6]]"] ;
96 -> 112 ;
113 [label="X[348] <= 2.5\nentropy = 0.276\nsamples = 247\nvalue = [[245, 2]\n[245, 2]\n[216, 31]\n..., \n[244, 3]\n[85, 162]\n[241, 6]]"] ;
112 -> 113 ;
114 [label="X[373] <= 11.0\nentropy = 0.353\nsamples = 80\nvalue = [[79, 1]\n[78, 2]\n[49, 31]\n..., \n[77, 3]\n[58, 22]\n[74, 6]]"] ;
113 -> 114 ;
115 [label="entropy = 0.268\nsamples = 51\nvalue = [[51, 0]\n[49, 2]\n[20, 31]\n..., \n[48, 3]\n[47, 4]\n[51, 0]]"] ;
114 -> 115 ;
116 [label="entropy = 0.261\nsamples = 29\nvalue = [[28, 1]\n[29, 0]\n[29, 0]\n..., \n[29, 0]\n[11, 18]\n[23, 6]]"] ;
114 -> 116 ;
117 [label="X[429] <= 145.0\nentropy = 0.157\nsamples = 167\nvalue = [[166, 1]\n[167, 0]\n[167, 0]\n..., \n[167, 0]\n[27, 140]\n[167, 0]]"] ;
113 -> 117 ;
118 [label="entropy = 0.076\nsamples = 145\nvalue = [[145, 0]\n[145, 0]\n[145, 0]\n..., \n[145, 0]\n[9, 136]\n[145, 0]]"] ;
117 -> 118 ;
119 [label="entropy = 0.34\nsamples = 22\nvalue = [[21, 1]\n[22, 0]\n[22, 0]\n..., \n[22, 0]\n[18, 4]\n[22, 0]]"] ;
117 -> 119 ;
120 [label="X[208] <= 20.5\nentropy = 0.225\nsamples = 205\nvalue = [[200, 5]\n[52, 153]\n[199, 6]\n..., \n[205, 0]\n[182, 23]\n[205, 0]]"] ;
112 -> 120 ;
121 [label="X[595] <= 4.0\nentropy = 0.066\nsamples = 147\nvalue = [[147, 0]\n[7, 140]\n[146, 1]\n..., \n[147, 0]\n[145, 2]\n[147, 0]]"] ;
120 -> 121 ;
122 [label="entropy = 0.023\nsamples = 142\nvalue = [[142, 0]\n[2, 140]\n[142, 0]\n..., \n[142, 0]\n[142, 0]\n[142, 0]]"] ;
121 -> 122 ;
123 [label="entropy = 0.266\nsamples = 5\nvalue = [[5, 0]\n[5, 0]\n[4, 1]\n..., \n[5, 0]\n[3, 2]\n[5, 0]]"] ;
121 -> 123 ;
124 [label="X[241] <= 11.0\nentropy = 0.375\nsamples = 58\nvalue = [[53, 5]\n[45, 13]\n[53, 5]\n..., \n[58, 0]\n[37, 21]\n[58, 0]]"] ;
120 -> 124 ;
125 [label="entropy = 0.183\nsamples = 17\nvalue = [[17, 0]\n[4, 13]\n[15, 2]\n..., \n[17, 0]\n[15, 2]\n[17, 0]]"] ;
124 -> 125 ;
126 [label="entropy = 0.341\nsamples = 41\nvalue = [[36, 5]\n[41, 0]\n[38, 3]\n..., \n[41, 0]\n[22, 19]\n[41, 0]]"] ;
124 -> 126 ;
}