digraph Tree {
node [shape=box] ;
0 [label="X[0] <= 0.5\nentropy = 3.319\nsamples = 3656\nvalue = [366, 409, 358, 376, 368, 320, 374, 385, 338, 362]"] ;
1 [label="X[5] <= 7.5\nentropy = 2.743\nsamples = 1645\nvalue = [6, 406, 145, 177, 282, 181, 62, 357, 8, 21]"] ;
0 -> 1 [labeldistance=2.5, labelangle=45, headlabel="True"] ;
2 [label="X[4] <= 5.5\nentropy = 0.881\nsamples = 440\nvalue = [5, 387, 3, 11, 6, 5, 3, 14, 4, 2]"] ;
1 -> 2 ;
3 [label="X[9] <= 11.548\nentropy = 2.527\nsamples = 31\nvalue = [5, 7, 2, 3, 0, 2, 0, 10, 2, 0]"] ;
2 -> 3 ;
4 [label="entropy = 0.0\nsamples = 7\nvalue = [0, 7, 0, 0, 0, 0, 0, 0, 0, 0]"] ;
3 -> 4 ;
5 [label="X[3] <= 17.472\nentropy = 2.269\nsamples = 24\nvalue = [5, 0, 2, 3, 0, 2, 0, 10, 2, 0]"] ;
3 -> 5 ;
6 [label="X[1] <= 13.923\nentropy = 0.866\nsamples = 11\nvalue = [0, 0, 0, 1, 0, 1, 0, 9, 0, 0]"] ;
5 -> 6 ;
7 [label="X[3] <= 14.477\nentropy = 1.0\nsamples = 2\nvalue = [0, 0, 0, 1, 0, 1, 0, 0, 0, 0]"] ;
6 -> 7 ;
8 [label="entropy = 0.0\nsamples = 1\nvalue = [0, 0, 0, 1, 0, 0, 0, 0, 0, 0]"] ;
7 -> 8 ;
9 [label="entropy = 0.0\nsamples = 1\nvalue = [0, 0, 0, 0, 0, 1, 0, 0, 0, 0]"] ;
7 -> 9 ;
10 [label="entropy = 0.0\nsamples = 9\nvalue = [0, 0, 0, 0, 0, 0, 0, 9, 0, 0]"] ;
6 -> 10 ;
11 [label="X[6] <= 10.118\nentropy = 2.346\nsamples = 13\nvalue = [5, 0, 2, 2, 0, 1, 0, 1, 2, 0]"] ;
5 -> 11 ;
12 [label="X[6] <= 5.013\nentropy = 0.918\nsamples = 3\nvalue = [0, 0, 2, 0, 0, 0, 0, 1, 0, 0]"] ;
11 -> 12 ;
13 [label="entropy = 0.0\nsamples = 1\nvalue = [0, 0, 1, 0, 0, 0, 0, 0, 0, 0]"] ;
12 -> 13 ;
14 [label="X[7] <= 24.781\nentropy = 1.0\nsamples = 2\nvalue = [0, 0, 1, 0, 0, 0, 0, 1, 0, 0]"] ;
12 -> 14 ;
15 [label="entropy = 0.0\nsamples = 1\nvalue = [0, 0, 0, 0, 0, 0, 0, 1, 0, 0]"] ;
14 -> 15 ;
16 [label="entropy = 0.0\nsamples = 1\nvalue = [0, 0, 1, 0, 0, 0, 0, 0, 0, 0]"] ;
14 -> 16 ;
17 [label="X[7] <= 31.983\nentropy = 1.761\nsamples = 10\nvalue = [5, 0, 0, 2, 0, 1, 0, 0, 2, 0]"] ;
11 -> 17 ;
18 [label="X[5] <= 5.5\nentropy = 1.299\nsamples = 8\nvalue = [5, 0, 0, 0, 0, 1, 0, 0, 2, 0]"] ;
17 -> 18 ;
19 [label="entropy = 0.0\nsamples = 4\nvalue = [4, 0, 0, 0, 0, 0, 0, 0, 0, 0]"] ;
18 -> 19 ;
20 [label="X[6] <= 27.027\nentropy = 1.5\nsamples = 4\nvalue = [1, 0, 0, 0, 0, 1, 0, 0, 2, 0]"] ;
18 -> 20 ;
21 [label="entropy = 0.0\nsamples = 2\nvalue = [0, 0, 0, 0, 0, 0, 0, 0, 2, 0]"] ;
20 -> 21 ;
22 [label="X[3] <= 30.05\nentropy = 1.0\nsamples = 2\nvalue = [1, 0, 0, 0, 0, 1, 0, 0, 0, 0]"] ;
20 -> 22 ;
23 [label="entropy = 0.0\nsamples = 1\nvalue = [1, 0, 0, 0, 0, 0, 0, 0, 0, 0]"] ;
22 -> 23 ;
24 [label="entropy = 0.0\nsamples = 1\nvalue = [0, 0, 0, 0, 0, 1, 0, 0, 0, 0]"] ;
22 -> 24 ;
25 [label="entropy = 0.0\nsamples = 2\nvalue = [0, 0, 0, 2, 0, 0, 0, 0, 0, 0]"] ;
17 -> 25 ;
26 [label="X[9] <= 16.314\nentropy = 0.565\nsamples = 409\nvalue = [0, 380, 1, 8, 6, 3, 3, 4, 2, 2]"] ;
2 -> 26 ;
27 [label="entropy = 0.0\nsamples = 226\nvalue = [0, 226, 0, 0, 0, 0, 0, 0, 0, 0]"] ;
26 -> 27 ;
28 [label="X[4] <= 14.5\nentropy = 1.067\nsamples = 183\nvalue = [0, 154, 1, 8, 6, 3, 3, 4, 2, 2]"] ;
26 -> 28 ;
29 [label="X[4] <= 10.5\nentropy = 2.801\nsamples = 39\nvalue = [0, 12, 1, 8, 5, 3, 3, 3, 2, 2]"] ;
28 -> 29 ;
30 [label="X[8] <= 20.164\nentropy = 2.2\nsamples = 13\nvalue = [0, 0, 0, 6, 1, 1, 1, 0, 2, 2]"] ;
29 -> 30 ;
31 [label="X[9] <= 31.158\nentropy = 1.299\nsamples = 8\nvalue = [0, 0, 0, 5, 0, 1, 0, 0, 0, 2]"] ;
30 -> 31 ;
32 [label="X[3] <= 13.806\nentropy = 0.65\nsamples = 6\nvalue = [0, 0, 0, 5, 0, 0, 0, 0, 0, 1]"] ;
31 -> 32 ;
33 [label="entropy = 0.0\nsamples = 1\nvalue = [0, 0, 0, 0, 0, 0, 0, 0, 0, 1]"] ;
32 -> 33 ;
34 [label="entropy = 0.0\nsamples = 5\nvalue = [0, 0, 0, 5, 0, 0, 0, 0, 0, 0]"] ;
32 -> 34 ;
35 [label="X[1] <= 18.777\nentropy = 1.0\nsamples = 2\nvalue = [0, 0, 0, 0, 0, 1, 0, 0, 0, 1]"] ;
31 -> 35 ;
36 [label="entropy = 0.0\nsamples = 1\nvalue = [0, 0, 0, 0, 0, 0, 0, 0, 0, 1]"] ;
35 -> 36 ;
37 [label="entropy = 0.0\nsamples = 1\nvalue = [0, 0, 0, 0, 0, 1, 0, 0, 0, 0]"] ;
35 -> 37 ;
38 [label="X[5] <= 6.0\nentropy = 1.922\nsamples = 5\nvalue = [0, 0, 0, 1, 1, 0, 1, 0, 2, 0]"] ;
30 -> 38 ;
39 [label="X[4] <= 6.5\nentropy = 0.918\nsamples = 3\nvalue = [0, 0, 0, 1, 0, 0, 0, 0, 2, 0]"] ;
38 -> 39 ;
40 [label="entropy = 0.0\nsamples = 1\nvalue = [0, 0, 0, 1, 0, 0, 0, 0, 0, 0]"] ;
39 -> 40 ;
41 [label="entropy = 0.0\nsamples = 2\nvalue = [0, 0, 0, 0, 0, 0, 0, 0, 2, 0]"] ;
39 -> 41 ;
42 [label="X[8] <= 31.655\nentropy = 1.0\nsamples = 2\nvalue = [0, 0, 0, 0, 1, 0, 1, 0, 0, 0]"] ;
38 -> 42 ;
43 [label="entropy = 0.0\nsamples = 1\nvalue = [0, 0, 0, 0, 0, 0, 1, 0, 0, 0]"] ;
42 -> 43 ;
44 [label="entropy = 0.0\nsamples = 1\nvalue = [0, 0, 0, 0, 1, 0, 0, 0, 0, 0]"] ;
42 -> 44 ;
45 [label="X[9] <= 26.061\nentropy = 2.324\nsamples = 26\nvalue = [0, 12, 1, 2, 4, 2, 2, 3, 0, 0]"] ;
29 -> 45 ;
46 [label="X[6] <= 12.969\nentropy = 1.426\nsamples = 15\nvalue = [0, 10, 0, 0, 0, 2, 2, 1, 0, 0]"] ;
45 -> 46 ;
47 [label="X[2] <= 19.721\nentropy = 0.544\nsamples = 8\nvalue = [0, 7, 0, 0, 0, 0, 0, 1, 0, 0]"] ;
46 -> 47 ;
48 [label="entropy = 0.0\nsamples = 1\nvalue = [0, 0, 0, 0, 0, 0, 0, 1, 0, 0]"] ;
47 -> 48 ;
49 [label="entropy = 0.0\nsamples = 7\nvalue = [0, 7, 0, 0, 0, 0, 0, 0, 0, 0]"] ;
47 -> 49 ;
50 [label="X[1] <= 13.464\nentropy = 1.557\nsamples = 7\nvalue = [0, 3, 0, 0, 0, 2, 2, 0, 0, 0]"] ;
46 -> 50 ;
51 [label="entropy = 0.0\nsamples = 3\nvalue = [0, 3, 0, 0, 0, 0, 0, 0, 0, 0]"] ;
50 -> 51 ;
52 [label="X[6] <= 18.86\nentropy = 1.0\nsamples = 4\nvalue = [0, 0, 0, 0, 0, 2, 2, 0, 0, 0]"] ;
50 -> 52 ;
53 [label="entropy = 0.0\nsamples = 2\nvalue = [0, 0, 0, 0, 0, 0, 2, 0, 0, 0]"] ;
52 -> 53 ;
54 [label="entropy = 0.0\nsamples = 2\nvalue = [0, 0, 0, 0, 0, 2, 0, 0, 0, 0]"] ;
52 -> 54 ;
55 [label="X[4] <= 13.0\nentropy = 2.187\nsamples = 11\nvalue = [0, 2, 1, 2, 4, 0, 0, 2, 0, 0]"] ;
45 -> 55 ;
56 [label="X[6] <= 25.242\nentropy = 1.918\nsamples = 6\nvalue = [0, 2, 1, 1, 0, 0, 0, 2, 0, 0]"] ;
55 -> 56 ;
57 [label="X[1] <= 27.112\nentropy = 0.918\nsamples = 3\nvalue = [0, 0, 1, 0, 0, 0, 0, 2, 0, 0]"] ;
56 -> 57 ;
58 [label="entropy = 0.0\nsamples = 2\nvalue = [0, 0, 0, 0, 0, 0, 0, 2, 0, 0]"] ;
57 -> 58 ;
59 [label="entropy = 0.0\nsamples = 1\nvalue = [0, 0, 1, 0, 0, 0, 0, 0, 0, 0]"] ;
57 -> 59 ;
60 [label="X[2] <= 22.235\nentropy = 0.918\nsamples = 3\nvalue = [0, 2, 0, 1, 0, 0, 0, 0, 0, 0]"] ;
56 -> 60 ;
61 [label="entropy = 0.0\nsamples = 2\nvalue = [0, 2, 0, 0, 0, 0, 0, 0, 0, 0]"] ;
60 -> 61 ;
62 [label="entropy = 0.0\nsamples = 1\nvalue = [0, 0, 0, 1, 0, 0, 0, 0, 0, 0]"] ;
60 -> 62 ;
63 [label="X[3] <= 26.663\nentropy = 0.722\nsamples = 5\nvalue = [0, 0, 0, 1, 4, 0, 0, 0, 0, 0]"] ;
55 -> 63 ;
64 [label="entropy = 0.0\nsamples = 4\nvalue = [0, 0, 0, 0, 4, 0, 0, 0, 0, 0]"] ;
63 -> 64 ;
65 [label="entropy = 0.0\nsamples = 1\nvalue = [0, 0, 0, 1, 0, 0, 0, 0, 0, 0]"] ;
63 -> 65 ;
66 [label="X[8] <= 10.662\nentropy = 0.119\nsamples = 144\nvalue = [0, 142, 0, 0, 1, 0, 0, 1, 0, 0]"] ;
28 -> 66 ;
67 [label="X[8] <= 5.183\nentropy = 1.061\nsamples = 8\nvalue = [0, 6, 0, 0, 1, 0, 0, 1, 0, 0]"] ;
66 -> 67 ;
68 [label="entropy = 0.0\nsamples = 1\nvalue = [0, 0, 0, 0, 1, 0, 0, 0, 0, 0]"] ;
67 -> 68 ;
69 [label="X[2] <= 21.849\nentropy = 0.592\nsamples = 7\nvalue = [0, 6, 0, 0, 0, 0, 0, 1, 0, 0]"] ;
67 -> 69 ;
70 [label="entropy = 0.0\nsamples = 6\nvalue = [0, 6, 0, 0, 0, 0, 0, 0, 0, 0]"] ;
69 -> 70 ;
71 [label="entropy = 0.0\nsamples = 1\nvalue = [0, 0, 0, 0, 0, 0, 0, 1, 0, 0]"] ;
69 -> 71 ;
72 [label="entropy = 0.0\nsamples = 136\nvalue = [0, 136, 0, 0, 0, 0, 0, 0, 0, 0]"] ;
66 -> 72 ;
73 [label="X[3] <= 32.843\nentropy = 2.604\nsamples = 1205\nvalue = [1, 19, 142, 166, 276, 176, 59, 343, 4, 19]"] ;
1 -> 73 ;
74 [label="X[7] <= 34.824\nentropy = 2.328\nsamples = 649\nvalue = [0, 8, 30, 75, 119, 110, 10, 275, 3, 19]"] ;
73 -> 74 ;
75 [label="X[8] <= 26.86\nentropy = 2.514\nsamples = 434\nvalue = [0, 5, 28, 48, 109, 91, 10, 124, 2, 17]"] ;
74 -> 75 ;
76 [label="X[8] <= 8.419\nentropy = 2.343\nsamples = 291\nvalue = [0, 2, 7, 38, 74, 36, 6, 112, 2, 14]"] ;
75 -> 76 ;
77 [label="X[4] <= 6.5\nentropy = 0.715\nsamples = 40\nvalue = [0, 0, 0, 1, 3, 0, 0, 35, 0, 1]"] ;
76 -> 77 ;
78 [label="entropy = 0.0\nsamples = 22\nvalue = [0, 0, 0, 0, 0, 0, 0, 22, 0, 0]"] ;
77 -> 78 ;
79 [label="X[9] <= 27.696\nentropy = 1.233\nsamples = 18\nvalue = [0, 0, 0, 1, 3, 0, 0, 13, 0, 1]"] ;
77 -> 79 ;
80 [label="entropy = 0.0\nsamples = 2\nvalue = [0, 0, 0, 0, 2, 0, 0, 0, 0, 0]"] ;
79 -> 80 ;
81 [label="X[4] <= 12.5\nentropy = 0.993\nsamples = 16\nvalue = [0, 0, 0, 1, 1, 0, 0, 13, 0, 1]"] ;
79 -> 81 ;
82 [label="X[7] <= 22.598\nentropy = 1.585\nsamples = 3\nvalue = [0, 0, 0, 1, 1, 0, 0, 1, 0, 0]"] ;
81 -> 82 ;
83 [label="entropy = 0.0\nsamples = 1\nvalue = [0, 0, 0, 1, 0, 0, 0, 0, 0, 0]"] ;
82 -> 83 ;
84 [label="X[6] <= 31.94\nentropy = 1.0\nsamples = 2\nvalue = [0, 0, 0, 0, 1, 0, 0, 1, 0, 0]"] ;
82 -> 84 ;
85 [label="entropy = 0.0\nsamples = 1\nvalue = [0, 0, 0, 0, 0, 0, 0, 1, 0, 0]"] ;
84 -> 85 ;
86 [label="entropy = 0.0\nsamples = 1\nvalue = [0, 0, 0, 0, 1, 0, 0, 0, 0, 0]"] ;
84 -> 86 ;
87 [label="X[5] <= 9.5\nentropy = 0.391\nsamples = 13\nvalue = [0, 0, 0, 0, 0, 0, 0, 12, 0, 1]"] ;
81 -> 87 ;
88 [label="X[1] <= 17.441\nentropy = 0.811\nsamples = 4\nvalue = [0, 0, 0, 0, 0, 0, 0, 3, 0, 1]"] ;
87 -> 88 ;
89 [label="entropy = 0.0\nsamples = 2\nvalue = [0, 0, 0, 0, 0, 0, 0, 2, 0, 0]"] ;
88 -> 89 ;
90 [label="X[9] <= 34.926\nentropy = 1.0\nsamples = 2\nvalue = [0, 0, 0, 0, 0, 0, 0, 1, 0, 1]"] ;
88 -> 90 ;
91 [label="entropy = 0.0\nsamples = 1\nvalue = [0, 0, 0, 0, 0, 0, 0, 0, 0, 1]"] ;
90 -> 91 ;
92 [label="entropy = 0.0\nsamples = 1\nvalue = [0, 0, 0, 0, 0, 0, 0, 1, 0, 0]"] ;
90 -> 92 ;
93 [label="entropy = 0.0\nsamples = 9\nvalue = [0, 0, 0, 0, 0, 0, 0, 9, 0, 0]"] ;
87 -> 93 ;
94 [label="X[9] <= 31.543\nentropy = 2.452\nsamples = 251\nvalue = [0, 2, 7, 37, 71, 36, 6, 77, 2, 13]"] ;
76 -> 94 ;
95 [label="X[7] <= 21.469\nentropy = 2.578\nsamples = 121\nvalue = [0, 2, 6, 17, 12, 23, 6, 46, 2, 7]"] ;
94 -> 95 ;
96 [label="X[8] <= 15.383\nentropy = 2.914\nsamples = 41\nvalue = [0, 1, 5, 3, 6, 11, 6, 4, 2, 3]"] ;
95 -> 96 ;
97 [label="X[4] <= 3.5\nentropy = 2.294\nsamples = 19\nvalue = [0, 0, 0, 3, 4, 5, 0, 4, 0, 3]"] ;
96 -> 97 ;
98 [label="X[6] <= 26.891\nentropy = 1.361\nsamples = 10\nvalue = [0, 0, 0, 0, 1, 5, 0, 4, 0, 0]"] ;
97 -> 98 ;
99 [label="X[7] <= 15.393\nentropy = 1.252\nsamples = 6\nvalue = [0, 0, 0, 0, 1, 1, 0, 4, 0, 0]"] ;
98 -> 99 ;
100 [label="X[3] <= 15.199\nentropy = 1.0\nsamples = 2\nvalue = [0, 0, 0, 0, 1, 1, 0, 0, 0, 0]"] ;
99 -> 100 ;
101 [label="entropy = 0.0\nsamples = 1\nvalue = [0, 0, 0, 0, 0, 1, 0, 0, 0, 0]"] ;
100 -> 101 ;
102 [label="entropy = 0.0\nsamples = 1\nvalue = [0, 0, 0, 0, 1, 0, 0, 0, 0, 0]"] ;
100 -> 102 ;
103 [label="entropy = 0.0\nsamples = 4\nvalue = [0, 0, 0, 0, 0, 0, 0, 4, 0, 0]"] ;
99 -> 103 ;
104 [label="entropy = 0.0\nsamples = 4\nvalue = [0, 0, 0, 0, 0, 4, 0, 0, 0, 0]"] ;
98 -> 104 ;
105 [label="X[6] <= 23.242\nentropy = 1.585\nsamples = 9\nvalue = [0, 0, 0, 3, 3, 0, 0, 0, 0, 3]"] ;
97 -> 105 ;
106 [label="X[6] <= 17.876\nentropy = 1.0\nsamples = 6\nvalue = [0, 0, 0, 0, 3, 0, 0, 0, 0, 3]"] ;
105 -> 106 ;
107 [label="entropy = 0.0\nsamples = 2\nvalue = [0, 0, 0, 0, 2, 0, 0, 0, 0, 0]"] ;
106 -> 107 ;
108 [label="X[4] <= 17.5\nentropy = 0.811\nsamples = 4\nvalue = [0, 0, 0, 0, 1, 0, 0, 0, 0, 3]"] ;
106 -> 108 ;
109 [label="entropy = 0.0\nsamples = 3\nvalue = [0, 0, 0, 0, 0, 0, 0, 0, 0, 3]"] ;
108 -> 109 ;
110 [label="entropy = 0.0\nsamples = 1\nvalue = [0, 0, 0, 0, 1, 0, 0, 0, 0, 0]"] ;
108 -> 110 ;
111 [label="entropy = 0.0\nsamples = 3\nvalue = [0, 0, 0, 3, 0, 0, 0, 0, 0, 0]"] ;
105 -> 111 ;
112 [label="X[1] <= 20.751\nentropy = 2.34\nsamples = 22\nvalue = [0, 1, 5, 0, 2, 6, 6, 0, 2, 0]"] ;
96 -> 112 ;
113 [label="X[4] <= 3.5\nentropy = 1.966\nsamples = 15\nvalue = [0, 0, 5, 0, 2, 1, 6, 0, 1, 0]"] ;
112 -> 113 ;
114 [label="X[9] <= 24.156\nentropy = 1.585\nsamples = 3\nvalue = [0, 0, 0, 0, 1, 1, 0, 0, 1, 0]"] ;
113 -> 114 ;
115 [label="entropy = 0.0\nsamples = 1\nvalue = [0, 0, 0, 0, 0, 0, 0, 0, 1, 0]"] ;
114 -> 115 ;
116 [label="X[7] <= 17.393\nentropy = 1.0\nsamples = 2\nvalue = [0, 0, 0, 0, 1, 1, 0, 0, 0, 0]"] ;
114 -> 116 ;
117 [label="entropy = 0.0\nsamples = 1\nvalue = [0, 0, 0, 0, 0, 1, 0, 0, 0, 0]"] ;
116 -> 117 ;
118 [label="entropy = 0.0\nsamples = 1\nvalue = [0, 0, 0, 0, 1, 0, 0, 0, 0, 0]"] ;
116 -> 118 ;
119 [label="X[5] <= 10.0\nentropy = 1.325\nsamples = 12\nvalue = [0, 0, 5, 0, 1, 0, 6, 0, 0, 0]"] ;
113 -> 119 ;
120 [label="X[6] <= 10.238\nentropy = 0.722\nsamples = 5\nvalue = [0, 0, 0, 0, 1, 0, 4, 0, 0, 0]"] ;
119 -> 120 ;
121 [label="entropy = 0.0\nsamples = 1\nvalue = [0, 0, 0, 0, 1, 0, 0, 0, 0, 0]"] ;
120 -> 121 ;
122 [label="entropy = 0.0\nsamples = 4\nvalue = [0, 0, 0, 0, 0, 0, 4, 0, 0, 0]"] ;
120 -> 122 ;
123 [label="X[1] <= 18.193\nentropy = 0.863\nsamples = 7\nvalue = [0, 0, 5, 0, 0, 0, 2, 0, 0, 0]"] ;
119 -> 123 ;
124 [label="entropy = 0.0\nsamples = 4\nvalue = [0, 0, 4, 0, 0, 0, 0, 0, 0, 0]"] ;
123 -> 124 ;
125 [label="X[7] <= 17.267\nentropy = 0.918\nsamples = 3\nvalue = [0, 0, 1, 0, 0, 0, 2, 0, 0, 0]"] ;
123 -> 125 ;
126 [label="entropy = 0.0\nsamples = 2\nvalue = [0, 0, 0, 0, 0, 0, 2, 0, 0, 0]"] ;
125 -> 126 ;
127 [label="entropy = 0.0\nsamples = 1\nvalue = [0, 0, 1, 0, 0, 0, 0, 0, 0, 0]"] ;
125 -> 127 ;
128 [label="X[6] <= 29.087\nentropy = 1.149\nsamples = 7\nvalue = [0, 1, 0, 0, 0, 5, 0, 0, 1, 0]"] ;
112 -> 128 ;
129 [label="entropy = 0.0\nsamples = 5\nvalue = [0, 0, 0, 0, 0, 5, 0, 0, 0, 0]"] ;
128 -> 129 ;
130 [label="X[7] <= 17.995\nentropy = 1.0\nsamples = 2\nvalue = [0, 1, 0, 0, 0, 0, 0, 0, 1, 0]"] ;
128 -> 130 ;
131 [label="entropy = 0.0\nsamples = 1\nvalue = [0, 1, 0, 0, 0, 0, 0, 0, 0, 0]"] ;
130 -> 131 ;
132 [label="entropy = 0.0\nsamples = 1\nvalue = [0, 0, 0, 0, 0, 0, 0, 0, 1, 0]"] ;
130 -> 132 ;
133 [label="X[3] <= 21.254\nentropy = 1.993\nsamples = 80\nvalue = [0, 1, 1, 14, 6, 12, 0, 42, 0, 4]"] ;
95 -> 133 ;
134 [label="X[9] <= 20.778\nentropy = 1.649\nsamples = 54\nvalue = [0, 1, 0, 4, 4, 5, 0, 36, 0, 4]"] ;
133 -> 134 ;
135 [label="X[6] <= 18.0\nentropy = 1.173\nsamples = 27\nvalue = [0, 0, 0, 4, 0, 4, 0, 19, 0, 0]"] ;
134 -> 135 ;
136 [label="X[9] <= 19.972\nentropy = 0.567\nsamples = 15\nvalue = [0, 0, 0, 2, 0, 0, 0, 13, 0, 0]"] ;
135 -> 136 ;
137 [label="X[8] <= 24.814\nentropy = 0.371\nsamples = 14\nvalue = [0, 0, 0, 1, 0, 0, 0, 13, 0, 0]"] ;
136 -> 137 ;
138 [label="entropy = 0.0\nsamples = 11\nvalue = [0, 0, 0, 0, 0, 0, 0, 11, 0, 0]"] ;
137 -> 138 ;
139 [label="X[1] <= 18.633\nentropy = 0.918\nsamples = 3\nvalue = [0, 0, 0, 1, 0, 0, 0, 2, 0, 0]"] ;
137 -> 139 ;
140 [label="entropy = 0.0\nsamples = 1\nvalue = [0, 0, 0, 1, 0, 0, 0, 0, 0, 0]"] ;
139 -> 140 ;
141 [label="entropy = 0.0\nsamples = 2\nvalue = [0, 0, 0, 0, 0, 0, 0, 2, 0, 0]"] ;
139 -> 141 ;
142 [label="entropy = 0.0\nsamples = 1\nvalue = [0, 0, 0, 1, 0, 0, 0, 0, 0, 0]"] ;
136 -> 142 ;
143 [label="X[2] <= 21.748\nentropy = 1.459\nsamples = 12\nvalue = [0, 0, 0, 2, 0, 4, 0, 6, 0, 0]"] ;
135 -> 143 ;
144 [label="X[6] <= 18.376\nentropy = 1.0\nsamples = 4\nvalue = [0, 0, 0, 2, 0, 2, 0, 0, 0, 0]"] ;
143 -> 144 ;
145 [label="entropy = 0.0\nsamples = 2\nvalue = [0, 0, 0, 0, 0, 2, 0, 0, 0, 0]"] ;
144 -> 145 ;
146 [label="entropy = 0.0\nsamples = 2\nvalue = [0, 0, 0, 2, 0, 0, 0, 0, 0, 0]"] ;
144 -> 146 ;
147 [label="X[5] <= 13.5\nentropy = 0.811\nsamples = 8\nvalue = [0, 0, 0, 0, 0, 2, 0, 6, 0, 0]"] ;
143 -> 147 ;
148 [label="X[8] <= 23.998\nentropy = 0.592\nsamples = 7\nvalue = [0, 0, 0, 0, 0, 1, 0, 6, 0, 0]"] ;
147 -> 148 ;
149 [label="X[5] <= 10.5\nentropy = 1.0\nsamples = 2\nvalue = [0, 0, 0, 0, 0, 1, 0, 1, 0, 0]"] ;
148 -> 149 ;
150 [label="entropy = 0.0\nsamples = 1\nvalue = [0, 0, 0, 0, 0, 1, 0, 0, 0, 0]"] ;
149 -> 150 ;
151 [label="entropy = 0.0\nsamples = 1\nvalue = [0, 0, 0, 0, 0, 0, 0, 1, 0, 0]"] ;
149 -> 151 ;
152 [label="entropy = 0.0\nsamples = 5\nvalue = [0, 0, 0, 0, 0, 0, 0, 5, 0, 0]"] ;
148 -> 152 ;
153 [label="entropy = 0.0\nsamples = 1\nvalue = [0, 0, 0, 0, 0, 1, 0, 0, 0, 0]"] ;
147 -> 153 ;
154 [label="X[5] <= 11.5\nentropy = 1.589\nsamples = 27\nvalue = [0, 1, 0, 0, 4, 1, 0, 17, 0, 4]"] ;
134 -> 154 ;
155 [label="X[6] <= 28.316\nentropy = 1.99\nsamples = 17\nvalue = [0, 1, 0, 0, 4, 1, 0, 7, 0, 4]"] ;
154 -> 155 ;
156 [label="X[4] <= 9.0\nentropy = 1.53\nsamples = 15\nvalue = [0, 0, 0, 0, 4, 0, 0, 7, 0, 4]"] ;
155 -> 156 ;
157 [label="X[8] <= 23.983\nentropy = 1.379\nsamples = 7\nvalue = [0, 0, 0, 0, 1, 0, 0, 2, 0, 4]"] ;
156 -> 157 ;
158 [label="X[9] <= 23.849\nentropy = 0.918\nsamples = 6\nvalue = [0, 0, 0, 0, 0, 0, 0, 2, 0, 4]"] ;
157 -> 158 ;
159 [label="entropy = 0.0\nsamples = 3\nvalue = [0, 0, 0, 0, 0, 0, 0, 0, 0, 3]"] ;
158 -> 159 ;
160 [label="X[1] <= 18.443\nentropy = 0.918\nsamples = 3\nvalue = [0, 0, 0, 0, 0, 0, 0, 2, 0, 1]"] ;
158 -> 160 ;
161 [label="entropy = 0.0\nsamples = 1\nvalue = [0, 0, 0, 0, 0, 0, 0, 0, 0, 1]"] ;
160 -> 161 ;
162 [label="entropy = 0.0\nsamples = 2\nvalue = [0, 0, 0, 0, 0, 0, 0, 2, 0, 0]"] ;
160 -> 162 ;
163 [label="entropy = 0.0\nsamples = 1\nvalue = [0, 0, 0, 0, 1, 0, 0, 0, 0, 0]"] ;
157 -> 163 ;
164 [label="X[9] <= 26.536\nentropy = 0.954\nsamples = 8\nvalue = [0, 0, 0, 0, 3, 0, 0, 5, 0, 0]"] ;
156 -> 164 ;
165 [label="entropy = 0.0\nsamples = 4\nvalue = [0, 0, 0, 0, 0, 0, 0, 4, 0, 0]"] ;
164 -> 165 ;
166 [label="X[1] <= 22.427\nentropy = 0.811\nsamples = 4\nvalue = [0, 0, 0, 0, 3, 0, 0, 1, 0, 0]"] ;
164 -> 166 ;
167 [label="entropy = 0.0\nsamples = 3\nvalue = [0, 0, 0, 0, 3, 0, 0, 0, 0, 0]"] ;
166 -> 167 ;
168 [label="entropy = 0.0\nsamples = 1\nvalue = [0, 0, 0, 0, 0, 0, 0, 1, 0, 0]"] ;
166 -> 168 ;
169 [label="X[2] <= 23.32\nentropy = 1.0\nsamples = 2\nvalue = [0, 1, 0, 0, 0, 1, 0, 0, 0, 0]"] ;
155 -> 169 ;
170 [label="entropy = 0.0\nsamples = 1\nvalue = [0, 1, 0, 0, 0, 0, 0, 0, 0, 0]"] ;
169 -> 170 ;
171 [label="entropy = 0.0\nsamples = 1\nvalue = [0, 0, 0, 0, 0, 1, 0, 0, 0, 0]"] ;
169 -> 171 ;
172 [label="entropy = 0.0\nsamples = 10\nvalue = [0, 0, 0, 0, 0, 0, 0, 10, 0, 0]"] ;
154 -> 172 ;
173 [label="X[7] <= 31.917\nentropy = 1.993\nsamples = 26\nvalue = [0, 0, 1, 10, 2, 7, 0, 6, 0, 0]"] ;
133 -> 173 ;
174 [label="X[5] <= 11.5\nentropy = 1.785\nsamples = 20\nvalue = [0, 0, 1, 10, 2, 6, 0, 1, 0, 0]"] ;
173 -> 174 ;
175 [label="X[8] <= 24.919\nentropy = 1.096\nsamples = 11\nvalue = [0, 0, 0, 8, 2, 0, 0, 1, 0, 0]"] ;
174 -> 175 ;
176 [label="X[6] <= 22.536\nentropy = 0.503\nsamples = 9\nvalue = [0, 0, 0, 8, 0, 0, 0, 1, 0, 0]"] ;
175 -> 176 ;
177 [label="entropy = 0.0\nsamples = 1\nvalue = [0, 0, 0, 0, 0, 0, 0, 1, 0, 0]"] ;
176 -> 177 ;
178 [label="entropy = 0.0\nsamples = 8\nvalue = [0, 0, 0, 8, 0, 0, 0, 0, 0, 0]"] ;
176 -> 178 ;
179 [label="entropy = 0.0\nsamples = 2\nvalue = [0, 0, 0, 0, 2, 0, 0, 0, 0, 0]"] ;
175 -> 179 ;
180 [label="X[4] <= 2.5\nentropy = 1.224\nsamples = 9\nvalue = [0, 0, 1, 2, 0, 6, 0, 0, 0, 0]"] ;
174 -> 180 ;
181 [label="entropy = 0.0\nsamples = 2\nvalue = [0, 0, 0, 2, 0, 0, 0, 0, 0, 0]"] ;
180 -> 181 ;
182 [label="X[7] <= 24.419\nentropy = 0.592\nsamples = 7\nvalue = [0, 0, 1, 0, 0, 6, 0, 0, 0, 0]"] ;
180 -> 182 ;
183 [label="entropy = 0.0\nsamples = 1\nvalue = [0, 0, 1, 0, 0, 0, 0, 0, 0, 0]"] ;
182 -> 183 ;
184 [label="entropy = 0.0\nsamples = 6\nvalue = [0, 0, 0, 0, 0, 6, 0, 0, 0, 0]"] ;
182 -> 184 ;
185 [label="X[8] <= 26.448\nentropy = 0.65\nsamples = 6\nvalue = [0, 0, 0, 0, 0, 1, 0, 5, 0, 0]"] ;
173 -> 185 ;
186 [label="entropy = 0.0\nsamples = 5\nvalue = [0, 0, 0, 0, 0, 0, 0, 5, 0, 0]"] ;
185 -> 186 ;
187 [label="entropy = 0.0\nsamples = 1\nvalue = [0, 0, 0, 0, 0, 1, 0, 0, 0, 0]"] ;
185 -> 187 ;
188 [label="X[7] <= 29.9\nentropy = 2.017\nsamples = 130\nvalue = [0, 0, 1, 20, 59, 13, 0, 31, 0, 6]"] ;
94 -> 188 ;
189 [label="X[6] <= 27.424\nentropy = 1.875\nsamples = 94\nvalue = [0, 0, 1, 17, 50, 13, 0, 11, 0, 2]"] ;
188 -> 189 ;
190 [label="X[4] <= 5.5\nentropy = 1.287\nsamples = 42\nvalue = [0, 0, 0, 5, 30, 0, 0, 5, 0, 2]"] ;
189 -> 190 ;
191 [label="X[8] <= 19.631\nentropy = 1.784\nsamples = 12\nvalue = [0, 0, 0, 4, 5, 0, 0, 1, 0, 2]"] ;
190 -> 191 ;
192 [label="X[4] <= 2.5\nentropy = 1.522\nsamples = 5\nvalue = [0, 0, 0, 0, 2, 0, 0, 1, 0, 2]"] ;
191 -> 192 ;
193 [label="entropy = 0.0\nsamples = 2\nvalue = [0, 0, 0, 0, 0, 0, 0, 0, 0, 2]"] ;
192 -> 193 ;
194 [label="X[9] <= 35.426\nentropy = 0.918\nsamples = 3\nvalue = [0, 0, 0, 0, 2, 0, 0, 1, 0, 0]"] ;
192 -> 194 ;
195 [label="entropy = 0.0\nsamples = 2\nvalue = [0, 0, 0, 0, 2, 0, 0, 0, 0, 0]"] ;
194 -> 195 ;
196 [label="entropy = 0.0\nsamples = 1\nvalue = [0, 0, 0, 0, 0, 0, 0, 1, 0, 0]"] ;
194 -> 196 ;
197 [label="X[3] <= 27.713\nentropy = 0.985\nsamples = 7\nvalue = [0, 0, 0, 4, 3, 0, 0, 0, 0, 0]"] ;
191 -> 197 ;
198 [label="entropy = 0.0\nsamples = 3\nvalue = [0, 0, 0, 3, 0, 0, 0, 0, 0, 0]"] ;
197 -> 198 ;
199 [label="X[8] <= 26.052\nentropy = 0.811\nsamples = 4\nvalue = [0, 0, 0, 1, 3, 0, 0, 0, 0, 0]"] ;
197 -> 199 ;
200 [label="entropy = 0.0\nsamples = 3\nvalue = [0, 0, 0, 0, 3, 0, 0, 0, 0, 0]"] ;
199 -> 200 ;
201 [label="entropy = 0.0\nsamples = 1\nvalue = [0, 0, 0, 1, 0, 0, 0, 0, 0, 0]"] ;
199 -> 201 ;
202 [label="X[6] <= 15.116\nentropy = 0.77\nsamples = 30\nvalue = [0, 0, 0, 1, 25, 0, 0, 4, 0, 0]"] ;
190 -> 202 ;
203 [label="X[8] <= 21.381\nentropy = 1.0\nsamples = 2\nvalue = [0, 0, 0, 1, 0, 0, 0, 1, 0, 0]"] ;
202 -> 203 ;
204 [label="entropy = 0.0\nsamples = 1\nvalue = [0, 0, 0, 0, 0, 0, 0, 1, 0, 0]"] ;
203 -> 204 ;
205 [label="entropy = 0.0\nsamples = 1\nvalue = [0, 0, 0, 1, 0, 0, 0, 0, 0, 0]"] ;
203 -> 205 ;
206 [label="X[9] <= 40.921\nentropy = 0.491\nsamples = 28\nvalue = [0, 0, 0, 0, 25, 0, 0, 3, 0, 0]"] ;
202 -> 206 ;
207 [label="X[3] <= 20.589\nentropy = 0.242\nsamples = 25\nvalue = [0, 0, 0, 0, 24, 0, 0, 1, 0, 0]"] ;
206 -> 207 ;
208 [label="X[8] <= 12.698\nentropy = 1.0\nsamples = 2\nvalue = [0, 0, 0, 0, 1, 0, 0, 1, 0, 0]"] ;
207 -> 208 ;
209 [label="entropy = 0.0\nsamples = 1\nvalue = [0, 0, 0, 0, 1, 0, 0, 0, 0, 0]"] ;
208 -> 209 ;
210 [label="entropy = 0.0\nsamples = 1\nvalue = [0, 0, 0, 0, 0, 0, 0, 1, 0, 0]"] ;
208 -> 210 ;
211 [label="entropy = 0.0\nsamples = 23\nvalue = [0, 0, 0, 0, 23, 0, 0, 0, 0, 0]"] ;
207 -> 211 ;
212 [label="X[6] <= 25.378\nentropy = 0.918\nsamples = 3\nvalue = [0, 0, 0, 0, 1, 0, 0, 2, 0, 0]"] ;
206 -> 212 ;
213 [label="entropy = 0.0\nsamples = 2\nvalue = [0, 0, 0, 0, 0, 0, 0, 2, 0, 0]"] ;
212 -> 213 ;
214 [label="entropy = 0.0\nsamples = 1\nvalue = [0, 0, 0, 0, 1, 0, 0, 0, 0, 0]"] ;
212 -> 214 ;
215 [label="X[6] <= 38.407\nentropy = 1.987\nsamples = 52\nvalue = [0, 0, 1, 12, 20, 13, 0, 6, 0, 0]"] ;
189 -> 215 ;
216 [label="X[3] <= 28.972\nentropy = 1.875\nsamples = 42\nvalue = [0, 0, 1, 5, 20, 11, 0, 5, 0, 0]"] ;
215 -> 216 ;
217 [label="X[8] <= 18.881\nentropy = 2.152\nsamples = 24\nvalue = [0, 0, 1, 5, 6, 7, 0, 5, 0, 0]"] ;
216 -> 217 ;
218 [label="X[2] <= 24.438\nentropy = 1.782\nsamples = 15\nvalue = [0, 0, 0, 3, 6, 1, 0, 5, 0, 0]"] ;
217 -> 218 ;
219 [label="X[2] <= 20.838\nentropy = 0.811\nsamples = 4\nvalue = [0, 0, 0, 3, 1, 0, 0, 0, 0, 0]"] ;
218 -> 219 ;
220 [label="entropy = 0.0\nsamples = 1\nvalue = [0, 0, 0, 0, 1, 0, 0, 0, 0, 0]"] ;
219 -> 220 ;
221 [label="entropy = 0.0\nsamples = 3\nvalue = [0, 0, 0, 3, 0, 0, 0, 0, 0, 0]"] ;
219 -> 221 ;
222 [label="X[1] <= 26.957\nentropy = 1.349\nsamples = 11\nvalue = [0, 0, 0, 0, 5, 1, 0, 5, 0, 0]"] ;
218 -> 222 ;
223 [label="X[3] <= 24.24\nentropy = 0.954\nsamples = 8\nvalue = [0, 0, 0, 0, 5, 0, 0, 3, 0, 0]"] ;
222 -> 223 ;
224 [label="X[6] <= 28.318\nentropy = 0.971\nsamples = 5\nvalue = [0, 0, 0, 0, 2, 0, 0, 3, 0, 0]"] ;
223 -> 224 ;
225 [label="entropy = 0.0\nsamples = 2\nvalue = [0, 0, 0, 0, 2, 0, 0, 0, 0, 0]"] ;
224 -> 225 ;
226 [label="entropy = 0.0\nsamples = 3\nvalue = [0, 0, 0, 0, 0, 0, 0, 3, 0, 0]"] ;
224 -> 226 ;
227 [label="entropy = 0.0\nsamples = 3\nvalue = [0, 0, 0, 0, 3, 0, 0, 0, 0, 0]"] ;
223 -> 227 ;
228 [label="X[5] <= 13.0\nentropy = 0.918\nsamples = 3\nvalue = [0, 0, 0, 0, 0, 1, 0, 2, 0, 0]"] ;
222 -> 228 ;
229 [label="entropy = 0.0\nsamples = 1\nvalue = [0, 0, 0, 0, 0, 1, 0, 0, 0, 0]"] ;
228 -> 229 ;
230 [label="entropy = 0.0\nsamples = 2\nvalue = [0, 0, 0, 0, 0, 0, 0, 2, 0, 0]"] ;
228 -> 230 ;
231 [label="X[6] <= 31.456\nentropy = 1.224\nsamples = 9\nvalue = [0, 0, 1, 2, 0, 6, 0, 0, 0, 0]"] ;
217 -> 231 ;
232 [label="X[8] <= 26.271\nentropy = 0.592\nsamples = 7\nvalue = [0, 0, 1, 0, 0, 6, 0, 0, 0, 0]"] ;
231 -> 232 ;
233 [label="entropy = 0.0\nsamples = 6\nvalue = [0, 0, 0, 0, 0, 6, 0, 0, 0, 0]"] ;
232 -> 233 ;
234 [label="entropy = 0.0\nsamples = 1\nvalue = [0, 0, 1, 0, 0, 0, 0, 0, 0, 0]"] ;
232 -> 234 ;
235 [label="entropy = 0.0\nsamples = 2\nvalue = [0, 0, 0, 2, 0, 0, 0, 0, 0, 0]"] ;
231 -> 235 ;
236 [label="X[7] <= 29.34\nentropy = 0.764\nsamples = 18\nvalue = [0, 0, 0, 0, 14, 4, 0, 0, 0, 0]"] ;
216 -> 236 ;
237 [label="X[4] <= 4.5\nentropy = 0.544\nsamples = 16\nvalue = [0, 0, 0, 0, 14, 2, 0, 0, 0, 0]"] ;
236 -> 237 ;
238 [label="X[1] <= 28.673\nentropy = 0.863\nsamples = 7\nvalue = [0, 0, 0, 0, 5, 2, 0, 0, 0, 0]"] ;
237 -> 238 ;
239 [label="X[2] <= 25.52\nentropy = 0.65\nsamples = 6\nvalue = [0, 0, 0, 0, 5, 1, 0, 0, 0, 0]"] ;
238 -> 239 ;
240 [label="entropy = 0.0\nsamples = 1\nvalue = [0, 0, 0, 0, 0, 1, 0, 0, 0, 0]"] ;
239 -> 240 ;
241 [label="entropy = 0.0\nsamples = 5\nvalue = [0, 0, 0, 0, 5, 0, 0, 0, 0, 0]"] ;
239 -> 241 ;
242 [label="entropy = 0.0\nsamples = 1\nvalue = [0, 0, 0, 0, 0, 1, 0, 0, 0, 0]"] ;
238 -> 242 ;
243 [label="entropy = 0.0\nsamples = 9\nvalue = [0, 0, 0, 0, 9, 0, 0, 0, 0, 0]"] ;
237 -> 243 ;
244 [label="entropy = 0.0\nsamples = 2\nvalue = [0, 0, 0, 0, 0, 2, 0, 0, 0, 0]"] ;
236 -> 244 ;
245 [label="X[4] <= 4.0\nentropy = 1.157\nsamples = 10\nvalue = [0, 0, 0, 7, 0, 2, 0, 1, 0, 0]"] ;
215 -> 245 ;
246 [label="entropy = 0.0\nsamples = 2\nvalue = [0, 0, 0, 0, 0, 2, 0, 0, 0, 0]"] ;
245 -> 246 ;
247 [label="X[4] <= 15.5\nentropy = 0.544\nsamples = 8\nvalue = [0, 0, 0, 7, 0, 0, 0, 1, 0, 0]"] ;
245 -> 247 ;
248 [label="entropy = 0.0\nsamples = 7\nvalue = [0, 0, 0, 7, 0, 0, 0, 0, 0, 0]"] ;
247 -> 248 ;
249 [label="entropy = 0.0\nsamples = 1\nvalue = [0, 0, 0, 0, 0, 0, 0, 1, 0, 0]"] ;
247 -> 249 ;
250 [label="X[3] <= 26.429\nentropy = 1.622\nsamples = 36\nvalue = [0, 0, 0, 3, 9, 0, 0, 20, 0, 4]"] ;
188 -> 250 ;
251 [label="X[5] <= 9.5\nentropy = 0.64\nsamples = 17\nvalue = [0, 0, 0, 0, 1, 0, 0, 15, 0, 1]"] ;
250 -> 251 ;
252 [label="entropy = 0.0\nsamples = 1\nvalue = [0, 0, 0, 0, 0, 0, 0, 0, 0, 1]"] ;
251 -> 252 ;
253 [label="X[1] <= 22.221\nentropy = 0.337\nsamples = 16\nvalue = [0, 0, 0, 0, 1, 0, 0, 15, 0, 0]"] ;
251 -> 253 ;
254 [label="entropy = 0.0\nsamples = 1\nvalue = [0, 0, 0, 0, 1, 0, 0, 0, 0, 0]"] ;
253 -> 254 ;
255 [label="entropy = 0.0\nsamples = 15\nvalue = [0, 0, 0, 0, 0, 0, 0, 15, 0, 0]"] ;
253 -> 255 ;
256 [label="X[4] <= 19.5\nentropy = 1.873\nsamples = 19\nvalue = [0, 0, 0, 3, 8, 0, 0, 5, 0, 3]"] ;
250 -> 256 ;
257 [label="X[7] <= 33.607\nentropy = 1.781\nsamples = 16\nvalue = [0, 0, 0, 3, 8, 0, 0, 2, 0, 3]"] ;
256 -> 257 ;
258 [label="X[7] <= 30.836\nentropy = 1.491\nsamples = 11\nvalue = [0, 0, 0, 1, 7, 0, 0, 2, 0, 1]"] ;
257 -> 258 ;
259 [label="X[8] <= 22.443\nentropy = 1.0\nsamples = 2\nvalue = [0, 0, 0, 1, 0, 0, 0, 0, 0, 1]"] ;
258 -> 259 ;
260 [label="entropy = 0.0\nsamples = 1\nvalue = [0, 0, 0, 1, 0, 0, 0, 0, 0, 0]"] ;
259 -> 260 ;
261 [label="entropy = 0.0\nsamples = 1\nvalue = [0, 0, 0, 0, 0, 0, 0, 0, 0, 1]"] ;
259 -> 261 ;
262 [label="X[9] <= 44.656\nentropy = 0.764\nsamples = 9\nvalue = [0, 0, 0, 0, 7, 0, 0, 2, 0, 0]"] ;
258 -> 262 ;
263 [label="entropy = 0.0\nsamples = 5\nvalue = [0, 0, 0, 0, 5, 0, 0, 0, 0, 0]"] ;
262 -> 263 ;
264 [label="X[3] <= 29.718\nentropy = 1.0\nsamples = 4\nvalue = [0, 0, 0, 0, 2, 0, 0, 2, 0, 0]"] ;
262 -> 264 ;
265 [label="entropy = 0.0\nsamples = 2\nvalue = [0, 0, 0, 0, 2, 0, 0, 0, 0, 0]"] ;
264 -> 265 ;
266 [label="entropy = 0.0\nsamples = 2\nvalue = [0, 0, 0, 0, 0, 0, 0, 2, 0, 0]"] ;
264 -> 266 ;
267 [label="X[9] <= 41.349\nentropy = 1.522\nsamples = 5\nvalue = [0, 0, 0, 2, 1, 0, 0, 0, 0, 2]"] ;
257 -> 267 ;
268 [label="X[3] <= 27.333\nentropy = 1.0\nsamples = 2\nvalue = [0, 0, 0, 0, 1, 0, 0, 0, 0, 1]"] ;
267 -> 268 ;
269 [label="entropy = 0.0\nsamples = 1\nvalue = [0, 0, 0, 0, 0, 0, 0, 0, 0, 1]"] ;
268 -> 269 ;
270 [label="entropy = 0.0\nsamples = 1\nvalue = [0, 0, 0, 0, 1, 0, 0, 0, 0, 0]"] ;
268 -> 270 ;
271 [label="X[2] <= 43.108\nentropy = 0.918\nsamples = 3\nvalue = [0, 0, 0, 2, 0, 0, 0, 0, 0, 1]"] ;
267 -> 271 ;
272 [label="entropy = 0.0\nsamples = 2\nvalue = [0, 0, 0, 2, 0, 0, 0, 0, 0, 0]"] ;
271 -> 272 ;
273 [label="entropy = 0.0\nsamples = 1\nvalue = [0, 0, 0, 0, 0, 0, 0, 0, 0, 1]"] ;
271 -> 273 ;
274 [label="entropy = 0.0\nsamples = 3\nvalue = [0, 0, 0, 0, 0, 0, 0, 3, 0, 0]"] ;
256 -> 274 ;
275 [label="X[9] <= 27.753\nentropy = 2.38\nsamples = 143\nvalue = [0, 3, 21, 10, 35, 55, 4, 12, 0, 3]"] ;
75 -> 275 ;
276 [label="X[9] <= 16.286\nentropy = 2.0\nsamples = 92\nvalue = [0, 0, 14, 1, 16, 48, 3, 8, 0, 2]"] ;
275 -> 276 ;
277 [label="X[8] <= 33.4\nentropy = 0.993\nsamples = 31\nvalue = [0, 0, 0, 0, 3, 24, 0, 4, 0, 0]"] ;
276 -> 277 ;
278 [label="X[7] <= 31.117\nentropy = 1.555\nsamples = 12\nvalue = [0, 0, 0, 0, 3, 5, 0, 4, 0, 0]"] ;
277 -> 278 ;
279 [label="X[5] <= 10.5\nentropy = 0.954\nsamples = 8\nvalue = [0, 0, 0, 0, 3, 5, 0, 0, 0, 0]"] ;
278 -> 279 ;
280 [label="entropy = 0.0\nsamples = 3\nvalue = [0, 0, 0, 0, 3, 0, 0, 0, 0, 0]"] ;
279 -> 280 ;
281 [label="entropy = 0.0\nsamples = 5\nvalue = [0, 0, 0, 0, 0, 5, 0, 0, 0, 0]"] ;
279 -> 281 ;
282 [label="entropy = 0.0\nsamples = 4\nvalue = [0, 0, 0, 0, 0, 0, 0, 4, 0, 0]"] ;
278 -> 282 ;
283 [label="entropy = 0.0\nsamples = 19\nvalue = [0, 0, 0, 0, 0, 19, 0, 0, 0, 0]"] ;
277 -> 283 ;
284 [label="X[2] <= 25.599\nentropy = 2.222\nsamples = 61\nvalue = [0, 0, 14, 1, 13, 24, 3, 4, 0, 2]"] ;
276 -> 284 ;
285 [label="X[6] <= 14.289\nentropy = 2.277\nsamples = 39\nvalue = [0, 0, 14, 0, 9, 8, 3, 3, 0, 2]"] ;
284 -> 285 ;
286 [label="X[6] <= 11.524\nentropy = 1.826\nsamples = 13\nvalue = [0, 0, 4, 0, 5, 0, 1, 3, 0, 0]"] ;
285 -> 286 ;
287 [label="X[9] <= 21.191\nentropy = 1.252\nsamples = 6\nvalue = [0, 0, 4, 0, 1, 0, 1, 0, 0, 0]"] ;
286 -> 287 ;
288 [label="entropy = 0.0\nsamples = 4\nvalue = [0, 0, 4, 0, 0, 0, 0, 0, 0, 0]"] ;
287 -> 288 ;
289 [label="X[7] <= 27.555\nentropy = 1.0\nsamples = 2\nvalue = [0, 0, 0, 0, 1, 0, 1, 0, 0, 0]"] ;
287 -> 289 ;
290 [label="entropy = 0.0\nsamples = 1\nvalue = [0, 0, 0, 0, 1, 0, 0, 0, 0, 0]"] ;
289 -> 290 ;
291 [label="entropy = 0.0\nsamples = 1\nvalue = [0, 0, 0, 0, 0, 0, 1, 0, 0, 0]"] ;
289 -> 291 ;
292 [label="X[7] <= 26.357\nentropy = 0.985\nsamples = 7\nvalue = [0, 0, 0, 0, 4, 0, 0, 3, 0, 0]"] ;
286 -> 292 ;
293 [label="entropy = 0.0\nsamples = 3\nvalue = [0, 0, 0, 0, 3, 0, 0, 0, 0, 0]"] ;
292 -> 293 ;
294 [label="X[6] <= 14.142\nentropy = 0.811\nsamples = 4\nvalue = [0, 0, 0, 0, 1, 0, 0, 3, 0, 0]"] ;
292 -> 294 ;
295 [label="entropy = 0.0\nsamples = 3\nvalue = [0, 0, 0, 0, 0, 0, 0, 3, 0, 0]"] ;
294 -> 295 ;
296 [label="entropy = 0.0\nsamples = 1\nvalue = [0, 0, 0, 0, 1, 0, 0, 0, 0, 0]"] ;
294 -> 296 ;
297 [label="X[5] <= 10.5\nentropy = 2.038\nsamples = 26\nvalue = [0, 0, 10, 0, 4, 8, 2, 0, 0, 2]"] ;
285 -> 297 ;
298 [label="X[2] <= 23.564\nentropy = 1.557\nsamples = 7\nvalue = [0, 0, 0, 0, 2, 3, 0, 0, 0, 2]"] ;
297 -> 298 ;
299 [label="X[7] <= 24.326\nentropy = 0.811\nsamples = 4\nvalue = [0, 0, 0, 0, 1, 3, 0, 0, 0, 0]"] ;
298 -> 299 ;
300 [label="entropy = 0.0\nsamples = 1\nvalue = [0, 0, 0, 0, 1, 0, 0, 0, 0, 0]"] ;
299 -> 300 ;
301 [label="entropy = 0.0\nsamples = 3\nvalue = [0, 0, 0, 0, 0, 3, 0, 0, 0, 0]"] ;
299 -> 301 ;
302 [label="X[4] <= 10.5\nentropy = 0.918\nsamples = 3\nvalue = [0, 0, 0, 0, 1, 0, 0, 0, 0, 2]"] ;
298 -> 302 ;
303 [label="entropy = 0.0\nsamples = 2\nvalue = [0, 0, 0, 0, 0, 0, 0, 0, 0, 2]"] ;
302 -> 303 ;
304 [label="entropy = 0.0\nsamples = 1\nvalue = [0, 0, 0, 0, 1, 0, 0, 0, 0, 0]"] ;
302 -> 304 ;
305 [label="X[8] <= 39.836\nentropy = 1.678\nsamples = 19\nvalue = [0, 0, 10, 0, 2, 5, 2, 0, 0, 0]"] ;
297 -> 305 ;
306 [label="X[9] <= 22.385\nentropy = 1.198\nsamples = 16\nvalue = [0, 0, 10, 0, 0, 5, 1, 0, 0, 0]"] ;
305 -> 306 ;
307 [label="X[3] <= 26.908\nentropy = 0.954\nsamples = 8\nvalue = [0, 0, 3, 0, 0, 5, 0, 0, 0, 0]"] ;
306 -> 307 ;
308 [label="entropy = 0.0\nsamples = 4\nvalue = [0, 0, 0, 0, 0, 4, 0, 0, 0, 0]"] ;
307 -> 308 ;
309 [label="X[9] <= 21.719\nentropy = 0.811\nsamples = 4\nvalue = [0, 0, 3, 0, 0, 1, 0, 0, 0, 0]"] ;
307 -> 309 ;
310 [label="entropy = 0.0\nsamples = 3\nvalue = [0, 0, 3, 0, 0, 0, 0, 0, 0, 0]"] ;
309 -> 310 ;
311 [label="entropy = 0.0\nsamples = 1\nvalue = [0, 0, 0, 0, 0, 1, 0, 0, 0, 0]"] ;
309 -> 311 ;
312 [label="X[9] <= 23.349\nentropy = 0.544\nsamples = 8\nvalue = [0, 0, 7, 0, 0, 0, 1, 0, 0, 0]"] ;
306 -> 312 ;
313 [label="entropy = 0.0\nsamples = 1\nvalue = [0, 0, 0, 0, 0, 0, 1, 0, 0, 0]"] ;
312 -> 313 ;
314 [label="entropy = 0.0\nsamples = 7\nvalue = [0, 0, 7, 0, 0, 0, 0, 0, 0, 0]"] ;
312 -> 314 ;
315 [label="X[2] <= 23.001\nentropy = 0.918\nsamples = 3\nvalue = [0, 0, 0, 0, 2, 0, 1, 0, 0, 0]"] ;
305 -> 315 ;
316 [label="entropy = 0.0\nsamples = 1\nvalue = [0, 0, 0, 0, 0, 0, 1, 0, 0, 0]"] ;
315 -> 316 ;
317 [label="entropy = 0.0\nsamples = 2\nvalue = [0, 0, 0, 0, 2, 0, 0, 0, 0, 0]"] ;
315 -> 317 ;
318 [label="X[3] <= 23.671\nentropy = 1.187\nsamples = 22\nvalue = [0, 0, 0, 1, 4, 16, 0, 1, 0, 0]"] ;
284 -> 318 ;
319 [label="X[8] <= 28.902\nentropy = 1.0\nsamples = 2\nvalue = [0, 0, 0, 1, 0, 0, 0, 1, 0, 0]"] ;
318 -> 319 ;
320 [label="entropy = 0.0\nsamples = 1\nvalue = [0, 0, 0, 0, 0, 0, 0, 1, 0, 0]"] ;
319 -> 320 ;
321 [label="entropy = 0.0\nsamples = 1\nvalue = [0, 0, 0, 1, 0, 0, 0, 0, 0, 0]"] ;
319 -> 321 ;
322 [label="X[2] <= 26.66\nentropy = 0.722\nsamples = 20\nvalue = [0, 0, 0, 0, 4, 16, 0, 0, 0, 0]"] ;
318 -> 322 ;
323 [label="X[2] <= 26.188\nentropy = 1.0\nsamples = 8\nvalue = [0, 0, 0, 0, 4, 4, 0, 0, 0, 0]"] ;
322 -> 323 ;
324 [label="entropy = 0.0\nsamples = 3\nvalue = [0, 0, 0, 0, 0, 3, 0, 0, 0, 0]"] ;
323 -> 324 ;
325 [label="X[6] <= 23.391\nentropy = 0.722\nsamples = 5\nvalue = [0, 0, 0, 0, 4, 1, 0, 0, 0, 0]"] ;
323 -> 325 ;
326 [label="entropy = 0.0\nsamples = 3\nvalue = [0, 0, 0, 0, 3, 0, 0, 0, 0, 0]"] ;
325 -> 326 ;
327 [label="X[8] <= 34.379\nentropy = 1.0\nsamples = 2\nvalue = [0, 0, 0, 0, 1, 1, 0, 0, 0, 0]"] ;
325 -> 327 ;
328 [label="entropy = 0.0\nsamples = 1\nvalue = [0, 0, 0, 0, 1, 0, 0, 0, 0, 0]"] ;
327 -> 328 ;
329 [label="entropy = 0.0\nsamples = 1\nvalue = [0, 0, 0, 0, 0, 1, 0, 0, 0, 0]"] ;
327 -> 329 ;
330 [label="entropy = 0.0\nsamples = 12\nvalue = [0, 0, 0, 0, 0, 12, 0, 0, 0, 0]"] ;
322 -> 330 ;
331 [label="X[4] <= 11.5\nentropy = 2.51\nsamples = 51\nvalue = [0, 3, 7, 9, 19, 7, 1, 4, 0, 1]"] ;
275 -> 331 ;
332 [label="X[4] <= 4.5\nentropy = 2.098\nsamples = 39\nvalue = [0, 0, 7, 6, 17, 7, 1, 0, 0, 1]"] ;
331 -> 332 ;
333 [label="X[2] <= 26.889\nentropy = 1.972\nsamples = 11\nvalue = [0, 0, 5, 1, 0, 3, 1, 0, 0, 1]"] ;
332 -> 333 ;
334 [label="X[3] <= 32.27\nentropy = 0.65\nsamples = 6\nvalue = [0, 0, 5, 0, 0, 0, 1, 0, 0, 0]"] ;
333 -> 334 ;
335 [label="entropy = 0.0\nsamples = 5\nvalue = [0, 0, 5, 0, 0, 0, 0, 0, 0, 0]"] ;
334 -> 335 ;
336 [label="entropy = 0.0\nsamples = 1\nvalue = [0, 0, 0, 0, 0, 0, 1, 0, 0, 0]"] ;
334 -> 336 ;
337 [label="X[5] <= 11.5\nentropy = 1.371\nsamples = 5\nvalue = [0, 0, 0, 1, 0, 3, 0, 0, 0, 1]"] ;
333 -> 337 ;
338 [label="X[7] <= 31.117\nentropy = 1.0\nsamples = 2\nvalue = [0, 0, 0, 1, 0, 0, 0, 0, 0, 1]"] ;
337 -> 338 ;
339 [label="entropy = 0.0\nsamples = 1\nvalue = [0, 0, 0, 0, 0, 0, 0, 0, 0, 1]"] ;
338 -> 339 ;
340 [label="entropy = 0.0\nsamples = 1\nvalue = [0, 0, 0, 1, 0, 0, 0, 0, 0, 0]"] ;
338 -> 340 ;
341 [label="entropy = 0.0\nsamples = 3\nvalue = [0, 0, 0, 0, 0, 3, 0, 0, 0, 0]"] ;
337 -> 341 ;
342 [label="X[6] <= 28.191\nentropy = 1.554\nsamples = 28\nvalue = [0, 0, 2, 5, 17, 4, 0, 0, 0, 0]"] ;
332 -> 342 ;
343 [label="X[4] <= 6.5\nentropy = 0.64\nsamples = 17\nvalue = [0, 0, 0, 1, 15, 1, 0, 0, 0, 0]"] ;
342 -> 343 ;
344 [label="X[5] <= 10.5\nentropy = 1.0\nsamples = 2\nvalue = [0, 0, 0, 1, 1, 0, 0, 0, 0, 0]"] ;
343 -> 344 ;
345 [label="entropy = 0.0\nsamples = 1\nvalue = [0, 0, 0, 1, 0, 0, 0, 0, 0, 0]"] ;
344 -> 345 ;
346 [label="entropy = 0.0\nsamples = 1\nvalue = [0, 0, 0, 0, 1, 0, 0, 0, 0, 0]"] ;
344 -> 346 ;
347 [label="X[4] <= 7.5\nentropy = 0.353\nsamples = 15\nvalue = [0, 0, 0, 0, 14, 1, 0, 0, 0, 0]"] ;
343 -> 347 ;
348 [label="X[6] <= 21.911\nentropy = 0.811\nsamples = 4\nvalue = [0, 0, 0, 0, 3, 1, 0, 0, 0, 0]"] ;
347 -> 348 ;
349 [label="entropy = 0.0\nsamples = 1\nvalue = [0, 0, 0, 0, 0, 1, 0, 0, 0, 0]"] ;
348 -> 349 ;
350 [label="entropy = 0.0\nsamples = 3\nvalue = [0, 0, 0, 0, 3, 0, 0, 0, 0, 0]"] ;
348 -> 350 ;
351 [label="entropy = 0.0\nsamples = 11\nvalue = [0, 0, 0, 0, 11, 0, 0, 0, 0, 0]"] ;
347 -> 351 ;
352 [label="X[5] <= 12.5\nentropy = 1.936\nsamples = 11\nvalue = [0, 0, 2, 4, 2, 3, 0, 0, 0, 0]"] ;
342 -> 352 ;
353 [label="X[4] <= 9.5\nentropy = 1.53\nsamples = 9\nvalue = [0, 0, 0, 4, 2, 3, 0, 0, 0, 0]"] ;
352 -> 353 ;
354 [label="X[5] <= 9.5\nentropy = 0.985\nsamples = 7\nvalue = [0, 0, 0, 4, 0, 3, 0, 0, 0, 0]"] ;
353 -> 354 ;
355 [label="entropy = 0.0\nsamples = 3\nvalue = [0, 0, 0, 3, 0, 0, 0, 0, 0, 0]"] ;
354 -> 355 ;
356 [label="X[6] <= 29.169\nentropy = 0.811\nsamples = 4\nvalue = [0, 0, 0, 1, 0, 3, 0, 0, 0, 0]"] ;
354 -> 356 ;
357 [label="entropy = 0.0\nsamples = 1\nvalue = [0, 0, 0, 1, 0, 0, 0, 0, 0, 0]"] ;
356 -> 357 ;
358 [label="entropy = 0.0\nsamples = 3\nvalue = [0, 0, 0, 0, 0, 3, 0, 0, 0, 0]"] ;
356 -> 358 ;
359 [label="entropy = 0.0\nsamples = 2\nvalue = [0, 0, 0, 0, 2, 0, 0, 0, 0, 0]"] ;
353 -> 359 ;
360 [label="entropy = 0.0\nsamples = 2\nvalue = [0, 0, 2, 0, 0, 0, 0, 0, 0, 0]"] ;
352 -> 360 ;
361 [label="X[7] <= 31.202\nentropy = 1.959\nsamples = 12\nvalue = [0, 3, 0, 3, 2, 0, 0, 4, 0, 0]"] ;
331 -> 361 ;
362 [label="X[9] <= 28.421\nentropy = 1.371\nsamples = 5\nvalue = [0, 3, 0, 0, 1, 0, 0, 1, 0, 0]"] ;
361 -> 362 ;
363 [label="entropy = 0.0\nsamples = 1\nvalue = [0, 0, 0, 0, 0, 0, 0, 1, 0, 0]"] ;
362 -> 363 ;
364 [label="X[2] <= 26.611\nentropy = 0.811\nsamples = 4\nvalue = [0, 3, 0, 0, 1, 0, 0, 0, 0, 0]"] ;
362 -> 364 ;
365 [label="entropy = 0.0\nsamples = 3\nvalue = [0, 3, 0, 0, 0, 0, 0, 0, 0, 0]"] ;
364 -> 365 ;
366 [label="entropy = 0.0\nsamples = 1\nvalue = [0, 0, 0, 0, 1, 0, 0, 0, 0, 0]"] ;
364 -> 366 ;
367 [label="X[9] <= 40.056\nentropy = 1.449\nsamples = 7\nvalue = [0, 0, 0, 3, 1, 0, 0, 3, 0, 0]"] ;
361 -> 367 ;
368 [label="X[1] <= 28.351\nentropy = 1.0\nsamples = 6\nvalue = [0, 0, 0, 3, 0, 0, 0, 3, 0, 0]"] ;
367 -> 368 ;
369 [label="X[5] <= 10.5\nentropy = 0.811\nsamples = 4\nvalue = [0, 0, 0, 3, 0, 0, 0, 1, 0, 0]"] ;
368 -> 369 ;
370 [label="entropy = 0.0\nsamples = 3\nvalue = [0, 0, 0, 3, 0, 0, 0, 0, 0, 0]"] ;
369 -> 370 ;
371 [label="entropy = 0.0\nsamples = 1\nvalue = [0, 0, 0, 0, 0, 0, 0, 1, 0, 0]"] ;
369 -> 371 ;
372 [label="entropy = 0.0\nsamples = 2\nvalue = [0, 0, 0, 0, 0, 0, 0, 2, 0, 0]"] ;
368 -> 372 ;
373 [label="entropy = 0.0\nsamples = 1\nvalue = [0, 0, 0, 0, 1, 0, 0, 0, 0, 0]"] ;
367 -> 373 ;
374 [label="X[5] <= 12.5\nentropy = 1.497\nsamples = 215\nvalue = [0, 3, 2, 27, 10, 19, 0, 151, 1, 2]"] ;
74 -> 374 ;
375 [label="X[8] <= 29.64\nentropy = 2.021\nsamples = 85\nvalue = [0, 2, 0, 24, 7, 10, 0, 39, 1, 2]"] ;
374 -> 375 ;
376 [label="X[9] <= 42.452\nentropy = 1.335\nsamples = 28\nvalue = [0, 0, 0, 16, 0, 1, 0, 10, 0, 1]"] ;
375 -> 376 ;
377 [label="X[8] <= 26.638\nentropy = 1.099\nsamples = 24\nvalue = [0, 0, 0, 16, 0, 1, 0, 7, 0, 0]"] ;
376 -> 377 ;
378 [label="X[8] <= 22.479\nentropy = 0.735\nsamples = 14\nvalue = [0, 0, 0, 12, 0, 1, 0, 1, 0, 0]"] ;
377 -> 378 ;
379 [label="X[2] <= 28.592\nentropy = 1.585\nsamples = 3\nvalue = [0, 0, 0, 1, 0, 1, 0, 1, 0, 0]"] ;
378 -> 379 ;
380 [label="entropy = 0.0\nsamples = 1\nvalue = [0, 0, 0, 1, 0, 0, 0, 0, 0, 0]"] ;
379 -> 380 ;
381 [label="X[6] <= 25.631\nentropy = 1.0\nsamples = 2\nvalue = [0, 0, 0, 0, 0, 1, 0, 1, 0, 0]"] ;
379 -> 381 ;
382 [label="entropy = 0.0\nsamples = 1\nvalue = [0, 0, 0, 0, 0, 0, 0, 1, 0, 0]"] ;
381 -> 382 ;
383 [label="entropy = 0.0\nsamples = 1\nvalue = [0, 0, 0, 0, 0, 1, 0, 0, 0, 0]"] ;
381 -> 383 ;
384 [label="entropy = 0.0\nsamples = 11\nvalue = [0, 0, 0, 11, 0, 0, 0, 0, 0, 0]"] ;
378 -> 384 ;
385 [label="X[1] <= 29.059\nentropy = 0.971\nsamples = 10\nvalue = [0, 0, 0, 4, 0, 0, 0, 6, 0, 0]"] ;
377 -> 385 ;
386 [label="entropy = 0.0\nsamples = 4\nvalue = [0, 0, 0, 0, 0, 0, 0, 4, 0, 0]"] ;
385 -> 386 ;
387 [label="X[2] <= 33.186\nentropy = 0.918\nsamples = 6\nvalue = [0, 0, 0, 4, 0, 0, 0, 2, 0, 0]"] ;
385 -> 387 ;
388 [label="entropy = 0.0\nsamples = 4\nvalue = [0, 0, 0, 4, 0, 0, 0, 0, 0, 0]"] ;
387 -> 388 ;
389 [label="entropy = 0.0\nsamples = 2\nvalue = [0, 0, 0, 0, 0, 0, 0, 2, 0, 0]"] ;
387 -> 389 ;
390 [label="X[3] <= 30.42\nentropy = 0.811\nsamples = 4\nvalue = [0, 0, 0, 0, 0, 0, 0, 3, 0, 1]"] ;
376 -> 390 ;
391 [label="entropy = 0.0\nsamples = 3\nvalue = [0, 0, 0, 0, 0, 0, 0, 3, 0, 0]"] ;
390 -> 391 ;
392 [label="entropy = 0.0\nsamples = 1\nvalue = [0, 0, 0, 0, 0, 0, 0, 0, 0, 1]"] ;
390 -> 392 ;
393 [label="X[4] <= 4.5\nentropy = 2.06\nsamples = 57\nvalue = [0, 2, 0, 8, 7, 9, 0, 29, 1, 1]"] ;
375 -> 393 ;
394 [label="X[8] <= 46.136\nentropy = 1.545\nsamples = 24\nvalue = [0, 1, 0, 7, 1, 0, 0, 14, 0, 1]"] ;
393 -> 394 ;
395 [label="X[9] <= 22.066\nentropy = 1.143\nsamples = 22\nvalue = [0, 0, 0, 7, 1, 0, 0, 14, 0, 0]"] ;
394 -> 395 ;
396 [label="X[7] <= 35.507\nentropy = 0.735\nsamples = 14\nvalue = [0, 0, 0, 1, 1, 0, 0, 12, 0, 0]"] ;
395 -> 396 ;
397 [label="entropy = 0.0\nsamples = 1\nvalue = [0, 0, 0, 1, 0, 0, 0, 0, 0, 0]"] ;
396 -> 397 ;
398 [label="X[8] <= 39.938\nentropy = 0.391\nsamples = 13\nvalue = [0, 0, 0, 0, 1, 0, 0, 12, 0, 0]"] ;
396 -> 398 ;
399 [label="entropy = 0.0\nsamples = 11\nvalue = [0, 0, 0, 0, 0, 0, 0, 11, 0, 0]"] ;
398 -> 399 ;
400 [label="X[7] <= 41.748\nentropy = 1.0\nsamples = 2\nvalue = [0, 0, 0, 0, 1, 0, 0, 1, 0, 0]"] ;
398 -> 400 ;
401 [label="entropy = 0.0\nsamples = 1\nvalue = [0, 0, 0, 0, 1, 0, 0, 0, 0, 0]"] ;
400 -> 401 ;
402 [label="entropy = 0.0\nsamples = 1\nvalue = [0, 0, 0, 0, 0, 0, 0, 1, 0, 0]"] ;
400 -> 402 ;
403 [label="X[5] <= 10.5\nentropy = 0.811\nsamples = 8\nvalue = [0, 0, 0, 6, 0, 0, 0, 2, 0, 0]"] ;
395 -> 403 ;
404 [label="entropy = 0.0\nsamples = 5\nvalue = [0, 0, 0, 5, 0, 0, 0, 0, 0, 0]"] ;
403 -> 404 ;
405 [label="X[1] <= 29.547\nentropy = 0.918\nsamples = 3\nvalue = [0, 0, 0, 1, 0, 0, 0, 2, 0, 0]"] ;
403 -> 405 ;
406 [label="entropy = 0.0\nsamples = 1\nvalue = [0, 0, 0, 1, 0, 0, 0, 0, 0, 0]"] ;
405 -> 406 ;
407 [label="entropy = 0.0\nsamples = 2\nvalue = [0, 0, 0, 0, 0, 0, 0, 2, 0, 0]"] ;
405 -> 407 ;
408 [label="X[5] <= 10.0\nentropy = 1.0\nsamples = 2\nvalue = [0, 1, 0, 0, 0, 0, 0, 0, 0, 1]"] ;
394 -> 408 ;
409 [label="entropy = 0.0\nsamples = 1\nvalue = [0, 1, 0, 0, 0, 0, 0, 0, 0, 0]"] ;
408 -> 409 ;
410 [label="entropy = 0.0\nsamples = 1\nvalue = [0, 0, 0, 0, 0, 0, 0, 0, 0, 1]"] ;
408 -> 410 ;
411 [label="X[2] <= 29.42\nentropy = 1.934\nsamples = 33\nvalue = [0, 1, 0, 1, 6, 9, 0, 15, 1, 0]"] ;
393 -> 411 ;
412 [label="X[1] <= 24.562\nentropy = 1.717\nsamples = 16\nvalue = [0, 1, 0, 1, 1, 9, 0, 4, 0, 0]"] ;
411 -> 412 ;
413 [label="X[2] <= 22.139\nentropy = 0.811\nsamples = 4\nvalue = [0, 1, 0, 0, 0, 0, 0, 3, 0, 0]"] ;
412 -> 413 ;
414 [label="entropy = 0.0\nsamples = 1\nvalue = [0, 1, 0, 0, 0, 0, 0, 0, 0, 0]"] ;
413 -> 414 ;
415 [label="entropy = 0.0\nsamples = 3\nvalue = [0, 0, 0, 0, 0, 0, 0, 3, 0, 0]"] ;
413 -> 415 ;
416 [label="X[8] <= 32.095\nentropy = 1.208\nsamples = 12\nvalue = [0, 0, 0, 1, 1, 9, 0, 1, 0, 0]"] ;
412 -> 416 ;
417 [label="X[5] <= 10.0\nentropy = 1.0\nsamples = 2\nvalue = [0, 0, 0, 1, 0, 0, 0, 1, 0, 0]"] ;
416 -> 417 ;
418 [label="entropy = 0.0\nsamples = 1\nvalue = [0, 0, 0, 1, 0, 0, 0, 0, 0, 0]"] ;
417 -> 418 ;
419 [label="entropy = 0.0\nsamples = 1\nvalue = [0, 0, 0, 0, 0, 0, 0, 1, 0, 0]"] ;
417 -> 419 ;
420 [label="X[9] <= 14.559\nentropy = 0.469\nsamples = 10\nvalue = [0, 0, 0, 0, 1, 9, 0, 0, 0, 0]"] ;
416 -> 420 ;
421 [label="X[3] <= 24.423\nentropy = 1.0\nsamples = 2\nvalue = [0, 0, 0, 0, 1, 1, 0, 0, 0, 0]"] ;
420 -> 421 ;
422 [label="entropy = 0.0\nsamples = 1\nvalue = [0, 0, 0, 0, 0, 1, 0, 0, 0, 0]"] ;
421 -> 422 ;
423 [label="entropy = 0.0\nsamples = 1\nvalue = [0, 0, 0, 0, 1, 0, 0, 0, 0, 0]"] ;
421 -> 423 ;
424 [label="entropy = 0.0\nsamples = 8\nvalue = [0, 0, 0, 0, 0, 8, 0, 0, 0, 0]"] ;
420 -> 424 ;
425 [label="X[7] <= 42.436\nentropy = 1.166\nsamples = 17\nvalue = [0, 0, 0, 0, 5, 0, 0, 11, 1, 0]"] ;
411 -> 425 ;
426 [label="X[7] <= 41.41\nentropy = 1.361\nsamples = 10\nvalue = [0, 0, 0, 0, 5, 0, 0, 4, 1, 0]"] ;
425 -> 426 ;
427 [label="X[1] <= 28.704\nentropy = 1.0\nsamples = 8\nvalue = [0, 0, 0, 0, 4, 0, 0, 4, 0, 0]"] ;
426 -> 427 ;
428 [label="X[9] <= 33.809\nentropy = 0.811\nsamples = 4\nvalue = [0, 0, 0, 0, 1, 0, 0, 3, 0, 0]"] ;
427 -> 428 ;
429 [label="entropy = 0.0\nsamples = 3\nvalue = [0, 0, 0, 0, 0, 0, 0, 3, 0, 0]"] ;
428 -> 429 ;
430 [label="entropy = 0.0\nsamples = 1\nvalue = [0, 0, 0, 0, 1, 0, 0, 0, 0, 0]"] ;
428 -> 430 ;
431 [label="X[6] <= 35.113\nentropy = 0.811\nsamples = 4\nvalue = [0, 0, 0, 0, 3, 0, 0, 1, 0, 0]"] ;
427 -> 431 ;
432 [label="entropy = 0.0\nsamples = 3\nvalue = [0, 0, 0, 0, 3, 0, 0, 0, 0, 0]"] ;
431 -> 432 ;
433 [label="entropy = 0.0\nsamples = 1\nvalue = [0, 0, 0, 0, 0, 0, 0, 1, 0, 0]"] ;
431 -> 433 ;
434 [label="X[6] <= 35.398\nentropy = 1.0\nsamples = 2\nvalue = [0, 0, 0, 0, 1, 0, 0, 0, 1, 0]"] ;
426 -> 434 ;
435 [label="entropy = 0.0\nsamples = 1\nvalue = [0, 0, 0, 0, 0, 0, 0, 0, 1, 0]"] ;
434 -> 435 ;
436 [label="entropy = 0.0\nsamples = 1\nvalue = [0, 0, 0, 0, 1, 0, 0, 0, 0, 0]"] ;
434 -> 436 ;
437 [label="entropy = 0.0\nsamples = 7\nvalue = [0, 0, 0, 0, 0, 0, 0, 7, 0, 0]"] ;
425 -> 437 ;
438 [label="X[4] <= 6.5\nentropy = 0.85\nsamples = 130\nvalue = [0, 1, 2, 3, 3, 9, 0, 112, 0, 0]"] ;
374 -> 438 ;
439 [label="X[3] <= 31.819\nentropy = 0.395\nsamples = 96\nvalue = [0, 0, 1, 2, 1, 1, 0, 91, 0, 0]"] ;
438 -> 439 ;
440 [label="X[4] <= 2.5\nentropy = 0.181\nsamples = 87\nvalue = [0, 0, 1, 0, 1, 0, 0, 85, 0, 0]"] ;
439 -> 440 ;
441 [label="entropy = 0.0\nsamples = 1\nvalue = [0, 0, 1, 0, 0, 0, 0, 0, 0, 0]"] ;
440 -> 441 ;
442 [label="X[8] <= 10.529\nentropy = 0.091\nsamples = 86\nvalue = [0, 0, 0, 0, 1, 0, 0, 85, 0, 0]"] ;
440 -> 442 ;
443 [label="X[3] <= 28.765\nentropy = 0.918\nsamples = 3\nvalue = [0, 0, 0, 0, 1, 0, 0, 2, 0, 0]"] ;
442 -> 443 ;
444 [label="entropy = 0.0\nsamples = 1\nvalue = [0, 0, 0, 0, 1, 0, 0, 0, 0, 0]"] ;
443 -> 444 ;
445 [label="entropy = 0.0\nsamples = 2\nvalue = [0, 0, 0, 0, 0, 0, 0, 2, 0, 0]"] ;
443 -> 445 ;
446 [label="entropy = 0.0\nsamples = 83\nvalue = [0, 0, 0, 0, 0, 0, 0, 83, 0, 0]"] ;
442 -> 446 ;
447 [label="X[1] <= 34.358\nentropy = 1.224\nsamples = 9\nvalue = [0, 0, 0, 2, 0, 1, 0, 6, 0, 0]"] ;
439 -> 447 ;
448 [label="X[8] <= 43.688\nentropy = 0.918\nsamples = 3\nvalue = [0, 0, 0, 2, 0, 1, 0, 0, 0, 0]"] ;
447 -> 448 ;
449 [label="entropy = 0.0\nsamples = 2\nvalue = [0, 0, 0, 2, 0, 0, 0, 0, 0, 0]"] ;
448 -> 449 ;
450 [label="entropy = 0.0\nsamples = 1\nvalue = [0, 0, 0, 0, 0, 1, 0, 0, 0, 0]"] ;
448 -> 450 ;
451 [label="entropy = 0.0\nsamples = 6\nvalue = [0, 0, 0, 0, 0, 0, 0, 6, 0, 0]"] ;
447 -> 451 ;
452 [label="X[4] <= 9.5\nentropy = 1.61\nsamples = 34\nvalue = [0, 1, 1, 1, 2, 8, 0, 21, 0, 0]"] ;
438 -> 452 ;
453 [label="X[1] <= 27.337\nentropy = 1.549\nsamples = 8\nvalue = [0, 0, 0, 1, 1, 5, 0, 1, 0, 0]"] ;
452 -> 453 ;
454 [label="X[5] <= 13.5\nentropy = 1.0\nsamples = 2\nvalue = [0, 0, 0, 0, 1, 0, 0, 1, 0, 0]"] ;
453 -> 454 ;
455 [label="entropy = 0.0\nsamples = 1\nvalue = [0, 0, 0, 0, 1, 0, 0, 0, 0, 0]"] ;
454 -> 455 ;
456 [label="entropy = 0.0\nsamples = 1\nvalue = [0, 0, 0, 0, 0, 0, 0, 1, 0, 0]"] ;
454 -> 456 ;
457 [label="X[9] <= 38.745\nentropy = 0.65\nsamples = 6\nvalue = [0, 0, 0, 1, 0, 5, 0, 0, 0, 0]"] ;
453 -> 457 ;
458 [label="entropy = 0.0\nsamples = 5\nvalue = [0, 0, 0, 0, 0, 5, 0, 0, 0, 0]"] ;
457 -> 458 ;
459 [label="entropy = 0.0\nsamples = 1\nvalue = [0, 0, 0, 1, 0, 0, 0, 0, 0, 0]"] ;
457 -> 459 ;
460 [label="X[7] <= 39.752\nentropy = 1.193\nsamples = 26\nvalue = [0, 1, 1, 0, 1, 3, 0, 20, 0, 0]"] ;
452 -> 460 ;
461 [label="X[8] <= 29.424\nentropy = 1.551\nsamples = 12\nvalue = [0, 0, 1, 0, 1, 3, 0, 7, 0, 0]"] ;
460 -> 461 ;
462 [label="entropy = 0.0\nsamples = 7\nvalue = [0, 0, 0, 0, 0, 0, 0, 7, 0, 0]"] ;
461 -> 462 ;
463 [label="X[7] <= 37.862\nentropy = 1.371\nsamples = 5\nvalue = [0, 0, 1, 0, 1, 3, 0, 0, 0, 0]"] ;
461 -> 463 ;
464 [label="X[7] <= 37.386\nentropy = 1.0\nsamples = 2\nvalue = [0, 0, 1, 0, 1, 0, 0, 0, 0, 0]"] ;
463 -> 464 ;
465 [label="entropy = 0.0\nsamples = 1\nvalue = [0, 0, 0, 0, 1, 0, 0, 0, 0, 0]"] ;
464 -> 465 ;
466 [label="entropy = 0.0\nsamples = 1\nvalue = [0, 0, 1, 0, 0, 0, 0, 0, 0, 0]"] ;
464 -> 466 ;
467 [label="entropy = 0.0\nsamples = 3\nvalue = [0, 0, 0, 0, 0, 3, 0, 0, 0, 0]"] ;
463 -> 467 ;
468 [label="X[2] <= 29.317\nentropy = 0.371\nsamples = 14\nvalue = [0, 1, 0, 0, 0, 0, 0, 13, 0, 0]"] ;
460 -> 468 ;
469 [label="entropy = 0.0\nsamples = 1\nvalue = [0, 1, 0, 0, 0, 0, 0, 0, 0, 0]"] ;
468 -> 469 ;
470 [label="entropy = 0.0\nsamples = 13\nvalue = [0, 0, 0, 0, 0, 0, 0, 13, 0, 0]"] ;
468 -> 470 ;
471 [label="X[7] <= 46.088\nentropy = 2.597\nsamples = 556\nvalue = [1, 11, 112, 91, 157, 66, 49, 68, 1, 0]"] ;
73 -> 471 ;
472 [label="X[4] <= 12.5\nentropy = 2.36\nsamples = 353\nvalue = [0, 1, 63, 41, 134, 55, 40, 19, 0, 0]"] ;
471 -> 472 ;
473 [label="X[6] <= 34.658\nentropy = 2.296\nsamples = 285\nvalue = [0, 0, 39, 40, 110, 55, 31, 10, 0, 0]"] ;
472 -> 473 ;
474 [label="X[5] <= 13.5\nentropy = 2.087\nsamples = 164\nvalue = [0, 0, 30, 9, 79, 18, 23, 5, 0, 0]"] ;
473 -> 474 ;
475 [label="X[4] <= 7.5\nentropy = 2.243\nsamples = 68\nvalue = [0, 0, 7, 6, 19, 14, 21, 1, 0, 0]"] ;
474 -> 475 ;
476 [label="X[9] <= 42.577\nentropy = 2.078\nsamples = 43\nvalue = [0, 0, 3, 6, 5, 13, 16, 0, 0, 0]"] ;
475 -> 476 ;
477 [label="X[2] <= 26.025\nentropy = 2.082\nsamples = 30\nvalue = [0, 0, 3, 5, 3, 13, 6, 0, 0, 0]"] ;
476 -> 477 ;
478 [label="X[3] <= 34.343\nentropy = 0.65\nsamples = 6\nvalue = [0, 0, 0, 0, 1, 0, 5, 0, 0, 0]"] ;
477 -> 478 ;
479 [label="entropy = 0.0\nsamples = 1\nvalue = [0, 0, 0, 0, 1, 0, 0, 0, 0, 0]"] ;
478 -> 479 ;
480 [label="entropy = 0.0\nsamples = 5\nvalue = [0, 0, 0, 0, 0, 0, 5, 0, 0, 0]"] ;
478 -> 480 ;
481 [label="X[9] <= 37.495\nentropy = 1.815\nsamples = 24\nvalue = [0, 0, 3, 5, 2, 13, 1, 0, 0, 0]"] ;
477 -> 481 ;
482 [label="X[5] <= 9.5\nentropy = 1.322\nsamples = 17\nvalue = [0, 0, 1, 2, 2, 12, 0, 0, 0, 0]"] ;
481 -> 482 ;
483 [label="X[3] <= 33.99\nentropy = 1.0\nsamples = 2\nvalue = [0, 0, 1, 1, 0, 0, 0, 0, 0, 0]"] ;
482 -> 483 ;
484 [label="entropy = 0.0\nsamples = 1\nvalue = [0, 0, 1, 0, 0, 0, 0, 0, 0, 0]"] ;
483 -> 484 ;
485 [label="entropy = 0.0\nsamples = 1\nvalue = [0, 0, 0, 1, 0, 0, 0, 0, 0, 0]"] ;
483 -> 485 ;
486 [label="X[1] <= 33.13\nentropy = 0.906\nsamples = 15\nvalue = [0, 0, 0, 1, 2, 12, 0, 0, 0, 0]"] ;
482 -> 486 ;
487 [label="X[1] <= 30.374\nentropy = 1.379\nsamples = 7\nvalue = [0, 0, 0, 1, 2, 4, 0, 0, 0, 0]"] ;
486 -> 487 ;
488 [label="entropy = 0.0\nsamples = 4\nvalue = [0, 0, 0, 0, 0, 4, 0, 0, 0, 0]"] ;
487 -> 488 ;
489 [label="X[6] <= 24.702\nentropy = 0.918\nsamples = 3\nvalue = [0, 0, 0, 1, 2, 0, 0, 0, 0, 0]"] ;
487 -> 489 ;
490 [label="entropy = 0.0\nsamples = 1\nvalue = [0, 0, 0, 1, 0, 0, 0, 0, 0, 0]"] ;
489 -> 490 ;
491 [label="entropy = 0.0\nsamples = 2\nvalue = [0, 0, 0, 0, 2, 0, 0, 0, 0, 0]"] ;
489 -> 491 ;
492 [label="entropy = 0.0\nsamples = 8\nvalue = [0, 0, 0, 0, 0, 8, 0, 0, 0, 0]"] ;
486 -> 492 ;
493 [label="X[8] <= 35.688\nentropy = 1.842\nsamples = 7\nvalue = [0, 0, 2, 3, 0, 1, 1, 0, 0, 0]"] ;
481 -> 493 ;
494 [label="entropy = 0.0\nsamples = 3\nvalue = [0, 0, 0, 3, 0, 0, 0, 0, 0, 0]"] ;
493 -> 494 ;
495 [label="X[6] <= 28.653\nentropy = 1.5\nsamples = 4\nvalue = [0, 0, 2, 0, 0, 1, 1, 0, 0, 0]"] ;
493 -> 495 ;
496 [label="entropy = 0.0\nsamples = 2\nvalue = [0, 0, 2, 0, 0, 0, 0, 0, 0, 0]"] ;
495 -> 496 ;
497 [label="X[6] <= 30.487\nentropy = 1.0\nsamples = 2\nvalue = [0, 0, 0, 0, 0, 1, 1, 0, 0, 0]"] ;
495 -> 497 ;
498 [label="entropy = 0.0\nsamples = 1\nvalue = [0, 0, 0, 0, 0, 1, 0, 0, 0, 0]"] ;
497 -> 498 ;
499 [label="entropy = 0.0\nsamples = 1\nvalue = [0, 0, 0, 0, 0, 0, 1, 0, 0, 0]"] ;
497 -> 499 ;
500 [label="X[5] <= 12.5\nentropy = 0.991\nsamples = 13\nvalue = [0, 0, 0, 1, 2, 0, 10, 0, 0, 0]"] ;
476 -> 500 ;
501 [label="X[2] <= 32.837\nentropy = 0.503\nsamples = 9\nvalue = [0, 0, 0, 1, 0, 0, 8, 0, 0, 0]"] ;
500 -> 501 ;
502 [label="entropy = 0.0\nsamples = 8\nvalue = [0, 0, 0, 0, 0, 0, 8, 0, 0, 0]"] ;
501 -> 502 ;
503 [label="entropy = 0.0\nsamples = 1\nvalue = [0, 0, 0, 1, 0, 0, 0, 0, 0, 0]"] ;
501 -> 503 ;
504 [label="X[8] <= 40.917\nentropy = 1.0\nsamples = 4\nvalue = [0, 0, 0, 0, 2, 0, 2, 0, 0, 0]"] ;
500 -> 504 ;
505 [label="entropy = 0.0\nsamples = 2\nvalue = [0, 0, 0, 0, 2, 0, 0, 0, 0, 0]"] ;
504 -> 505 ;
506 [label="entropy = 0.0\nsamples = 2\nvalue = [0, 0, 0, 0, 0, 0, 2, 0, 0, 0]"] ;
504 -> 506 ;
507 [label="X[5] <= 11.5\nentropy = 1.727\nsamples = 25\nvalue = [0, 0, 4, 0, 14, 1, 5, 1, 0, 0]"] ;
475 -> 507 ;
508 [label="X[6] <= 30.709\nentropy = 2.156\nsamples = 8\nvalue = [0, 0, 3, 0, 1, 1, 2, 1, 0, 0]"] ;
507 -> 508 ;
509 [label="X[9] <= 31.403\nentropy = 1.459\nsamples = 6\nvalue = [0, 0, 3, 0, 0, 0, 2, 1, 0, 0]"] ;
508 -> 509 ;
510 [label="entropy = 0.0\nsamples = 1\nvalue = [0, 0, 0, 0, 0, 0, 0, 1, 0, 0]"] ;
509 -> 510 ;
511 [label="X[6] <= 24.251\nentropy = 0.971\nsamples = 5\nvalue = [0, 0, 3, 0, 0, 0, 2, 0, 0, 0]"] ;
509 -> 511 ;
512 [label="X[9] <= 38.324\nentropy = 0.918\nsamples = 3\nvalue = [0, 0, 1, 0, 0, 0, 2, 0, 0, 0]"] ;
511 -> 512 ;
513 [label="entropy = 0.0\nsamples = 2\nvalue = [0, 0, 0, 0, 0, 0, 2, 0, 0, 0]"] ;
512 -> 513 ;
514 [label="entropy = 0.0\nsamples = 1\nvalue = [0, 0, 1, 0, 0, 0, 0, 0, 0, 0]"] ;
512 -> 514 ;
515 [label="entropy = 0.0\nsamples = 2\nvalue = [0, 0, 2, 0, 0, 0, 0, 0, 0, 0]"] ;
511 -> 515 ;
516 [label="X[4] <= 10.0\nentropy = 1.0\nsamples = 2\nvalue = [0, 0, 0, 0, 1, 1, 0, 0, 0, 0]"] ;
508 -> 516 ;
517 [label="entropy = 0.0\nsamples = 1\nvalue = [0, 0, 0, 0, 0, 1, 0, 0, 0, 0]"] ;
516 -> 517 ;
518 [label="entropy = 0.0\nsamples = 1\nvalue = [0, 0, 0, 0, 1, 0, 0, 0, 0, 0]"] ;
516 -> 518 ;
519 [label="X[8] <= 40.183\nentropy = 0.978\nsamples = 17\nvalue = [0, 0, 1, 0, 13, 0, 3, 0, 0, 0]"] ;
507 -> 519 ;
520 [label="X[9] <= 44.895\nentropy = 0.918\nsamples = 9\nvalue = [0, 0, 0, 0, 6, 0, 3, 0, 0, 0]"] ;
519 -> 520 ;
521 [label="X[1] <= 28.907\nentropy = 0.811\nsamples = 4\nvalue = [0, 0, 0, 0, 1, 0, 3, 0, 0, 0]"] ;
520 -> 521 ;
522 [label="entropy = 0.0\nsamples = 1\nvalue = [0, 0, 0, 0, 1, 0, 0, 0, 0, 0]"] ;
521 -> 522 ;
523 [label="entropy = 0.0\nsamples = 3\nvalue = [0, 0, 0, 0, 0, 0, 3, 0, 0, 0]"] ;
521 -> 523 ;
524 [label="entropy = 0.0\nsamples = 5\nvalue = [0, 0, 0, 0, 5, 0, 0, 0, 0, 0]"] ;
520 -> 524 ;
525 [label="X[3] <= 34.823\nentropy = 0.544\nsamples = 8\nvalue = [0, 0, 1, 0, 7, 0, 0, 0, 0, 0]"] ;
519 -> 525 ;
526 [label="entropy = 0.0\nsamples = 1\nvalue = [0, 0, 1, 0, 0, 0, 0, 0, 0, 0]"] ;
525 -> 526 ;
527 [label="entropy = 0.0\nsamples = 7\nvalue = [0, 0, 0, 0, 7, 0, 0, 0, 0, 0]"] ;
525 -> 527 ;
528 [label="X[1] <= 33.152\nentropy = 1.572\nsamples = 96\nvalue = [0, 0, 23, 3, 60, 4, 2, 4, 0, 0]"] ;
474 -> 528 ;
529 [label="X[6] <= 26.329\nentropy = 1.418\nsamples = 48\nvalue = [0, 0, 8, 0, 32, 4, 0, 4, 0, 0]"] ;
528 -> 529 ;
530 [label="X[9] <= 49.403\nentropy = 1.335\nsamples = 26\nvalue = [0, 0, 6, 0, 16, 0, 0, 4, 0, 0]"] ;
529 -> 530 ;
531 [label="X[7] <= 40.674\nentropy = 1.189\nsamples = 24\nvalue = [0, 0, 6, 0, 16, 0, 0, 2, 0, 0]"] ;
530 -> 531 ;
532 [label="X[1] <= 30.408\nentropy = 0.863\nsamples = 21\nvalue = [0, 0, 6, 0, 15, 0, 0, 0, 0, 0]"] ;
531 -> 532 ;
533 [label="entropy = 0.0\nsamples = 8\nvalue = [0, 0, 0, 0, 8, 0, 0, 0, 0, 0]"] ;
532 -> 533 ;
534 [label="X[3] <= 36.652\nentropy = 0.996\nsamples = 13\nvalue = [0, 0, 6, 0, 7, 0, 0, 0, 0, 0]"] ;
532 -> 534 ;
535 [label="entropy = 0.0\nsamples = 4\nvalue = [0, 0, 4, 0, 0, 0, 0, 0, 0, 0]"] ;
534 -> 535 ;
536 [label="X[2] <= 27.123\nentropy = 0.764\nsamples = 9\nvalue = [0, 0, 2, 0, 7, 0, 0, 0, 0, 0]"] ;
534 -> 536 ;
537 [label="X[3] <= 39.828\nentropy = 0.918\nsamples = 3\nvalue = [0, 0, 2, 0, 1, 0, 0, 0, 0, 0]"] ;
536 -> 537 ;
538 [label="entropy = 0.0\nsamples = 2\nvalue = [0, 0, 2, 0, 0, 0, 0, 0, 0, 0]"] ;
537 -> 538 ;
539 [label="entropy = 0.0\nsamples = 1\nvalue = [0, 0, 0, 0, 1, 0, 0, 0, 0, 0]"] ;
537 -> 539 ;
540 [label="entropy = 0.0\nsamples = 6\nvalue = [0, 0, 0, 0, 6, 0, 0, 0, 0, 0]"] ;
536 -> 540 ;
541 [label="X[6] <= 19.644\nentropy = 0.918\nsamples = 3\nvalue = [0, 0, 0, 0, 1, 0, 0, 2, 0, 0]"] ;
531 -> 541 ;
542 [label="entropy = 0.0\nsamples = 2\nvalue = [0, 0, 0, 0, 0, 0, 0, 2, 0, 0]"] ;
541 -> 542 ;
543 [label="entropy = 0.0\nsamples = 1\nvalue = [0, 0, 0, 0, 1, 0, 0, 0, 0, 0]"] ;
541 -> 543 ;
544 [label="entropy = 0.0\nsamples = 2\nvalue = [0, 0, 0, 0, 0, 0, 0, 2, 0, 0]"] ;
530 -> 544 ;
545 [label="X[9] <= 38.383\nentropy = 1.096\nsamples = 22\nvalue = [0, 0, 2, 0, 16, 4, 0, 0, 0, 0]"] ;
529 -> 545 ;
546 [label="X[4] <= 7.5\nentropy = 0.991\nsamples = 9\nvalue = [0, 0, 0, 0, 5, 4, 0, 0, 0, 0]"] ;
545 -> 546 ;
547 [label="X[8] <= 45.495\nentropy = 0.722\nsamples = 5\nvalue = [0, 0, 0, 0, 1, 4, 0, 0, 0, 0]"] ;
546 -> 547 ;
548 [label="entropy = 0.0\nsamples = 4\nvalue = [0, 0, 0, 0, 0, 4, 0, 0, 0, 0]"] ;
547 -> 548 ;
549 [label="entropy = 0.0\nsamples = 1\nvalue = [0, 0, 0, 0, 1, 0, 0, 0, 0, 0]"] ;
547 -> 549 ;
550 [label="entropy = 0.0\nsamples = 4\nvalue = [0, 0, 0, 0, 4, 0, 0, 0, 0, 0]"] ;
546 -> 550 ;
551 [label="X[1] <= 27.269\nentropy = 0.619\nsamples = 13\nvalue = [0, 0, 2, 0, 11, 0, 0, 0, 0, 0]"] ;
545 -> 551 ;
552 [label="entropy = 0.0\nsamples = 1\nvalue = [0, 0, 1, 0, 0, 0, 0, 0, 0, 0]"] ;
551 -> 552 ;
553 [label="X[1] <= 31.347\nentropy = 0.414\nsamples = 12\nvalue = [0, 0, 1, 0, 11, 0, 0, 0, 0, 0]"] ;
551 -> 553 ;
554 [label="entropy = 0.0\nsamples = 8\nvalue = [0, 0, 0, 0, 8, 0, 0, 0, 0, 0]"] ;
553 -> 554 ;
555 [label="X[7] <= 27.905\nentropy = 0.811\nsamples = 4\nvalue = [0, 0, 1, 0, 3, 0, 0, 0, 0, 0]"] ;
553 -> 555 ;
556 [label="entropy = 0.0\nsamples = 1\nvalue = [0, 0, 1, 0, 0, 0, 0, 0, 0, 0]"] ;
555 -> 556 ;
557 [label="entropy = 0.0\nsamples = 3\nvalue = [0, 0, 0, 0, 3, 0, 0, 0, 0, 0]"] ;
555 -> 557 ;
558 [label="X[4] <= 6.5\nentropy = 1.419\nsamples = 48\nvalue = [0, 0, 15, 3, 28, 0, 2, 0, 0, 0]"] ;
528 -> 558 ;
559 [label="X[3] <= 42.796\nentropy = 1.337\nsamples = 20\nvalue = [0, 0, 11, 2, 7, 0, 0, 0, 0, 0]"] ;
558 -> 559 ;
560 [label="X[7] <= 40.114\nentropy = 0.811\nsamples = 8\nvalue = [0, 0, 6, 2, 0, 0, 0, 0, 0, 0]"] ;
559 -> 560 ;
561 [label="entropy = 0.0\nsamples = 5\nvalue = [0, 0, 5, 0, 0, 0, 0, 0, 0, 0]"] ;
560 -> 561 ;
562 [label="X[2] <= 34.89\nentropy = 0.918\nsamples = 3\nvalue = [0, 0, 1, 2, 0, 0, 0, 0, 0, 0]"] ;
560 -> 562 ;
563 [label="entropy = 0.0\nsamples = 2\nvalue = [0, 0, 0, 2, 0, 0, 0, 0, 0, 0]"] ;
562 -> 563 ;
564 [label="entropy = 0.0\nsamples = 1\nvalue = [0, 0, 1, 0, 0, 0, 0, 0, 0, 0]"] ;
562 -> 564 ;
565 [label="X[2] <= 31.318\nentropy = 0.98\nsamples = 12\nvalue = [0, 0, 5, 0, 7, 0, 0, 0, 0, 0]"] ;
559 -> 565 ;
566 [label="entropy = 0.0\nsamples = 3\nvalue = [0, 0, 3, 0, 0, 0, 0, 0, 0, 0]"] ;
565 -> 566 ;
567 [label="X[3] <= 45.122\nentropy = 0.764\nsamples = 9\nvalue = [0, 0, 2, 0, 7, 0, 0, 0, 0, 0]"] ;
565 -> 567 ;
568 [label="X[8] <= 39.352\nentropy = 1.0\nsamples = 4\nvalue = [0, 0, 2, 0, 2, 0, 0, 0, 0, 0]"] ;
567 -> 568 ;
569 [label="entropy = 0.0\nsamples = 2\nvalue = [0, 0, 0, 0, 2, 0, 0, 0, 0, 0]"] ;
568 -> 569 ;
570 [label="entropy = 0.0\nsamples = 2\nvalue = [0, 0, 2, 0, 0, 0, 0, 0, 0, 0]"] ;
568 -> 570 ;
571 [label="entropy = 0.0\nsamples = 5\nvalue = [0, 0, 0, 0, 5, 0, 0, 0, 0, 0]"] ;
567 -> 571 ;
572 [label="X[1] <= 38.15\nentropy = 1.156\nsamples = 28\nvalue = [0, 0, 4, 1, 21, 0, 2, 0, 0, 0]"] ;
558 -> 572 ;
573 [label="X[8] <= 29.821\nentropy = 0.569\nsamples = 20\nvalue = [0, 0, 1, 1, 18, 0, 0, 0, 0, 0]"] ;
572 -> 573 ;
574 [label="entropy = 0.0\nsamples = 1\nvalue = [0, 0, 0, 1, 0, 0, 0, 0, 0, 0]"] ;
573 -> 574 ;
575 [label="X[2] <= 26.568\nentropy = 0.297\nsamples = 19\nvalue = [0, 0, 1, 0, 18, 0, 0, 0, 0, 0]"] ;
573 -> 575 ;
576 [label="entropy = 0.0\nsamples = 1\nvalue = [0, 0, 1, 0, 0, 0, 0, 0, 0, 0]"] ;
575 -> 576 ;
577 [label="entropy = 0.0\nsamples = 18\nvalue = [0, 0, 0, 0, 18, 0, 0, 0, 0, 0]"] ;
575 -> 577 ;
578 [label="X[9] <= 49.582\nentropy = 1.561\nsamples = 8\nvalue = [0, 0, 3, 0, 3, 0, 2, 0, 0, 0]"] ;
572 -> 578 ;
579 [label="entropy = 0.0\nsamples = 2\nvalue = [0, 0, 0, 0, 2, 0, 0, 0, 0, 0]"] ;
578 -> 579 ;
580 [label="X[9] <= 57.653\nentropy = 1.459\nsamples = 6\nvalue = [0, 0, 3, 0, 1, 0, 2, 0, 0, 0]"] ;
578 -> 580 ;
581 [label="X[9] <= 52.73\nentropy = 0.971\nsamples = 5\nvalue = [0, 0, 3, 0, 0, 0, 2, 0, 0, 0]"] ;
580 -> 581 ;
582 [label="entropy = 0.0\nsamples = 2\nvalue = [0, 0, 2, 0, 0, 0, 0, 0, 0, 0]"] ;
581 -> 582 ;
583 [label="X[9] <= 55.696\nentropy = 0.918\nsamples = 3\nvalue = [0, 0, 1, 0, 0, 0, 2, 0, 0, 0]"] ;
581 -> 583 ;
584 [label="entropy = 0.0\nsamples = 2\nvalue = [0, 0, 0, 0, 0, 0, 2, 0, 0, 0]"] ;
583 -> 584 ;
585 [label="entropy = 0.0\nsamples = 1\nvalue = [0, 0, 1, 0, 0, 0, 0, 0, 0, 0]"] ;
583 -> 585 ;
586 [label="entropy = 0.0\nsamples = 1\nvalue = [0, 0, 0, 0, 1, 0, 0, 0, 0, 0]"] ;
580 -> 586 ;
587 [label="X[4] <= 5.5\nentropy = 2.257\nsamples = 121\nvalue = [0, 0, 9, 31, 31, 37, 8, 5, 0, 0]"] ;
473 -> 587 ;
588 [label="X[3] <= 45.089\nentropy = 1.639\nsamples = 43\nvalue = [0, 0, 0, 4, 10, 24, 0, 5, 0, 0]"] ;
587 -> 588 ;
589 [label="X[8] <= 31.143\nentropy = 1.461\nsamples = 35\nvalue = [0, 0, 0, 4, 3, 23, 0, 5, 0, 0]"] ;
588 -> 589 ;
590 [label="X[5] <= 17.5\nentropy = 1.526\nsamples = 13\nvalue = [0, 0, 0, 0, 3, 6, 0, 4, 0, 0]"] ;
589 -> 590 ;
591 [label="X[6] <= 41.8\nentropy = 0.811\nsamples = 8\nvalue = [0, 0, 0, 0, 2, 6, 0, 0, 0, 0]"] ;
590 -> 591 ;
592 [label="entropy = 0.0\nsamples = 2\nvalue = [0, 0, 0, 0, 2, 0, 0, 0, 0, 0]"] ;
591 -> 592 ;
593 [label="entropy = 0.0\nsamples = 6\nvalue = [0, 0, 0, 0, 0, 6, 0, 0, 0, 0]"] ;
591 -> 593 ;
594 [label="X[8] <= 28.56\nentropy = 0.722\nsamples = 5\nvalue = [0, 0, 0, 0, 1, 0, 0, 4, 0, 0]"] ;
590 -> 594 ;
595 [label="entropy = 0.0\nsamples = 4\nvalue = [0, 0, 0, 0, 0, 0, 0, 4, 0, 0]"] ;
594 -> 595 ;
596 [label="entropy = 0.0\nsamples = 1\nvalue = [0, 0, 0, 0, 1, 0, 0, 0, 0, 0]"] ;
594 -> 596 ;
597 [label="X[4] <= 3.5\nentropy = 0.937\nsamples = 22\nvalue = [0, 0, 0, 4, 0, 17, 0, 1, 0, 0]"] ;
589 -> 597 ;
598 [label="X[7] <= 34.75\nentropy = 0.991\nsamples = 9\nvalue = [0, 0, 0, 4, 0, 5, 0, 0, 0, 0]"] ;
597 -> 598 ;
599 [label="entropy = 0.0\nsamples = 3\nvalue = [0, 0, 0, 0, 0, 3, 0, 0, 0, 0]"] ;
598 -> 599 ;
600 [label="X[8] <= 36.838\nentropy = 0.918\nsamples = 6\nvalue = [0, 0, 0, 4, 0, 2, 0, 0, 0, 0]"] ;
598 -> 600 ;
601 [label="entropy = 0.0\nsamples = 3\nvalue = [0, 0, 0, 3, 0, 0, 0, 0, 0, 0]"] ;
600 -> 601 ;
602 [label="X[1] <= 39.735\nentropy = 0.918\nsamples = 3\nvalue = [0, 0, 0, 1, 0, 2, 0, 0, 0, 0]"] ;
600 -> 602 ;
603 [label="entropy = 0.0\nsamples = 2\nvalue = [0, 0, 0, 0, 0, 2, 0, 0, 0, 0]"] ;
602 -> 603 ;
604 [label="entropy = 0.0\nsamples = 1\nvalue = [0, 0, 0, 1, 0, 0, 0, 0, 0, 0]"] ;
602 -> 604 ;
605 [label="X[9] <= 30.964\nentropy = 0.391\nsamples = 13\nvalue = [0, 0, 0, 0, 0, 12, 0, 1, 0, 0]"] ;
597 -> 605 ;
606 [label="entropy = 0.0\nsamples = 1\nvalue = [0, 0, 0, 0, 0, 0, 0, 1, 0, 0]"] ;
605 -> 606 ;
607 [label="entropy = 0.0\nsamples = 12\nvalue = [0, 0, 0, 0, 0, 12, 0, 0, 0, 0]"] ;
605 -> 607 ;
608 [label="X[9] <= 69.944\nentropy = 0.544\nsamples = 8\nvalue = [0, 0, 0, 0, 7, 1, 0, 0, 0, 0]"] ;
588 -> 608 ;
609 [label="entropy = 0.0\nsamples = 7\nvalue = [0, 0, 0, 0, 7, 0, 0, 0, 0, 0]"] ;
608 -> 609 ;
610 [label="entropy = 0.0\nsamples = 1\nvalue = [0, 0, 0, 0, 0, 1, 0, 0, 0, 0]"] ;
608 -> 610 ;
611 [label="X[3] <= 44.143\nentropy = 2.167\nsamples = 78\nvalue = [0, 0, 9, 27, 21, 13, 8, 0, 0, 0]"] ;
587 -> 611 ;
612 [label="X[8] <= 39.5\nentropy = 1.912\nsamples = 60\nvalue = [0, 0, 8, 22, 17, 13, 0, 0, 0, 0]"] ;
611 -> 612 ;
613 [label="X[2] <= 34.182\nentropy = 1.659\nsamples = 40\nvalue = [0, 0, 3, 22, 7, 8, 0, 0, 0, 0]"] ;
612 -> 613 ;
614 [label="X[9] <= 44.298\nentropy = 1.383\nsamples = 17\nvalue = [0, 0, 3, 10, 0, 4, 0, 0, 0, 0]"] ;
613 -> 614 ;
615 [label="X[9] <= 38.523\nentropy = 1.5\nsamples = 8\nvalue = [0, 0, 2, 2, 0, 4, 0, 0, 0, 0]"] ;
614 -> 615 ;
616 [label="entropy = 0.0\nsamples = 2\nvalue = [0, 0, 2, 0, 0, 0, 0, 0, 0, 0]"] ;
615 -> 616 ;
617 [label="X[6] <= 35.722\nentropy = 0.918\nsamples = 6\nvalue = [0, 0, 0, 2, 0, 4, 0, 0, 0, 0]"] ;
615 -> 617 ;
618 [label="entropy = 0.0\nsamples = 2\nvalue = [0, 0, 0, 2, 0, 0, 0, 0, 0, 0]"] ;
617 -> 618 ;
619 [label="entropy = 0.0\nsamples = 4\nvalue = [0, 0, 0, 0, 0, 4, 0, 0, 0, 0]"] ;
617 -> 619 ;
620 [label="X[5] <= 12.5\nentropy = 0.503\nsamples = 9\nvalue = [0, 0, 1, 8, 0, 0, 0, 0, 0, 0]"] ;
614 -> 620 ;
621 [label="entropy = 0.0\nsamples = 8\nvalue = [0, 0, 0, 8, 0, 0, 0, 0, 0, 0]"] ;
620 -> 621 ;
622 [label="entropy = 0.0\nsamples = 1\nvalue = [0, 0, 1, 0, 0, 0, 0, 0, 0, 0]"] ;
620 -> 622 ;
623 [label="X[2] <= 43.51\nentropy = 1.451\nsamples = 23\nvalue = [0, 0, 0, 12, 7, 4, 0, 0, 0, 0]"] ;
613 -> 623 ;
624 [label="X[8] <= 28.983\nentropy = 1.312\nsamples = 19\nvalue = [0, 0, 0, 12, 4, 3, 0, 0, 0, 0]"] ;
623 -> 624 ;
625 [label="X[7] <= 31.871\nentropy = 1.392\nsamples = 9\nvalue = [0, 0, 0, 4, 4, 1, 0, 0, 0, 0]"] ;
624 -> 625 ;
626 [label="X[9] <= 59.429\nentropy = 0.811\nsamples = 4\nvalue = [0, 0, 0, 0, 3, 1, 0, 0, 0, 0]"] ;
625 -> 626 ;
627 [label="entropy = 0.0\nsamples = 3\nvalue = [0, 0, 0, 0, 3, 0, 0, 0, 0, 0]"] ;
626 -> 627 ;
628 [label="entropy = 0.0\nsamples = 1\nvalue = [0, 0, 0, 0, 0, 1, 0, 0, 0, 0]"] ;
626 -> 628 ;
629 [label="X[3] <= 34.087\nentropy = 0.722\nsamples = 5\nvalue = [0, 0, 0, 4, 1, 0, 0, 0, 0, 0]"] ;
625 -> 629 ;
630 [label="entropy = 0.0\nsamples = 1\nvalue = [0, 0, 0, 0, 1, 0, 0, 0, 0, 0]"] ;
629 -> 630 ;
631 [label="entropy = 0.0\nsamples = 4\nvalue = [0, 0, 0, 4, 0, 0, 0, 0, 0, 0]"] ;
629 -> 631 ;
632 [label="X[1] <= 37.124\nentropy = 0.722\nsamples = 10\nvalue = [0, 0, 0, 8, 0, 2, 0, 0, 0, 0]"] ;
624 -> 632 ;
633 [label="entropy = 0.0\nsamples = 6\nvalue = [0, 0, 0, 6, 0, 0, 0, 0, 0, 0]"] ;
632 -> 633 ;
634 [label="X[5] <= 14.5\nentropy = 1.0\nsamples = 4\nvalue = [0, 0, 0, 2, 0, 2, 0, 0, 0, 0]"] ;
632 -> 634 ;
635 [label="entropy = 0.0\nsamples = 2\nvalue = [0, 0, 0, 0, 0, 2, 0, 0, 0, 0]"] ;
634 -> 635 ;
636 [label="entropy = 0.0\nsamples = 2\nvalue = [0, 0, 0, 2, 0, 0, 0, 0, 0, 0]"] ;
634 -> 636 ;
637 [label="X[7] <= 39.962\nentropy = 0.811\nsamples = 4\nvalue = [0, 0, 0, 0, 3, 1, 0, 0, 0, 0]"] ;
623 -> 637 ;
638 [label="entropy = 0.0\nsamples = 3\nvalue = [0, 0, 0, 0, 3, 0, 0, 0, 0, 0]"] ;
637 -> 638 ;
639 [label="entropy = 0.0\nsamples = 1\nvalue = [0, 0, 0, 0, 0, 1, 0, 0, 0, 0]"] ;
637 -> 639 ;
640 [label="X[8] <= 47.545\nentropy = 1.5\nsamples = 20\nvalue = [0, 0, 5, 0, 10, 5, 0, 0, 0, 0]"] ;
612 -> 640 ;
641 [label="X[2] <= 34.789\nentropy = 1.483\nsamples = 12\nvalue = [0, 0, 5, 0, 2, 5, 0, 0, 0, 0]"] ;
640 -> 641 ;
642 [label="entropy = 0.0\nsamples = 4\nvalue = [0, 0, 4, 0, 0, 0, 0, 0, 0, 0]"] ;
641 -> 642 ;
643 [label="X[8] <= 42.162\nentropy = 1.299\nsamples = 8\nvalue = [0, 0, 1, 0, 2, 5, 0, 0, 0, 0]"] ;
641 -> 643 ;
644 [label="entropy = 0.0\nsamples = 2\nvalue = [0, 0, 0, 0, 2, 0, 0, 0, 0, 0]"] ;
643 -> 644 ;
645 [label="X[5] <= 13.5\nentropy = 0.65\nsamples = 6\nvalue = [0, 0, 1, 0, 0, 5, 0, 0, 0, 0]"] ;
643 -> 645 ;
646 [label="entropy = 0.0\nsamples = 4\nvalue = [0, 0, 0, 0, 0, 4, 0, 0, 0, 0]"] ;
645 -> 646 ;
647 [label="X[5] <= 15.0\nentropy = 1.0\nsamples = 2\nvalue = [0, 0, 1, 0, 0, 1, 0, 0, 0, 0]"] ;
645 -> 647 ;
648 [label="entropy = 0.0\nsamples = 1\nvalue = [0, 0, 1, 0, 0, 0, 0, 0, 0, 0]"] ;
647 -> 648 ;
649 [label="entropy = 0.0\nsamples = 1\nvalue = [0, 0, 0, 0, 0, 1, 0, 0, 0, 0]"] ;
647 -> 649 ;
650 [label="entropy = 0.0\nsamples = 8\nvalue = [0, 0, 0, 0, 8, 0, 0, 0, 0, 0]"] ;
640 -> 650 ;
651 [label="X[6] <= 44.151\nentropy = 1.747\nsamples = 18\nvalue = [0, 0, 1, 5, 4, 0, 8, 0, 0, 0]"] ;
611 -> 651 ;
652 [label="X[2] <= 37.443\nentropy = 0.946\nsamples = 11\nvalue = [0, 0, 0, 0, 4, 0, 7, 0, 0, 0]"] ;
651 -> 652 ;
653 [label="entropy = 0.0\nsamples = 5\nvalue = [0, 0, 0, 0, 0, 0, 5, 0, 0, 0]"] ;
652 -> 653 ;
654 [label="X[1] <= 46.031\nentropy = 0.918\nsamples = 6\nvalue = [0, 0, 0, 0, 4, 0, 2, 0, 0, 0]"] ;
652 -> 654 ;
655 [label="entropy = 0.0\nsamples = 4\nvalue = [0, 0, 0, 0, 4, 0, 0, 0, 0, 0]"] ;
654 -> 655 ;
656 [label="entropy = 0.0\nsamples = 2\nvalue = [0, 0, 0, 0, 0, 0, 2, 0, 0, 0]"] ;
654 -> 656 ;
657 [label="X[5] <= 17.5\nentropy = 1.149\nsamples = 7\nvalue = [0, 0, 1, 5, 0, 0, 1, 0, 0, 0]"] ;
651 -> 657 ;
658 [label="entropy = 0.0\nsamples = 5\nvalue = [0, 0, 0, 5, 0, 0, 0, 0, 0, 0]"] ;
657 -> 658 ;
659 [label="X[6] <= 55.28\nentropy = 1.0\nsamples = 2\nvalue = [0, 0, 1, 0, 0, 0, 1, 0, 0, 0]"] ;
657 -> 659 ;
660 [label="entropy = 0.0\nsamples = 1\nvalue = [0, 0, 1, 0, 0, 0, 0, 0, 0, 0]"] ;
659 -> 660 ;
661 [label="entropy = 0.0\nsamples = 1\nvalue = [0, 0, 0, 0, 0, 0, 1, 0, 0, 0]"] ;
659 -> 661 ;
662 [label="X[8] <= 40.748\nentropy = 2.012\nsamples = 68\nvalue = [0, 1, 24, 1, 24, 0, 9, 9, 0, 0]"] ;
472 -> 662 ;
663 [label="X[7] <= 27.388\nentropy = 1.857\nsamples = 38\nvalue = [0, 1, 5, 0, 19, 0, 4, 9, 0, 0]"] ;
662 -> 663 ;
664 [label="X[8] <= 32.748\nentropy = 1.753\nsamples = 9\nvalue = [0, 1, 4, 0, 0, 0, 3, 1, 0, 0]"] ;
663 -> 664 ;
665 [label="X[7] <= 26.895\nentropy = 0.722\nsamples = 5\nvalue = [0, 0, 4, 0, 0, 0, 0, 1, 0, 0]"] ;
664 -> 665 ;
666 [label="entropy = 0.0\nsamples = 4\nvalue = [0, 0, 4, 0, 0, 0, 0, 0, 0, 0]"] ;
665 -> 666 ;
667 [label="entropy = 0.0\nsamples = 1\nvalue = [0, 0, 0, 0, 0, 0, 0, 1, 0, 0]"] ;
665 -> 667 ;
668 [label="X[9] <= 47.755\nentropy = 0.811\nsamples = 4\nvalue = [0, 1, 0, 0, 0, 0, 3, 0, 0, 0]"] ;
664 -> 668 ;
669 [label="entropy = 0.0\nsamples = 3\nvalue = [0, 0, 0, 0, 0, 0, 3, 0, 0, 0]"] ;
668 -> 669 ;
670 [label="entropy = 0.0\nsamples = 1\nvalue = [0, 1, 0, 0, 0, 0, 0, 0, 0, 0]"] ;
668 -> 670 ;
671 [label="X[3] <= 35.291\nentropy = 1.247\nsamples = 29\nvalue = [0, 0, 1, 0, 19, 0, 1, 8, 0, 0]"] ;
663 -> 671 ;
672 [label="X[5] <= 12.0\nentropy = 1.299\nsamples = 8\nvalue = [0, 0, 1, 0, 2, 0, 0, 5, 0, 0]"] ;
671 -> 672 ;
673 [label="entropy = 0.0\nsamples = 2\nvalue = [0, 0, 0, 0, 2, 0, 0, 0, 0, 0]"] ;
672 -> 673 ;
674 [label="X[3] <= 33.239\nentropy = 0.65\nsamples = 6\nvalue = [0, 0, 1, 0, 0, 0, 0, 5, 0, 0]"] ;
672 -> 674 ;
675 [label="entropy = 0.0\nsamples = 1\nvalue = [0, 0, 1, 0, 0, 0, 0, 0, 0, 0]"] ;
674 -> 675 ;
676 [label="entropy = 0.0\nsamples = 5\nvalue = [0, 0, 0, 0, 0, 0, 0, 5, 0, 0]"] ;
674 -> 676 ;
677 [label="X[8] <= 39.162\nentropy = 0.857\nsamples = 21\nvalue = [0, 0, 0, 0, 17, 0, 1, 3, 0, 0]"] ;
671 -> 677 ;
678 [label="X[6] <= 34.971\nentropy = 0.485\nsamples = 19\nvalue = [0, 0, 0, 0, 17, 0, 0, 2, 0, 0]"] ;
677 -> 678 ;
679 [label="entropy = 0.0\nsamples = 14\nvalue = [0, 0, 0, 0, 14, 0, 0, 0, 0, 0]"] ;
678 -> 679 ;
680 [label="X[4] <= 15.0\nentropy = 0.971\nsamples = 5\nvalue = [0, 0, 0, 0, 3, 0, 0, 2, 0, 0]"] ;
678 -> 680 ;
681 [label="entropy = 0.0\nsamples = 3\nvalue = [0, 0, 0, 0, 3, 0, 0, 0, 0, 0]"] ;
680 -> 681 ;
682 [label="entropy = 0.0\nsamples = 2\nvalue = [0, 0, 0, 0, 0, 0, 0, 2, 0, 0]"] ;
680 -> 682 ;
683 [label="X[6] <= 33.867\nentropy = 1.0\nsamples = 2\nvalue = [0, 0, 0, 0, 0, 0, 1, 1, 0, 0]"] ;
677 -> 683 ;
684 [label="entropy = 0.0\nsamples = 1\nvalue = [0, 0, 0, 0, 0, 0, 0, 1, 0, 0]"] ;
683 -> 684 ;
685 [label="entropy = 0.0\nsamples = 1\nvalue = [0, 0, 0, 0, 0, 0, 1, 0, 0, 0]"] ;
683 -> 685 ;
686 [label="X[2] <= 36.789\nentropy = 1.443\nsamples = 30\nvalue = [0, 0, 19, 1, 5, 0, 5, 0, 0, 0]"] ;
662 -> 686 ;
687 [label="X[5] <= 15.0\nentropy = 0.764\nsamples = 18\nvalue = [0, 0, 14, 0, 0, 0, 4, 0, 0, 0]"] ;
686 -> 687 ;
688 [label="X[6] <= 36.862\nentropy = 1.0\nsamples = 8\nvalue = [0, 0, 4, 0, 0, 0, 4, 0, 0, 0]"] ;
687 -> 688 ;
689 [label="X[5] <= 10.5\nentropy = 0.722\nsamples = 5\nvalue = [0, 0, 4, 0, 0, 0, 1, 0, 0, 0]"] ;
688 -> 689 ;
690 [label="entropy = 0.0\nsamples = 1\nvalue = [0, 0, 0, 0, 0, 0, 1, 0, 0, 0]"] ;
689 -> 690 ;
691 [label="entropy = 0.0\nsamples = 4\nvalue = [0, 0, 4, 0, 0, 0, 0, 0, 0, 0]"] ;
689 -> 691 ;
692 [label="entropy = 0.0\nsamples = 3\nvalue = [0, 0, 0, 0, 0, 0, 3, 0, 0, 0]"] ;
688 -> 692 ;
693 [label="entropy = 0.0\nsamples = 10\nvalue = [0, 0, 10, 0, 0, 0, 0, 0, 0, 0]"] ;
687 -> 693 ;
694 [label="X[1] <= 46.386\nentropy = 1.65\nsamples = 12\nvalue = [0, 0, 5, 1, 5, 0, 1, 0, 0, 0]"] ;
686 -> 694 ;
695 [label="X[5] <= 13.5\nentropy = 0.65\nsamples = 6\nvalue = [0, 0, 0, 1, 5, 0, 0, 0, 0, 0]"] ;
694 -> 695 ;
696 [label="entropy = 0.0\nsamples = 1\nvalue = [0, 0, 0, 1, 0, 0, 0, 0, 0, 0]"] ;
695 -> 696 ;
697 [label="entropy = 0.0\nsamples = 5\nvalue = [0, 0, 0, 0, 5, 0, 0, 0, 0, 0]"] ;
695 -> 697 ;
698 [label="X[7] <= 31.217\nentropy = 0.65\nsamples = 6\nvalue = [0, 0, 5, 0, 0, 0, 1, 0, 0, 0]"] ;
694 -> 698 ;
699 [label="entropy = 0.0\nsamples = 1\nvalue = [0, 0, 0, 0, 0, 0, 1, 0, 0, 0]"] ;
698 -> 699 ;
700 [label="entropy = 0.0\nsamples = 5\nvalue = [0, 0, 5, 0, 0, 0, 0, 0, 0, 0]"] ;
698 -> 700 ;
701 [label="X[8] <= 46.388\nentropy = 2.561\nsamples = 203\nvalue = [1, 10, 49, 50, 23, 11, 9, 49, 1, 0]"] ;
471 -> 701 ;
702 [label="X[5] <= 16.5\nentropy = 1.591\nsamples = 84\nvalue = [0, 0, 3, 36, 7, 1, 0, 37, 0, 0]"] ;
701 -> 702 ;
703 [label="X[4] <= 12.5\nentropy = 1.435\nsamples = 49\nvalue = [0, 0, 2, 32, 3, 1, 0, 11, 0, 0]"] ;
702 -> 703 ;
704 [label="X[7] <= 52.769\nentropy = 1.204\nsamples = 37\nvalue = [0, 0, 2, 28, 1, 1, 0, 5, 0, 0]"] ;
703 -> 704 ;
705 [label="X[7] <= 48.91\nentropy = 1.696\nsamples = 21\nvalue = [0, 0, 2, 12, 1, 1, 0, 5, 0, 0]"] ;
704 -> 705 ;
706 [label="X[2] <= 30.124\nentropy = 0.773\nsamples = 13\nvalue = [0, 0, 1, 11, 0, 0, 0, 1, 0, 0]"] ;
705 -> 706 ;
707 [label="entropy = 0.0\nsamples = 1\nvalue = [0, 0, 1, 0, 0, 0, 0, 0, 0, 0]"] ;
706 -> 707 ;
708 [label="X[5] <= 15.5\nentropy = 0.414\nsamples = 12\nvalue = [0, 0, 0, 11, 0, 0, 0, 1, 0, 0]"] ;
706 -> 708 ;
709 [label="entropy = 0.0\nsamples = 11\nvalue = [0, 0, 0, 11, 0, 0, 0, 0, 0, 0]"] ;
708 -> 709 ;
710 [label="entropy = 0.0\nsamples = 1\nvalue = [0, 0, 0, 0, 0, 0, 0, 1, 0, 0]"] ;
708 -> 710 ;
711 [label="X[4] <= 7.0\nentropy = 2.0\nsamples = 8\nvalue = [0, 0, 1, 1, 1, 1, 0, 4, 0, 0]"] ;
705 -> 711 ;
712 [label="X[6] <= 22.649\nentropy = 1.252\nsamples = 6\nvalue = [0, 0, 1, 1, 0, 0, 0, 4, 0, 0]"] ;
711 -> 712 ;
713 [label="entropy = 0.0\nsamples = 1\nvalue = [0, 0, 0, 1, 0, 0, 0, 0, 0, 0]"] ;
712 -> 713 ;
714 [label="X[1] <= 42.735\nentropy = 0.722\nsamples = 5\nvalue = [0, 0, 1, 0, 0, 0, 0, 4, 0, 0]"] ;
712 -> 714 ;
715 [label="entropy = 0.0\nsamples = 4\nvalue = [0, 0, 0, 0, 0, 0, 0, 4, 0, 0]"] ;
714 -> 715 ;
716 [label="entropy = 0.0\nsamples = 1\nvalue = [0, 0, 1, 0, 0, 0, 0, 0, 0, 0]"] ;
714 -> 716 ;
717 [label="X[1] <= 36.508\nentropy = 1.0\nsamples = 2\nvalue = [0, 0, 0, 0, 1, 1, 0, 0, 0, 0]"] ;
711 -> 717 ;
718 [label="entropy = 0.0\nsamples = 1\nvalue = [0, 0, 0, 0, 1, 0, 0, 0, 0, 0]"] ;
717 -> 718 ;
719 [label="entropy = 0.0\nsamples = 1\nvalue = [0, 0, 0, 0, 0, 1, 0, 0, 0, 0]"] ;
717 -> 719 ;
720 [label="entropy = 0.0\nsamples = 16\nvalue = [0, 0, 0, 16, 0, 0, 0, 0, 0, 0]"] ;
704 -> 720 ;
721 [label="X[9] <= 62.319\nentropy = 1.459\nsamples = 12\nvalue = [0, 0, 0, 4, 2, 0, 0, 6, 0, 0]"] ;
703 -> 721 ;
722 [label="X[4] <= 18.5\nentropy = 0.811\nsamples = 8\nvalue = [0, 0, 0, 2, 0, 0, 0, 6, 0, 0]"] ;
721 -> 722 ;
723 [label="entropy = 0.0\nsamples = 5\nvalue = [0, 0, 0, 0, 0, 0, 0, 5, 0, 0]"] ;
722 -> 723 ;
724 [label="X[8] <= 34.645\nentropy = 0.918\nsamples = 3\nvalue = [0, 0, 0, 2, 0, 0, 0, 1, 0, 0]"] ;
722 -> 724 ;
725 [label="entropy = 0.0\nsamples = 1\nvalue = [0, 0, 0, 0, 0, 0, 0, 1, 0, 0]"] ;
724 -> 725 ;
726 [label="entropy = 0.0\nsamples = 2\nvalue = [0, 0, 0, 2, 0, 0, 0, 0, 0, 0]"] ;
724 -> 726 ;
727 [label="X[9] <= 64.656\nentropy = 1.0\nsamples = 4\nvalue = [0, 0, 0, 2, 2, 0, 0, 0, 0, 0]"] ;
721 -> 727 ;
728 [label="entropy = 0.0\nsamples = 2\nvalue = [0, 0, 0, 0, 2, 0, 0, 0, 0, 0]"] ;
727 -> 728 ;
729 [label="entropy = 0.0\nsamples = 2\nvalue = [0, 0, 0, 2, 0, 0, 0, 0, 0, 0]"] ;
727 -> 729 ;
730 [label="X[3] <= 43.781\nentropy = 1.18\nsamples = 35\nvalue = [0, 0, 1, 4, 4, 0, 0, 26, 0, 0]"] ;
702 -> 730 ;
731 [label="X[6] <= 27.116\nentropy = 0.25\nsamples = 24\nvalue = [0, 0, 0, 1, 0, 0, 0, 23, 0, 0]"] ;
730 -> 731 ;
732 [label="entropy = 0.0\nsamples = 1\nvalue = [0, 0, 0, 1, 0, 0, 0, 0, 0, 0]"] ;
731 -> 732 ;
733 [label="entropy = 0.0\nsamples = 23\nvalue = [0, 0, 0, 0, 0, 0, 0, 23, 0, 0]"] ;
731 -> 733 ;
734 [label="X[8] <= 36.945\nentropy = 1.868\nsamples = 11\nvalue = [0, 0, 1, 3, 4, 0, 0, 3, 0, 0]"] ;
730 -> 734 ;
735 [label="X[5] <= 17.5\nentropy = 1.0\nsamples = 2\nvalue = [0, 0, 1, 0, 0, 0, 0, 1, 0, 0]"] ;
734 -> 735 ;
736 [label="entropy = 0.0\nsamples = 1\nvalue = [0, 0, 0, 0, 0, 0, 0, 1, 0, 0]"] ;
735 -> 736 ;
737 [label="entropy = 0.0\nsamples = 1\nvalue = [0, 0, 1, 0, 0, 0, 0, 0, 0, 0]"] ;
735 -> 737 ;
738 [label="X[4] <= 5.5\nentropy = 1.53\nsamples = 9\nvalue = [0, 0, 0, 3, 4, 0, 0, 2, 0, 0]"] ;
734 -> 738 ;
739 [label="entropy = 0.0\nsamples = 2\nvalue = [0, 0, 0, 2, 0, 0, 0, 0, 0, 0]"] ;
738 -> 739 ;
740 [label="X[8] <= 43.836\nentropy = 1.379\nsamples = 7\nvalue = [0, 0, 0, 1, 4, 0, 0, 2, 0, 0]"] ;
738 -> 740 ;
741 [label="X[4] <= 9.0\nentropy = 0.811\nsamples = 4\nvalue = [0, 0, 0, 1, 3, 0, 0, 0, 0, 0]"] ;
740 -> 741 ;
742 [label="entropy = 0.0\nsamples = 1\nvalue = [0, 0, 0, 1, 0, 0, 0, 0, 0, 0]"] ;
741 -> 742 ;
743 [label="entropy = 0.0\nsamples = 3\nvalue = [0, 0, 0, 0, 3, 0, 0, 0, 0, 0]"] ;
741 -> 743 ;
744 [label="X[5] <= 17.5\nentropy = 0.918\nsamples = 3\nvalue = [0, 0, 0, 0, 1, 0, 0, 2, 0, 0]"] ;
740 -> 744 ;
745 [label="entropy = 0.0\nsamples = 2\nvalue = [0, 0, 0, 0, 0, 0, 0, 2, 0, 0]"] ;
744 -> 745 ;
746 [label="entropy = 0.0\nsamples = 1\nvalue = [0, 0, 0, 0, 1, 0, 0, 0, 0, 0]"] ;
744 -> 746 ;
747 [label="X[5] <= 11.5\nentropy = 2.614\nsamples = 119\nvalue = [1, 10, 46, 14, 16, 10, 9, 12, 1, 0]"] ;
701 -> 747 ;
748 [label="X[5] <= 10.0\nentropy = 0.817\nsamples = 12\nvalue = [0, 10, 0, 0, 0, 0, 1, 1, 0, 0]"] ;
747 -> 748 ;
749 [label="entropy = 0.0\nsamples = 9\nvalue = [0, 9, 0, 0, 0, 0, 0, 0, 0, 0]"] ;
748 -> 749 ;
750 [label="X[9] <= 24.783\nentropy = 1.585\nsamples = 3\nvalue = [0, 1, 0, 0, 0, 0, 1, 1, 0, 0]"] ;
748 -> 750 ;
751 [label="entropy = 0.0\nsamples = 1\nvalue = [0, 0, 0, 0, 0, 0, 1, 0, 0, 0]"] ;
750 -> 751 ;
752 [label="X[3] <= 40.046\nentropy = 1.0\nsamples = 2\nvalue = [0, 1, 0, 0, 0, 0, 0, 1, 0, 0]"] ;
750 -> 752 ;
753 [label="entropy = 0.0\nsamples = 1\nvalue = [0, 0, 0, 0, 0, 0, 0, 1, 0, 0]"] ;
752 -> 753 ;
754 [label="entropy = 0.0\nsamples = 1\nvalue = [0, 1, 0, 0, 0, 0, 0, 0, 0, 0]"] ;
752 -> 754 ;
755 [label="X[2] <= 52.977\nentropy = 2.38\nsamples = 107\nvalue = [1, 0, 46, 14, 16, 10, 8, 11, 1, 0]"] ;
747 -> 755 ;
756 [label="X[7] <= 55.855\nentropy = 2.191\nsamples = 92\nvalue = [1, 0, 46, 13, 9, 7, 7, 9, 0, 0]"] ;
755 -> 756 ;
757 [label="X[4] <= 10.5\nentropy = 2.254\nsamples = 62\nvalue = [1, 0, 29, 3, 9, 7, 5, 8, 0, 0]"] ;
756 -> 757 ;
758 [label="X[4] <= 4.5\nentropy = 2.127\nsamples = 34\nvalue = [1, 0, 17, 2, 3, 7, 3, 1, 0, 0]"] ;
757 -> 758 ;
759 [label="X[2] <= 39.871\nentropy = 1.275\nsamples = 18\nvalue = [0, 0, 13, 2, 0, 2, 0, 1, 0, 0]"] ;
758 -> 759 ;
760 [label="X[6] <= 31.007\nentropy = 0.619\nsamples = 13\nvalue = [0, 0, 11, 2, 0, 0, 0, 0, 0, 0]"] ;
759 -> 760 ;
761 [label="X[7] <= 54.795\nentropy = 0.414\nsamples = 12\nvalue = [0, 0, 11, 1, 0, 0, 0, 0, 0, 0]"] ;
760 -> 761 ;
762 [label="entropy = 0.0\nsamples = 11\nvalue = [0, 0, 11, 0, 0, 0, 0, 0, 0, 0]"] ;
761 -> 762 ;
763 [label="entropy = 0.0\nsamples = 1\nvalue = [0, 0, 0, 1, 0, 0, 0, 0, 0, 0]"] ;
761 -> 763 ;
764 [label="entropy = 0.0\nsamples = 1\nvalue = [0, 0, 0, 1, 0, 0, 0, 0, 0, 0]"] ;
760 -> 764 ;
765 [label="X[9] <= 46.827\nentropy = 1.522\nsamples = 5\nvalue = [0, 0, 2, 0, 0, 2, 0, 1, 0, 0]"] ;
759 -> 765 ;
766 [label="X[8] <= 47.717\nentropy = 0.918\nsamples = 3\nvalue = [0, 0, 0, 0, 0, 2, 0, 1, 0, 0]"] ;
765 -> 766 ;
767 [label="entropy = 0.0\nsamples = 1\nvalue = [0, 0, 0, 0, 0, 0, 0, 1, 0, 0]"] ;
766 -> 767 ;
768 [label="entropy = 0.0\nsamples = 2\nvalue = [0, 0, 0, 0, 0, 2, 0, 0, 0, 0]"] ;
766 -> 768 ;
769 [label="entropy = 0.0\nsamples = 2\nvalue = [0, 0, 2, 0, 0, 0, 0, 0, 0, 0]"] ;
765 -> 769 ;
770 [label="X[7] <= 49.433\nentropy = 2.18\nsamples = 16\nvalue = [1, 0, 4, 0, 3, 5, 3, 0, 0, 0]"] ;
758 -> 770 ;
771 [label="X[9] <= 39.901\nentropy = 1.53\nsamples = 9\nvalue = [0, 0, 4, 0, 3, 0, 2, 0, 0, 0]"] ;
770 -> 771 ;
772 [label="X[7] <= 48.883\nentropy = 0.811\nsamples = 4\nvalue = [0, 0, 1, 0, 3, 0, 0, 0, 0, 0]"] ;
771 -> 772 ;
773 [label="entropy = 0.0\nsamples = 3\nvalue = [0, 0, 0, 0, 3, 0, 0, 0, 0, 0]"] ;
772 -> 773 ;
774 [label="entropy = 0.0\nsamples = 1\nvalue = [0, 0, 1, 0, 0, 0, 0, 0, 0, 0]"] ;
772 -> 774 ;
775 [label="X[7] <= 48.121\nentropy = 0.971\nsamples = 5\nvalue = [0, 0, 3, 0, 0, 0, 2, 0, 0, 0]"] ;
771 -> 775 ;
776 [label="entropy = 0.0\nsamples = 2\nvalue = [0, 0, 2, 0, 0, 0, 0, 0, 0, 0]"] ;
775 -> 776 ;
777 [label="X[2] <= 44.527\nentropy = 0.918\nsamples = 3\nvalue = [0, 0, 1, 0, 0, 0, 2, 0, 0, 0]"] ;
775 -> 777 ;
778 [label="entropy = 0.0\nsamples = 2\nvalue = [0, 0, 0, 0, 0, 0, 2, 0, 0, 0]"] ;
777 -> 778 ;
779 [label="entropy = 0.0\nsamples = 1\nvalue = [0, 0, 1, 0, 0, 0, 0, 0, 0, 0]"] ;
777 -> 779 ;
780 [label="X[9] <= 53.605\nentropy = 1.149\nsamples = 7\nvalue = [1, 0, 0, 0, 0, 5, 1, 0, 0, 0]"] ;
770 -> 780 ;
781 [label="entropy = 0.0\nsamples = 5\nvalue = [0, 0, 0, 0, 0, 5, 0, 0, 0, 0]"] ;
780 -> 781 ;
782 [label="X[3] <= 55.39\nentropy = 1.0\nsamples = 2\nvalue = [1, 0, 0, 0, 0, 0, 1, 0, 0, 0]"] ;
780 -> 782 ;
783 [label="entropy = 0.0\nsamples = 1\nvalue = [0, 0, 0, 0, 0, 0, 1, 0, 0, 0]"] ;
782 -> 783 ;
784 [label="entropy = 0.0\nsamples = 1\nvalue = [1, 0, 0, 0, 0, 0, 0, 0, 0, 0]"] ;
782 -> 784 ;
785 [label="X[1] <= 40.471\nentropy = 1.944\nsamples = 28\nvalue = [0, 0, 12, 1, 6, 0, 2, 7, 0, 0]"] ;
757 -> 785 ;
786 [label="X[8] <= 47.819\nentropy = 1.149\nsamples = 7\nvalue = [0, 0, 0, 0, 1, 0, 1, 5, 0, 0]"] ;
785 -> 786 ;
787 [label="X[4] <= 15.5\nentropy = 1.0\nsamples = 2\nvalue = [0, 0, 0, 0, 1, 0, 1, 0, 0, 0]"] ;
786 -> 787 ;
788 [label="entropy = 0.0\nsamples = 1\nvalue = [0, 0, 0, 0, 1, 0, 0, 0, 0, 0]"] ;
787 -> 788 ;
789 [label="entropy = 0.0\nsamples = 1\nvalue = [0, 0, 0, 0, 0, 0, 1, 0, 0, 0]"] ;
787 -> 789 ;
790 [label="entropy = 0.0\nsamples = 5\nvalue = [0, 0, 0, 0, 0, 0, 0, 5, 0, 0]"] ;
786 -> 790 ;
791 [label="X[2] <= 48.06\nentropy = 1.696\nsamples = 21\nvalue = [0, 0, 12, 1, 5, 0, 1, 2, 0, 0]"] ;
785 -> 791 ;
792 [label="X[9] <= 48.63\nentropy = 1.135\nsamples = 18\nvalue = [0, 0, 12, 0, 5, 0, 0, 1, 0, 0]"] ;
791 -> 792 ;
793 [label="X[3] <= 54.819\nentropy = 0.592\nsamples = 7\nvalue = [0, 0, 6, 0, 0, 0, 0, 1, 0, 0]"] ;
792 -> 793 ;
794 [label="entropy = 0.0\nsamples = 6\nvalue = [0, 0, 6, 0, 0, 0, 0, 0, 0, 0]"] ;
793 -> 794 ;
795 [label="entropy = 0.0\nsamples = 1\nvalue = [0, 0, 0, 0, 0, 0, 0, 1, 0, 0]"] ;
793 -> 795 ;
796 [label="X[1] <= 48.431\nentropy = 0.994\nsamples = 11\nvalue = [0, 0, 6, 0, 5, 0, 0, 0, 0, 0]"] ;
792 -> 796 ;
797 [label="entropy = 0.0\nsamples = 5\nvalue = [0, 0, 0, 0, 5, 0, 0, 0, 0, 0]"] ;
796 -> 797 ;
798 [label="entropy = 0.0\nsamples = 6\nvalue = [0, 0, 6, 0, 0, 0, 0, 0, 0, 0]"] ;
796 -> 798 ;
799 [label="X[8] <= 56.326\nentropy = 1.585\nsamples = 3\nvalue = [0, 0, 0, 1, 0, 0, 1, 1, 0, 0]"] ;
791 -> 799 ;
800 [label="entropy = 0.0\nsamples = 1\nvalue = [0, 0, 0, 1, 0, 0, 0, 0, 0, 0]"] ;
799 -> 800 ;
801 [label="X[2] <= 50.02\nentropy = 1.0\nsamples = 2\nvalue = [0, 0, 0, 0, 0, 0, 1, 1, 0, 0]"] ;
799 -> 801 ;
802 [label="entropy = 0.0\nsamples = 1\nvalue = [0, 0, 0, 0, 0, 0, 1, 0, 0, 0]"] ;
801 -> 802 ;
803 [label="entropy = 0.0\nsamples = 1\nvalue = [0, 0, 0, 0, 0, 0, 0, 1, 0, 0]"] ;
801 -> 803 ;
804 [label="X[3] <= 49.08\nentropy = 1.417\nsamples = 30\nvalue = [0, 0, 17, 10, 0, 0, 2, 1, 0, 0]"] ;
756 -> 804 ;
805 [label="X[5] <= 14.0\nentropy = 0.986\nsamples = 9\nvalue = [0, 0, 1, 7, 0, 0, 0, 1, 0, 0]"] ;
804 -> 805 ;
806 [label="X[8] <= 57.94\nentropy = 1.0\nsamples = 2\nvalue = [0, 0, 1, 0, 0, 0, 0, 1, 0, 0]"] ;
805 -> 806 ;
807 [label="entropy = 0.0\nsamples = 1\nvalue = [0, 0, 0, 0, 0, 0, 0, 1, 0, 0]"] ;
806 -> 807 ;
808 [label="entropy = 0.0\nsamples = 1\nvalue = [0, 0, 1, 0, 0, 0, 0, 0, 0, 0]"] ;
806 -> 808 ;
809 [label="entropy = 0.0\nsamples = 7\nvalue = [0, 0, 0, 7, 0, 0, 0, 0, 0, 0]"] ;
805 -> 809 ;
810 [label="X[4] <= 10.5\nentropy = 1.023\nsamples = 21\nvalue = [0, 0, 16, 3, 0, 0, 2, 0, 0, 0]"] ;
804 -> 810 ;
811 [label="X[8] <= 56.06\nentropy = 0.353\nsamples = 15\nvalue = [0, 0, 14, 1, 0, 0, 0, 0, 0, 0]"] ;
810 -> 811 ;
812 [label="X[2] <= 44.037\nentropy = 1.0\nsamples = 2\nvalue = [0, 0, 1, 1, 0, 0, 0, 0, 0, 0]"] ;
811 -> 812 ;
813 [label="entropy = 0.0\nsamples = 1\nvalue = [0, 0, 0, 1, 0, 0, 0, 0, 0, 0]"] ;
812 -> 813 ;
814 [label="entropy = 0.0\nsamples = 1\nvalue = [0, 0, 1, 0, 0, 0, 0, 0, 0, 0]"] ;
812 -> 814 ;
815 [label="entropy = 0.0\nsamples = 13\nvalue = [0, 0, 13, 0, 0, 0, 0, 0, 0, 0]"] ;
811 -> 815 ;
816 [label="X[7] <= 66.219\nentropy = 1.585\nsamples = 6\nvalue = [0, 0, 2, 2, 0, 0, 2, 0, 0, 0]"] ;
810 -> 816 ;
817 [label="X[5] <= 13.5\nentropy = 1.0\nsamples = 4\nvalue = [0, 0, 2, 0, 0, 0, 2, 0, 0, 0]"] ;
816 -> 817 ;
818 [label="entropy = 0.0\nsamples = 1\nvalue = [0, 0, 0, 0, 0, 0, 1, 0, 0, 0]"] ;
817 -> 818 ;
819 [label="X[7] <= 59.907\nentropy = 0.918\nsamples = 3\nvalue = [0, 0, 2, 0, 0, 0, 1, 0, 0, 0]"] ;
817 -> 819 ;
820 [label="entropy = 0.0\nsamples = 2\nvalue = [0, 0, 2, 0, 0, 0, 0, 0, 0, 0]"] ;
819 -> 820 ;
821 [label="entropy = 0.0\nsamples = 1\nvalue = [0, 0, 0, 0, 0, 0, 1, 0, 0, 0]"] ;
819 -> 821 ;
822 [label="entropy = 0.0\nsamples = 2\nvalue = [0, 0, 0, 2, 0, 0, 0, 0, 0, 0]"] ;
816 -> 822 ;
823 [label="X[2] <= 70.294\nentropy = 2.146\nsamples = 15\nvalue = [0, 0, 0, 1, 7, 3, 1, 2, 1, 0]"] ;
755 -> 823 ;
824 [label="X[8] <= 51.317\nentropy = 1.551\nsamples = 12\nvalue = [0, 0, 0, 1, 7, 3, 0, 1, 0, 0]"] ;
823 -> 824 ;
825 [label="X[6] <= 54.44\nentropy = 1.5\nsamples = 4\nvalue = [0, 0, 0, 1, 0, 2, 0, 1, 0, 0]"] ;
824 -> 825 ;
826 [label="X[6] <= 47.387\nentropy = 1.0\nsamples = 2\nvalue = [0, 0, 0, 1, 0, 0, 0, 1, 0, 0]"] ;
825 -> 826 ;
827 [label="entropy = 0.0\nsamples = 1\nvalue = [0, 0, 0, 0, 0, 0, 0, 1, 0, 0]"] ;
826 -> 827 ;
828 [label="entropy = 0.0\nsamples = 1\nvalue = [0, 0, 0, 1, 0, 0, 0, 0, 0, 0]"] ;
826 -> 828 ;
829 [label="entropy = 0.0\nsamples = 2\nvalue = [0, 0, 0, 0, 0, 2, 0, 0, 0, 0]"] ;
825 -> 829 ;
830 [label="X[9] <= 53.98\nentropy = 0.544\nsamples = 8\nvalue = [0, 0, 0, 0, 7, 1, 0, 0, 0, 0]"] ;
824 -> 830 ;
831 [label="entropy = 0.0\nsamples = 1\nvalue = [0, 0, 0, 0, 0, 1, 0, 0, 0, 0]"] ;
830 -> 831 ;
832 [label="entropy = 0.0\nsamples = 7\nvalue = [0, 0, 0, 0, 7, 0, 0, 0, 0, 0]"] ;
830 -> 832 ;
833 [label="X[8] <= 72.457\nentropy = 1.585\nsamples = 3\nvalue = [0, 0, 0, 0, 0, 0, 1, 1, 1, 0]"] ;
823 -> 833 ;
834 [label="entropy = 0.0\nsamples = 1\nvalue = [0, 0, 0, 0, 0, 0, 0, 1, 0, 0]"] ;
833 -> 834 ;
835 [label="X[8] <= 84.757\nentropy = 1.0\nsamples = 2\nvalue = [0, 0, 0, 0, 0, 0, 1, 0, 1, 0]"] ;
833 -> 835 ;
836 [label="entropy = 0.0\nsamples = 1\nvalue = [0, 0, 0, 0, 0, 0, 1, 0, 0, 0]"] ;
835 -> 836 ;
837 [label="entropy = 0.0\nsamples = 1\nvalue = [0, 0, 0, 0, 0, 0, 0, 0, 1, 0]"] ;
835 -> 837 ;
838 [label="X[7] <= 46.569\nentropy = 2.957\nsamples = 2011\nvalue = [360, 3, 213, 199, 86, 139, 312, 28, 330, 341]"] ;
0 -> 838 [labeldistance=2.5, labelangle=-45, headlabel="False"] ;
839 [label="X[8] <= 27.452\nentropy = 2.911\nsamples = 1209\nvalue = [128, 1, 116, 65, 74, 102, 280, 25, 152, 266]"] ;
838 -> 839 ;
840 [label="X[2] <= 21.582\nentropy = 2.291\nsamples = 263\nvalue = [7, 1, 2, 22, 10, 22, 26, 13, 18, 142]"] ;
839 -> 840 ;
841 [label="X[8] <= 19.9\nentropy = 2.059\nsamples = 44\nvalue = [0, 1, 2, 0, 5, 0, 19, 1, 2, 14]"] ;
840 -> 841 ;
842 [label="X[3] <= 20.043\nentropy = 1.149\nsamples = 14\nvalue = [0, 0, 0, 0, 2, 0, 0, 0, 2, 10]"] ;
841 -> 842 ;
843 [label="entropy = 0.0\nsamples = 9\nvalue = [0, 0, 0, 0, 0, 0, 0, 0, 0, 9]"] ;
842 -> 843 ;
844 [label="X[3] <= 21.029\nentropy = 1.522\nsamples = 5\nvalue = [0, 0, 0, 0, 2, 0, 0, 0, 2, 1]"] ;
842 -> 844 ;
845 [label="entropy = 0.0\nsamples = 2\nvalue = [0, 0, 0, 0, 2, 0, 0, 0, 0, 0]"] ;
844 -> 845 ;
846 [label="X[9] <= 30.599\nentropy = 0.918\nsamples = 3\nvalue = [0, 0, 0, 0, 0, 0, 0, 0, 2, 1]"] ;
844 -> 846 ;
847 [label="entropy = 0.0\nsamples = 2\nvalue = [0, 0, 0, 0, 0, 0, 0, 0, 2, 0]"] ;
846 -> 847 ;
848 [label="entropy = 0.0\nsamples = 1\nvalue = [0, 0, 0, 0, 0, 0, 0, 0, 0, 1]"] ;
846 -> 848 ;
849 [label="X[9] <= 30.51\nentropy = 1.725\nsamples = 30\nvalue = [0, 1, 2, 0, 3, 0, 19, 1, 0, 4]"] ;
841 -> 849 ;
850 [label="X[4] <= 4.5\nentropy = 1.053\nsamples = 18\nvalue = [0, 0, 0, 0, 0, 0, 13, 1, 0, 4]"] ;
849 -> 850 ;
851 [label="entropy = 0.0\nsamples = 3\nvalue = [0, 0, 0, 0, 0, 0, 0, 0, 0, 3]"] ;
850 -> 851 ;
852 [label="X[3] <= 18.115\nentropy = 0.7\nsamples = 15\nvalue = [0, 0, 0, 0, 0, 0, 13, 1, 0, 1]"] ;
850 -> 852 ;
853 [label="X[4] <= 11.0\nentropy = 1.0\nsamples = 2\nvalue = [0, 0, 0, 0, 0, 0, 0, 1, 0, 1]"] ;
852 -> 853 ;
854 [label="entropy = 0.0\nsamples = 1\nvalue = [0, 0, 0, 0, 0, 0, 0, 1, 0, 0]"] ;
853 -> 854 ;
855 [label="entropy = 0.0\nsamples = 1\nvalue = [0, 0, 0, 0, 0, 0, 0, 0, 0, 1]"] ;
853 -> 855 ;
856 [label="entropy = 0.0\nsamples = 13\nvalue = [0, 0, 0, 0, 0, 0, 13, 0, 0, 0]"] ;
852 -> 856 ;
857 [label="X[4] <= 9.5\nentropy = 1.73\nsamples = 12\nvalue = [0, 1, 2, 0, 3, 0, 6, 0, 0, 0]"] ;
849 -> 857 ;
858 [label="entropy = 0.0\nsamples = 6\nvalue = [0, 0, 0, 0, 0, 0, 6, 0, 0, 0]"] ;
857 -> 858 ;
859 [label="X[2] <= 16.473\nentropy = 1.459\nsamples = 6\nvalue = [0, 1, 2, 0, 3, 0, 0, 0, 0, 0]"] ;
857 -> 859 ;
860 [label="entropy = 0.0\nsamples = 2\nvalue = [0, 0, 2, 0, 0, 0, 0, 0, 0, 0]"] ;
859 -> 860 ;
861 [label="X[8] <= 25.61\nentropy = 0.811\nsamples = 4\nvalue = [0, 1, 0, 0, 3, 0, 0, 0, 0, 0]"] ;
859 -> 861 ;
862 [label="entropy = 0.0\nsamples = 3\nvalue = [0, 0, 0, 0, 3, 0, 0, 0, 0, 0]"] ;
861 -> 862 ;
863 [label="entropy = 0.0\nsamples = 1\nvalue = [0, 1, 0, 0, 0, 0, 0, 0, 0, 0]"] ;
861 -> 863 ;
864 [label="X[7] <= 25.879\nentropy = 2.066\nsamples = 219\nvalue = [7, 0, 0, 22, 5, 22, 7, 12, 16, 128]"] ;
840 -> 864 ;
865 [label="X[8] <= 19.84\nentropy = 2.589\nsamples = 49\nvalue = [5, 0, 0, 4, 2, 9, 6, 0, 8, 15]"] ;
864 -> 865 ;
866 [label="X[2] <= 23.858\nentropy = 1.651\nsamples = 23\nvalue = [1, 0, 0, 3, 0, 4, 0, 0, 1, 14]"] ;
865 -> 866 ;
867 [label="X[5] <= 12.5\nentropy = 0.414\nsamples = 12\nvalue = [1, 0, 0, 0, 0, 0, 0, 0, 0, 11]"] ;
866 -> 867 ;
868 [label="entropy = 0.0\nsamples = 11\nvalue = [0, 0, 0, 0, 0, 0, 0, 0, 0, 11]"] ;
867 -> 868 ;
869 [label="entropy = 0.0\nsamples = 1\nvalue = [1, 0, 0, 0, 0, 0, 0, 0, 0, 0]"] ;
867 -> 869 ;
870 [label="X[7] <= 21.371\nentropy = 1.868\nsamples = 11\nvalue = [0, 0, 0, 3, 0, 4, 0, 0, 1, 3]"] ;
866 -> 870 ;
871 [label="entropy = 0.0\nsamples = 3\nvalue = [0, 0, 0, 3, 0, 0, 0, 0, 0, 0]"] ;
870 -> 871 ;
872 [label="X[4] <= 10.0\nentropy = 1.406\nsamples = 8\nvalue = [0, 0, 0, 0, 0, 4, 0, 0, 1, 3]"] ;
870 -> 872 ;
873 [label="X[8] <= 6.89\nentropy = 0.722\nsamples = 5\nvalue = [0, 0, 0, 0, 0, 4, 0, 0, 0, 1]"] ;
872 -> 873 ;
874 [label="entropy = 0.0\nsamples = 1\nvalue = [0, 0, 0, 0, 0, 0, 0, 0, 0, 1]"] ;
873 -> 874 ;
875 [label="entropy = 0.0\nsamples = 4\nvalue = [0, 0, 0, 0, 0, 4, 0, 0, 0, 0]"] ;
873 -> 875 ;
876 [label="X[3] <= 25.121\nentropy = 0.918\nsamples = 3\nvalue = [0, 0, 0, 0, 0, 0, 0, 0, 1, 2]"] ;
872 -> 876 ;
877 [label="entropy = 0.0\nsamples = 1\nvalue = [0, 0, 0, 0, 0, 0, 0, 0, 1, 0]"] ;
876 -> 877 ;
878 [label="entropy = 0.0\nsamples = 2\nvalue = [0, 0, 0, 0, 0, 0, 0, 0, 0, 2]"] ;
876 -> 878 ;
879 [label="X[9] <= 36.189\nentropy = 2.517\nsamples = 26\nvalue = [4, 0, 0, 1, 2, 5, 6, 0, 7, 1]"] ;
865 -> 879 ;
880 [label="X[2] <= 22.798\nentropy = 0.991\nsamples = 9\nvalue = [4, 0, 0, 0, 0, 0, 0, 0, 5, 0]"] ;
879 -> 880 ;
881 [label="entropy = 0.0\nsamples = 3\nvalue = [0, 0, 0, 0, 0, 0, 0, 0, 3, 0]"] ;
880 -> 881 ;
882 [label="X[4] <= 8.0\nentropy = 0.918\nsamples = 6\nvalue = [4, 0, 0, 0, 0, 0, 0, 0, 2, 0]"] ;
880 -> 882 ;
883 [label="entropy = 0.0\nsamples = 4\nvalue = [4, 0, 0, 0, 0, 0, 0, 0, 0, 0]"] ;
882 -> 883 ;
884 [label="entropy = 0.0\nsamples = 2\nvalue = [0, 0, 0, 0, 0, 0, 0, 0, 2, 0]"] ;
882 -> 884 ;
885 [label="X[4] <= 12.0\nentropy = 2.257\nsamples = 17\nvalue = [0, 0, 0, 1, 2, 5, 6, 0, 2, 1]"] ;
879 -> 885 ;
886 [label="X[2] <= 31.182\nentropy = 1.727\nsamples = 14\nvalue = [0, 0, 0, 1, 0, 5, 6, 0, 2, 0]"] ;
885 -> 886 ;
887 [label="X[2] <= 23.598\nentropy = 1.224\nsamples = 9\nvalue = [0, 0, 0, 0, 0, 1, 6, 0, 2, 0]"] ;
886 -> 887 ;
888 [label="entropy = 0.0\nsamples = 1\nvalue = [0, 0, 0, 0, 0, 1, 0, 0, 0, 0]"] ;
887 -> 888 ;
889 [label="X[7] <= 19.064\nentropy = 0.811\nsamples = 8\nvalue = [0, 0, 0, 0, 0, 0, 6, 0, 2, 0]"] ;
887 -> 889 ;
890 [label="entropy = 0.0\nsamples = 4\nvalue = [0, 0, 0, 0, 0, 0, 4, 0, 0, 0]"] ;
889 -> 890 ;
891 [label="X[1] <= 26.334\nentropy = 1.0\nsamples = 4\nvalue = [0, 0, 0, 0, 0, 0, 2, 0, 2, 0]"] ;
889 -> 891 ;
892 [label="entropy = 0.0\nsamples = 2\nvalue = [0, 0, 0, 0, 0, 0, 2, 0, 0, 0]"] ;
891 -> 892 ;
893 [label="entropy = 0.0\nsamples = 2\nvalue = [0, 0, 0, 0, 0, 0, 0, 0, 2, 0]"] ;
891 -> 893 ;
894 [label="X[7] <= 19.664\nentropy = 0.722\nsamples = 5\nvalue = [0, 0, 0, 1, 0, 4, 0, 0, 0, 0]"] ;
886 -> 894 ;
895 [label="entropy = 0.0\nsamples = 1\nvalue = [0, 0, 0, 1, 0, 0, 0, 0, 0, 0]"] ;
894 -> 895 ;
896 [label="entropy = 0.0\nsamples = 4\nvalue = [0, 0, 0, 0, 0, 4, 0, 0, 0, 0]"] ;
894 -> 896 ;
897 [label="X[9] <= 41.161\nentropy = 0.918\nsamples = 3\nvalue = [0, 0, 0, 0, 2, 0, 0, 0, 0, 1]"] ;
885 -> 897 ;
898 [label="entropy = 0.0\nsamples = 2\nvalue = [0, 0, 0, 0, 2, 0, 0, 0, 0, 0]"] ;
897 -> 898 ;
899 [label="entropy = 0.0\nsamples = 1\nvalue = [0, 0, 0, 0, 0, 0, 0, 0, 0, 1]"] ;
897 -> 899 ;
900 [label="X[6] <= 33.082\nentropy = 1.718\nsamples = 170\nvalue = [2, 0, 0, 18, 3, 13, 1, 12, 8, 113]"] ;
864 -> 900 ;
901 [label="X[3] <= 28.75\nentropy = 1.451\nsamples = 103\nvalue = [1, 0, 0, 7, 3, 2, 1, 10, 3, 76]"] ;
900 -> 901 ;
902 [label="X[4] <= 8.5\nentropy = 1.401\nsamples = 76\nvalue = [0, 0, 0, 7, 0, 2, 1, 8, 3, 55]"] ;
901 -> 902 ;
903 [label="X[5] <= 10.5\nentropy = 1.574\nsamples = 54\nvalue = [0, 0, 0, 6, 0, 2, 0, 8, 3, 35]"] ;
902 -> 903 ;
904 [label="X[6] <= 29.136\nentropy = 1.365\nsamples = 42\nvalue = [0, 0, 0, 6, 0, 0, 0, 4, 3, 29]"] ;
903 -> 904 ;
905 [label="X[5] <= 8.5\nentropy = 1.013\nsamples = 36\nvalue = [0, 0, 0, 3, 0, 0, 0, 2, 2, 29]"] ;
904 -> 905 ;
906 [label="X[9] <= 26.753\nentropy = 0.881\nsamples = 10\nvalue = [0, 0, 0, 3, 0, 0, 0, 0, 0, 7]"] ;
905 -> 906 ;
907 [label="X[9] <= 20.23\nentropy = 0.811\nsamples = 4\nvalue = [0, 0, 0, 3, 0, 0, 0, 0, 0, 1]"] ;
906 -> 907 ;
908 [label="entropy = 0.0\nsamples = 1\nvalue = [0, 0, 0, 0, 0, 0, 0, 0, 0, 1]"] ;
907 -> 908 ;
909 [label="entropy = 0.0\nsamples = 3\nvalue = [0, 0, 0, 3, 0, 0, 0, 0, 0, 0]"] ;
907 -> 909 ;
910 [label="entropy = 0.0\nsamples = 6\nvalue = [0, 0, 0, 0, 0, 0, 0, 0, 0, 6]"] ;
906 -> 910 ;
911 [label="X[8] <= 25.307\nentropy = 0.773\nsamples = 26\nvalue = [0, 0, 0, 0, 0, 0, 0, 2, 2, 22]"] ;
905 -> 911 ;
912 [label="X[6] <= 28.704\nentropy = 0.297\nsamples = 19\nvalue = [0, 0, 0, 0, 0, 0, 0, 0, 1, 18]"] ;
911 -> 912 ;
913 [label="entropy = 0.0\nsamples = 17\nvalue = [0, 0, 0, 0, 0, 0, 0, 0, 0, 17]"] ;
912 -> 913 ;
914 [label="X[9] <= 24.117\nentropy = 1.0\nsamples = 2\nvalue = [0, 0, 0, 0, 0, 0, 0, 0, 1, 1]"] ;
912 -> 914 ;
915 [label="entropy = 0.0\nsamples = 1\nvalue = [0, 0, 0, 0, 0, 0, 0, 0, 0, 1]"] ;
914 -> 915 ;
916 [label="entropy = 0.0\nsamples = 1\nvalue = [0, 0, 0, 0, 0, 0, 0, 0, 1, 0]"] ;
914 -> 916 ;
917 [label="X[8] <= 25.619\nentropy = 1.379\nsamples = 7\nvalue = [0, 0, 0, 0, 0, 0, 0, 2, 1, 4]"] ;
911 -> 917 ;
918 [label="X[2] <= 23.837\nentropy = 1.0\nsamples = 2\nvalue = [0, 0, 0, 0, 0, 0, 0, 1, 1, 0]"] ;
917 -> 918 ;
919 [label="entropy = 0.0\nsamples = 1\nvalue = [0, 0, 0, 0, 0, 0, 0, 1, 0, 0]"] ;
918 -> 919 ;
920 [label="entropy = 0.0\nsamples = 1\nvalue = [0, 0, 0, 0, 0, 0, 0, 0, 1, 0]"] ;
918 -> 920 ;
921 [label="X[9] <= 36.222\nentropy = 0.722\nsamples = 5\nvalue = [0, 0, 0, 0, 0, 0, 0, 1, 0, 4]"] ;
917 -> 921 ;
922 [label="entropy = 0.0\nsamples = 4\nvalue = [0, 0, 0, 0, 0, 0, 0, 0, 0, 4]"] ;
921 -> 922 ;
923 [label="entropy = 0.0\nsamples = 1\nvalue = [0, 0, 0, 0, 0, 0, 0, 1, 0, 0]"] ;
921 -> 923 ;
924 [label="X[6] <= 30.853\nentropy = 1.459\nsamples = 6\nvalue = [0, 0, 0, 3, 0, 0, 0, 2, 1, 0]"] ;
904 -> 924 ;
925 [label="entropy = 0.0\nsamples = 3\nvalue = [0, 0, 0, 3, 0, 0, 0, 0, 0, 0]"] ;
924 -> 925 ;
926 [label="X[2] <= 30.438\nentropy = 0.918\nsamples = 3\nvalue = [0, 0, 0, 0, 0, 0, 0, 2, 1, 0]"] ;
924 -> 926 ;
927 [label="entropy = 0.0\nsamples = 1\nvalue = [0, 0, 0, 0, 0, 0, 0, 0, 1, 0]"] ;
926 -> 927 ;
928 [label="entropy = 0.0\nsamples = 2\nvalue = [0, 0, 0, 0, 0, 0, 0, 2, 0, 0]"] ;
926 -> 928 ;
929 [label="X[3] <= 22.989\nentropy = 1.459\nsamples = 12\nvalue = [0, 0, 0, 0, 0, 2, 0, 4, 0, 6]"] ;
903 -> 929 ;
930 [label="X[4] <= 5.5\nentropy = 1.252\nsamples = 6\nvalue = [0, 0, 0, 0, 0, 1, 0, 4, 0, 1]"] ;
929 -> 930 ;
931 [label="X[9] <= 27.385\nentropy = 0.722\nsamples = 5\nvalue = [0, 0, 0, 0, 0, 0, 0, 4, 0, 1]"] ;
930 -> 931 ;
932 [label="X[3] <= 19.193\nentropy = 1.0\nsamples = 2\nvalue = [0, 0, 0, 0, 0, 0, 0, 1, 0, 1]"] ;
931 -> 932 ;
933 [label="entropy = 0.0\nsamples = 1\nvalue = [0, 0, 0, 0, 0, 0, 0, 1, 0, 0]"] ;
932 -> 933 ;
934 [label="entropy = 0.0\nsamples = 1\nvalue = [0, 0, 0, 0, 0, 0, 0, 0, 0, 1]"] ;
932 -> 934 ;
935 [label="entropy = 0.0\nsamples = 3\nvalue = [0, 0, 0, 0, 0, 0, 0, 3, 0, 0]"] ;
931 -> 935 ;
936 [label="entropy = 0.0\nsamples = 1\nvalue = [0, 0, 0, 0, 0, 1, 0, 0, 0, 0]"] ;
930 -> 936 ;
937 [label="X[6] <= 23.258\nentropy = 0.65\nsamples = 6\nvalue = [0, 0, 0, 0, 0, 1, 0, 0, 0, 5]"] ;
929 -> 937 ;
938 [label="entropy = 0.0\nsamples = 1\nvalue = [0, 0, 0, 0, 0, 1, 0, 0, 0, 0]"] ;
937 -> 938 ;
939 [label="entropy = 0.0\nsamples = 5\nvalue = [0, 0, 0, 0, 0, 0, 0, 0, 0, 5]"] ;
937 -> 939 ;
940 [label="X[4] <= 10.5\nentropy = 0.53\nsamples = 22\nvalue = [0, 0, 0, 1, 0, 0, 1, 0, 0, 20]"] ;
902 -> 940 ;
941 [label="X[1] <= 22.252\nentropy = 1.252\nsamples = 6\nvalue = [0, 0, 0, 1, 0, 0, 1, 0, 0, 4]"] ;
940 -> 941 ;
942 [label="entropy = 0.0\nsamples = 4\nvalue = [0, 0, 0, 0, 0, 0, 0, 0, 0, 4]"] ;
941 -> 942 ;
943 [label="X[3] <= 25.078\nentropy = 1.0\nsamples = 2\nvalue = [0, 0, 0, 1, 0, 0, 1, 0, 0, 0]"] ;
941 -> 943 ;
944 [label="entropy = 0.0\nsamples = 1\nvalue = [0, 0, 0, 0, 0, 0, 1, 0, 0, 0]"] ;
943 -> 944 ;
945 [label="entropy = 0.0\nsamples = 1\nvalue = [0, 0, 0, 1, 0, 0, 0, 0, 0, 0]"] ;
943 -> 945 ;
946 [label="entropy = 0.0\nsamples = 16\nvalue = [0, 0, 0, 0, 0, 0, 0, 0, 0, 16]"] ;
940 -> 946 ;
947 [label="X[4] <= 18.5\nentropy = 1.088\nsamples = 27\nvalue = [1, 0, 0, 0, 3, 0, 0, 2, 0, 21]"] ;
901 -> 947 ;
948 [label="X[5] <= 6.0\nentropy = 0.549\nsamples = 21\nvalue = [1, 0, 0, 0, 1, 0, 0, 0, 0, 19]"] ;
947 -> 948 ;
949 [label="entropy = 0.0\nsamples = 1\nvalue = [1, 0, 0, 0, 0, 0, 0, 0, 0, 0]"] ;
948 -> 949 ;
950 [label="X[5] <= 17.0\nentropy = 0.286\nsamples = 20\nvalue = [0, 0, 0, 0, 1, 0, 0, 0, 0, 19]"] ;
948 -> 950 ;
951 [label="entropy = 0.0\nsamples = 19\nvalue = [0, 0, 0, 0, 0, 0, 0, 0, 0, 19]"] ;
950 -> 951 ;
